layers 12
layer 0 Dense
228 250
[ -0.06177738  0.0794411  -0.05633552 -0.05398002 -0.02268239 -0.02556899
  0.02976996 -0.06242017  0.02301932 -0.01884262 -0.01720169 -0.01979554
 -0.03210774 -0.02461571 -0.05534458 -0.06175882 -0.03700547 -0.09255693
 -0.0649668  -0.02935228 -0.06486905 -0.10503419  0.03914865 -0.06314392
 -0.04025535 -0.02501968 -0.10543749 -0.02151266 -0.02135972 -0.06793071
 -0.03760991 -0.05403715 -0.02245809 -0.12313542  0.07530356  0.01383087
 -0.07956123 -0.07426959 -0.04252741 -0.0457101  -0.03875587 -0.08463003
 -0.07385707 -0.05769997  0.00295535 -0.07192796 -0.1363214  -0.06462009
 -0.0497084  -0.01908247 -0.00071821 -0.00530305  0.02214302 -0.04471954
 -0.05410367 -0.00062082  0.11130186  0.00947194  0.00262108 -0.1159661
 -0.05960605 -0.04452141  0.05163909  0.00305105 -0.06839024 -0.0502027
 -0.00288035 -0.08666415 -0.01935789  0.02074566 -0.02535592 -0.04647566
 -0.02042516 -0.05454608 -0.07887561 -0.0044802  -0.04319372 -0.06410988
 -0.04468309 -0.07419802 -0.04610612 -0.02941244  0.04752503 -0.04708287
 -0.00050335 -0.01766226 -0.05392902 -0.04507885 -0.09051754  0.06292081
 -0.02815137  0.03993533 -0.03364231  0.02857533 -0.02530026 -0.06883699
  0.06256673 -0.05624919  0.04022181 -0.1370203  -0.04160496  0.01000251
  0.00045814  0.12433131 -0.06746464  0.02315221 -0.01440116 -0.06427361
  0.0071692  -0.07960059 -0.04447741  0.07598835 -0.0647555   0.02487632
  0.01749082 -0.03973158  0.07074654 -0.02327311  0.00715468 -0.04714107
 -0.04405477  0.02091366  0.00669803 -0.03187042 -0.03694623 -0.07754374
 -0.03710869 -0.06271328  0.01867131 -0.06553564 -0.04384098 -0.00214488
 -0.06853183 -0.03825045 -0.08518539  0.01857252 -0.08110827 -0.00791011
 -0.04362123  0.0070105   0.0673497  -0.01021008 -0.08518524 -0.05855274
  0.00618906 -0.09266483 -0.0382799   0.00355107 -0.10864189 -0.05436378
  0.04639134 -0.00400509 -0.1058724  -0.07531275 -0.0567339   0.00276369
 -0.0677128   0.00075811 -0.00131705 -0.117147   -0.06585611  0.4262353
 -0.02413369 -0.07908767 -0.04285318 -0.07203836 -0.03609951 -0.0241343
 -0.00867123 -0.03285037 -0.06342233 -0.0164553   0.02388524 -0.04635334
 -0.07732488 -0.09049172 -0.06567364 -0.10084789 -0.05312614 -0.07436241
 -0.08511907  0.00563688 -0.01325592 -0.06742168 -0.02830834 -0.05837981
  0.00623768 -0.0781987  -0.04583583  0.08901034 -0.07797769 -0.06231648
 -0.02037324  0.02679875 -0.10769239 -0.07843112 -0.01678796 -0.02146883
 -0.04309363 -0.02073568  0.02501469 -0.05528096  0.04571403 -0.00890308
 -0.07915011 -0.00435581 -0.09287352 -0.04197688  0.07766231 -0.04446317
 -0.02031228 -0.05784036 -0.09064754  0.0050414  -0.05233496 -0.09301386
 -0.04261311  0.05816466 -0.0778198  -0.01484739 -0.04845726 -0.03279842
 -0.02946935 -0.03210077  0.00500387  0.03858283 -0.02643757  0.02126503
 -0.11179432 -0.07092376 -0.01496867 -0.05018338 -0.0161979   0.04213325
 -0.05168708 -0.06318227  0.00599733  0.04456188 -0.04520018 -0.07345355
 -0.09089938  0.06458236 -0.01975073 -0.00521846 -0.03442689  0.0224588
 -0.05872551 -0.00885049 -0.09127686 -0.00668162 ]
[ -0.02271764 -0.02014969  0.02187419 -0.03659695 -0.03699613 -0.0020748
 -0.01510795 -0.08375385 -0.02568159 -0.01194292 -0.03649451 -0.03267276
 -0.0258186  -0.03369136 -0.03945371 -0.03830812 -0.04605867 -0.07845612
 -0.00309122 -0.00644454  0.01180665 -0.06805269  0.00592839 -0.02213449
 -0.01394259 -0.02722559 -0.02103074  0.02082324 -0.06185734 -0.03642339
 -0.00979003 -0.03785489 -0.00604266 -0.0279955  -0.00762628 -0.02412143
 -0.01347504 -0.01549833 -0.05466886  0.00239122  0.02504933 -0.0265173
 -0.00948895 -0.03018918 -0.01416806 -0.05186663 -0.03356918  0.0017429
 -0.0029611   0.00524306 -0.03141933 -0.01883466  0.0015947   0.02447479
 -0.00882724 -0.0361956  -0.02616771 -0.04843713  0.03482746 -0.03856081
 -0.03375917 -0.06113562 -0.0068119   0.01689495 -0.02891518 -0.03530186
  0.0132525  -0.06429369 -0.0227044  -0.02679056 -0.01588254  0.01102697
 -0.03458901 -0.02152079 -0.03903357 -0.00832585 -0.04513319 -0.03463762
 -0.0303402  -0.00199811 -0.03292799 -0.03772436  0.03057892 -0.04239531
 -0.00920253 -0.00663434  0.01716772 -0.00567422 -0.03120424 -0.07270594
 -0.01259427 -0.00680583 -0.0051022   0.0036756  -0.03229169 -0.00974899
 -0.00486974 -0.02051153  0.00096591  0.03698339 -0.02066038 -0.05072907
 -0.0003372  -0.07201393 -0.00744877 -0.02084444  0.02179738 -0.05350481
 -0.01895545  0.00811578  0.00389744  0.01499892 -0.03324898  0.00096279
 -0.01302639 -0.05484121 -0.0435878  -0.03676161 -0.00430144 -0.00907804
  0.01699927 -0.03057268 -0.01367122  0.0144692   0.04072933 -0.07078464
 -0.02165356 -0.00600883 -0.008766   -0.02449058 -0.02744646 -0.01758645
 -0.01527007 -0.0039606  -0.01404923 -0.00930267 -0.05287794  0.0151747
 -0.02507507 -0.01604307 -0.01255807 -0.0093413  -0.00846664 -0.01330222
 -0.02855016 -0.0402115  -0.03911803 -0.01649827 -0.08790489 -0.00664651
 -0.00716111 -0.01480633 -0.05552305  0.00210123  0.01611896 -0.00672549
 -0.01440657  0.01925771 -0.00627299  0.00915629 -0.00642845 -0.08143284
 -0.00089728 -0.05663336 -0.0076811  -0.06268273 -0.01780827 -0.00594337
 -0.03722521  0.01953144 -0.04586005 -0.04515295  0.00741161 -0.01252289
  0.04201801 -0.00696597 -0.0491687  -0.04391564  0.00660415 -0.04102475
  0.01171578  0.00694118 -0.0115412  -0.0495117   0.00536085 -0.03217599
 -0.02621317 -0.03983895  0.01689469 -0.02971592 -0.05303188 -0.01102367
 -0.01329882 -0.04379442 -0.0322399  -0.00298648 -0.00359308  0.0014757
 -0.06113839 -0.02090623 -0.01828363 -0.01983945 -0.0136493   0.00599956
 -0.00635096 -0.01375505 -0.06652779 -0.00765353  0.03797823 -0.02229523
  0.00922257 -0.05528842 -0.00677238 -0.02062108  0.02199863 -0.01657988
  0.00560827 -0.02161607 -0.0396291   0.00301984 -0.00752561 -0.02152564
 -0.02393921 -0.02250972 -0.03278303 -0.00347895  0.01049917 -0.00754924
  0.00385091 -0.03709334 -0.02516093 -0.01423747 -0.0273433   0.02420019
 -0.06637803 -0.04898046 -0.05014172 -0.03505418 -0.00262396 -0.02602862
  0.00460025 -0.01525988 -0.03504629 -0.02480255 -0.0195891  -0.00979658
 -0.03714966 -0.0369644  -0.05018767  0.00375879 ]
[ -8.92180875e-02  7.81073570e-02 -1.65255755e-01 -1.37938783e-01
 -4.84335497e-02 -1.34456414e-03  5.10556661e-02 -1.27448335e-01
  7.36739114e-02  5.72622381e-02  1.75999589e-02  8.33989978e-02
 -1.26909584e-01  7.67509826e-03 -1.13626443e-01 -1.79747477e-01
 -1.13832653e-02 -8.32168460e-02 -1.60552770e-01 -1.58355199e-03
 -1.09638557e-01 -1.18488751e-01  2.04435922e-02 -2.01766089e-01
 -1.04246505e-01 -4.70658392e-02 -2.83456564e-01 -7.61320516e-02
  5.17417900e-02 -1.18028671e-01 -2.11353395e-02 -7.73383901e-02
 -1.05343983e-02 -2.83680469e-01  2.54785538e-01  2.03203261e-02
 -2.22349659e-01 -6.91360310e-02  4.57400866e-02 -7.37493634e-02
 -5.47432154e-02 -1.00618668e-01 -8.36912394e-02 -1.95638612e-01
  1.29277995e-02 -6.83079287e-02 -3.63681734e-01 -2.11751670e-01
 -1.03491269e-01  2.40964466e-03 -3.67666036e-02  1.78923365e-02
  4.34091734e-03 -1.62457362e-01 -1.37788042e-01 -4.74405624e-02
  2.67433047e-01  1.04696363e-01  2.44201757e-02 -1.77026823e-01
 -6.24619164e-02 -1.60448596e-01  1.83128238e-01  6.64247572e-02
 -1.38292640e-01 -1.12714343e-01  4.47964817e-02 -1.16881385e-01
 -6.80676894e-03  3.94488387e-02  1.13579305e-03 -6.28243163e-02
  6.12921380e-02 -7.30958059e-02 -2.56039619e-01 -9.20996026e-05
 -7.41406456e-02 -1.33239299e-01 -1.60131916e-01 -1.54072136e-01
 -4.32943627e-02 -4.24458198e-02  1.19129650e-01 -1.57417655e-01
 -5.84414452e-02  1.00596314e-02 -1.82615474e-01  5.15196994e-02
 -1.29997149e-01  2.49234572e-01 -8.99533629e-02  1.05924778e-01
 -1.56527180e-02  4.30709086e-02 -6.05583563e-02 -1.21577851e-01
  2.08030850e-01 -1.66430414e-01  9.72470343e-02 -2.36001924e-01
 -5.28840795e-02  6.53472319e-02  8.60633925e-02  1.48532093e-01
 -1.23181656e-01  7.54936412e-02  7.80585334e-02 -7.84008503e-02
 -5.57047613e-02 -1.24351062e-01 -2.89340783e-02  9.07561183e-02
 -1.94775939e-01  1.21699154e-01 -1.52778495e-02 -5.17270081e-02
  1.81767821e-01 -8.29781964e-02  4.36531380e-03 -1.54778346e-01
 -1.30031601e-01 -9.98036563e-02  4.07850556e-03 -8.88608098e-02
 -4.71311137e-02 -2.68483683e-02  7.82620814e-03 -1.52977526e-01
  8.66721198e-02 -1.50461942e-01 -8.57201964e-02 -2.66106799e-02
 -1.19544648e-01 -1.64399520e-02 -1.53721198e-01 -1.85704753e-02
 -1.30801097e-01  6.65176883e-02 -6.42162338e-02  4.94701695e-03
  1.77959800e-02 -8.71311594e-03 -1.72161475e-01 -2.13476658e-01
  8.01902078e-03 -2.29953945e-01 -1.77041385e-02  9.09671485e-02
 -1.55040279e-01 -1.11678913e-01  1.44396544e-01 -1.57336798e-02
 -1.87462956e-01 -1.66392520e-01 -1.53323218e-01  2.04408821e-02
 -1.69467449e-01 -9.02233832e-03 -1.20600741e-02 -2.34722763e-01
 -7.03459904e-02  3.84680897e-01  1.40656829e-01 -1.17706992e-01
  3.03569827e-02 -4.11982052e-02 -1.01583064e-01 -4.87310551e-02
 -4.85087233e-03 -9.52414703e-03 -1.93892494e-01 -8.06206912e-02
  1.82043672e-01 -4.11580056e-02 -1.97068721e-01 -2.19745412e-01
  4.59550470e-02 -1.31534770e-01 -1.04178593e-01 -1.62845030e-01
 -1.45711824e-01  5.46530150e-02  5.92394955e-02 -1.44405961e-01
  9.92271118e-03 -8.08675513e-02  1.25818830e-02 -7.26633519e-02
 -3.82986702e-02  1.71377972e-01 -1.79831788e-01 -1.24358706e-01
 -6.20147539e-03  4.80866618e-02 -1.00404054e-01 -1.05404548e-01
  5.48916636e-03  7.99152926e-02 -1.07309192e-01 -3.88207212e-02
  1.21636596e-02 -1.37008592e-01  1.19115070e-01 -6.90154324e-04
 -1.47877857e-01 -8.43208376e-03 -1.27298400e-01 -3.77776176e-02
  1.82223514e-01 -7.39832893e-02 -3.03206034e-02 -8.44518915e-02
 -1.67244017e-01  8.89822617e-02 -1.08425386e-01 -1.49515390e-01
 -4.80044372e-02  1.73732802e-01 -8.89766291e-02 -9.04088840e-02
  4.08132598e-02 -1.84295595e-01 -1.99306626e-02 -3.45619395e-02
  1.07258044e-01  1.06687985e-01 -4.47167642e-02  2.61886753e-02
 -2.49452025e-01 -7.12694451e-02  1.34250876e-02 -6.81611896e-02
  5.42275794e-02  7.59948269e-02 -1.28007203e-01 -1.49263024e-01
  6.97534978e-02  1.14478596e-01 -1.83051452e-02 -1.31369546e-01
 -1.65404797e-01  6.55346140e-02 -3.30762863e-02  4.26134057e-02
 -2.38512531e-02 -1.49078835e-02 -2.04106584e-01  1.82941779e-02
 -1.19474180e-01 -1.19756721e-02 ]
[  3.86567973e-02 -6.74814060e-02  1.04935631e-01  6.06192127e-02
  3.46079320e-02 -5.57156242e-02 -1.20227434e-01  6.50155693e-02
 -4.65566739e-02  3.04990448e-02  8.21832044e-04 -2.06746198e-02
 -1.16147986e-02 -6.24887981e-02  4.37674336e-02 -5.05598933e-02
  3.65006528e-03  5.82854860e-02 -3.16331089e-02 -6.45196065e-02
  4.40562479e-02  5.62360995e-02 -5.00885472e-02  4.77560759e-02
  4.48626168e-02 -3.86854745e-02  5.41175008e-02  4.87764776e-02
 -1.38660762e-02  4.84110937e-02  1.67841197e-03 -4.00701538e-03
  2.29738257e-03  3.49273384e-02  6.90951652e-04  3.50071900e-02
  1.05897514e-02  6.14406504e-02  5.58463670e-02 -7.55841583e-02
  6.21736012e-02  3.22565436e-02 -4.66097556e-02  3.45672369e-02
 -2.09634956e-02  8.51464495e-02  3.75710204e-02  5.45556173e-02
 -8.32075030e-02 -2.47804560e-02 -1.45492086e-03 -2.92854048e-02
 -1.45627735e-02  7.85138309e-02  4.64834422e-02  4.84947208e-03
 -3.72075349e-01  3.52729298e-02 -1.65446103e-02  8.44496414e-02
  3.91897038e-02 -2.18224972e-02  4.64671850e-02  1.01454258e-02
  6.50752410e-02 -1.76095148e-03  4.40259278e-03  6.11707419e-02
  3.31624481e-03  2.46699769e-02  2.71346886e-02  2.76691932e-02
 -2.83691045e-02  2.92413663e-02  3.04471236e-02 -2.15515625e-02
  2.77969316e-02  6.03778102e-02 -9.82242543e-03 -6.87576234e-02
  8.67516547e-03 -4.81184311e-02  1.59184709e-02  6.82508620e-03
 -2.31556874e-02 -2.72099972e-02  4.24832804e-03 -1.13348551e-02
  1.46786841e-02 -3.73374075e-01 -3.40828747e-02 -6.09261915e-02
 -1.94045901e-02 -3.86568010e-02 -9.01536047e-02  5.09652756e-02
 -1.08731978e-01  3.85871083e-02 -3.13848406e-01 -8.63773003e-02
  1.42973587e-02  2.49165855e-02 -4.84441109e-02 -1.29729375e-01
  2.53504571e-02 -1.18373744e-01  1.13674728e-02 -1.46559447e-01
 -2.60368385e-03  6.77035749e-02  1.35172298e-02 -1.12430371e-01
  4.31705341e-02  4.22585383e-02  5.29299676e-03 -9.36115813e-03
 -1.63593575e-01  3.04923709e-02 -2.33159754e-02  1.50017794e-02
  4.84562963e-02 -3.61372754e-02 -6.55686483e-04  4.79157194e-02
 -7.53961224e-03  5.96114956e-02  1.69837512e-02  2.27146391e-02
 -3.38454694e-02  6.79668188e-02 -9.81805846e-02 -7.14609623e-02
 -2.22623572e-02  4.72419243e-03  3.30578052e-02 -2.62167789e-02
  8.98819715e-02 -3.12083755e-02 -1.85622592e-02  1.06262853e-02
  1.40786124e-02 -6.51393160e-02  9.20894817e-02  7.08427504e-02
 -2.96676029e-02  7.05101788e-02 -2.64027379e-02  7.45547488e-02
  4.88282852e-02  2.28141528e-02 -6.97046220e-02  9.88203939e-03
  5.21789901e-02 -3.60037088e-02 -1.94225796e-02 -2.61905091e-03
  6.81164116e-02 -3.83609608e-02 -2.66236104e-02  9.19210091e-02
  7.43986517e-02 -3.97843361e-01 -3.68140191e-02  5.98140433e-02
 -8.51087272e-02  8.89926702e-02 -1.70400906e-02  1.76937953e-02
 -8.27658474e-02  2.46663932e-02 -7.16525968e-03  3.43974419e-02
 -1.79901887e-02 -1.98627394e-02  4.06103544e-02  6.07695319e-02
  3.68786566e-02  2.41037402e-02  2.53022816e-02  4.16094027e-02
 -7.38113746e-02 -2.08057277e-02 -1.32956922e-01 -3.05325352e-03
 -1.53022408e-02  7.59170577e-03 -3.35658789e-02 -1.41787171e-01
 -1.95532553e-02 -1.07210912e-01  1.15879839e-02  5.12251034e-02
 -1.42137306e-02  2.03533273e-06  1.06446832e-01  1.88756306e-02
 -4.38126939e-04 -5.70725165e-02  4.55296487e-02  4.60868962e-02
 -5.10095805e-02  1.74931251e-02 -5.61681055e-02  1.99559946e-02
 -4.33657691e-02 -1.77725181e-02  3.73003781e-02  2.12804675e-02
 -2.32802276e-02  1.01409713e-02  1.97545700e-02  1.39563950e-02
  1.86861567e-02  5.61860856e-03  3.05798673e-03  2.99573913e-02
  4.18765880e-02 -1.44472480e-01  2.34285626e-03 -3.06302658e-03
 -4.12187912e-02 -4.79416214e-02 -1.80779658e-02 -7.89211541e-02
 -1.21748433e-01  5.20230876e-03 -6.46545738e-02  4.06694692e-03
  7.89770633e-02  7.08722174e-02 -4.15968224e-02 -4.13410775e-02
 -5.22795990e-02 -1.12324581e-01  2.77798418e-02  9.27705541e-02
 -4.58029658e-02 -9.18354988e-02  3.09453420e-02 -4.09699604e-02
  4.45727184e-02  1.00890230e-02  5.08249477e-02 -1.04470991e-01
  1.76820047e-02 -8.12202170e-02  4.01701629e-02 -1.93045046e-02
  2.99037714e-02 -1.93182193e-02 ]
[ -1.27209574e-01  4.07526866e-02 -6.18802048e-02  1.33673102e-02
 -4.38285284e-02  6.38427809e-02  3.13696824e-02 -5.61596826e-03
  5.91814183e-02  2.91311797e-02  6.39524087e-02  1.68586727e-02
 -8.74211565e-02  8.86541326e-03 -5.18795848e-02 -7.23458827e-02
 -4.82171178e-02  6.35919813e-03 -9.78924558e-02 -1.55881882e-01
 -5.25188036e-02 -7.48268981e-03  8.07465762e-02 -8.35283250e-02
 -5.53359091e-02 -1.19253034e-02 -1.87699310e-02 -2.85008717e-02
 -1.41164595e-02  4.45277505e-02 -1.74320210e-02 -1.73210390e-02
  3.99400964e-02 -4.98766340e-02 -2.59889290e-02  1.80729143e-02
 -6.33552000e-02 -1.90657414e-02 -1.53518878e-02  1.89062059e-02
 -1.09981252e-02  3.04731578e-02  8.66103079e-03  4.05626707e-02
  3.42732808e-03  5.62833138e-02  8.48009884e-02 -4.65887971e-02
 -6.19201623e-02 -1.22018429e-02  1.32075220e-01 -3.85805219e-02
  6.70623258e-02 -1.63597539e-02 -7.35067874e-02  1.12277521e-02
  1.78297926e-02  1.04684103e-02 -1.07589709e-02  4.85641025e-02
 -4.69584193e-04 -3.99091803e-02  1.73131768e-02  1.87304022e-03
 -4.22328562e-02  2.97368281e-02 -7.06190020e-02  1.12845013e-02
  1.28372917e-02  1.44046487e-03  1.64171141e-02 -6.81732148e-02
 -3.94481272e-02  1.95365902e-02  1.22172153e-02 -1.27076447e-01
  2.41806358e-03  1.06158949e-01  1.16543345e-01  7.89040774e-02
  5.76637834e-02  4.66691256e-02 -3.59802581e-02 -4.32368442e-02
 -3.26250568e-02 -6.51967712e-04 -9.26430151e-03 -6.92362115e-02
 -1.43367229e-02 -3.82413082e-02  2.77633127e-02 -5.09143025e-02
  1.91319641e-02  1.41211106e-02 -6.66888133e-02 -4.20020055e-03
  4.95014004e-02 -8.31147749e-03 -5.70803173e-02 -1.39302118e-02
  1.19944755e-02 -1.01036996e-01  2.29764078e-02  4.21230830e-02
  1.35820573e-02  1.75717585e-02 -5.09695522e-02  8.38610083e-02
  3.96390110e-02 -1.66270742e-03 -4.24768217e-02 -6.08947128e-03
 -2.09055208e-02 -1.00016147e-02  2.85622501e-03 -5.93239302e-03
 -3.40858498e-03 -1.98898814e-03 -1.04083624e-02 -4.84250896e-02
 -6.29650056e-02 -3.44504900e-02 -5.19342674e-03 -2.61877179e-02
  6.70018941e-02 -4.04917523e-02 -3.93055156e-02 -8.21469277e-02
  8.96850601e-02 -3.26969586e-02  1.00867726e-01 -1.02962600e-02
 -2.90362462e-02 -1.02864712e-01 -6.24664538e-02  4.63920915e-05
  5.02325827e-03  6.59493543e-03 -3.78381573e-02  5.43833561e-02
 -3.69032957e-02  2.74858773e-02 -1.42862752e-01 -4.94083799e-02
  3.84415202e-02 -6.34492561e-03  6.61630556e-02  5.39502949e-02
  4.75321151e-02 -7.05393404e-02 -1.08491369e-02  6.56331703e-03
 -3.69587690e-02  2.11479831e-02  4.02362309e-02 -1.21413758e-02
 -1.85786579e-02  7.64714926e-03 -3.86583945e-03  2.64691468e-03
  1.21045336e-01 -5.05813621e-02 -2.08395217e-02 -1.13401234e-01
  2.05322984e-03  2.21906677e-02 -8.49275291e-02 -5.09446859e-02
 -1.20193198e-01  7.20872283e-02 -8.42893794e-02 -4.78561558e-02
 -5.20817637e-02 -9.92345810e-02 -2.41309591e-02 -3.23360935e-02
  1.67409591e-02  4.04865667e-02  2.72792280e-02  2.53505986e-02
  1.90363005e-02 -1.25015512e-01  4.68021929e-02 -4.96388823e-02
  3.17249075e-02  1.25404103e-02 -2.75651123e-02  2.31472193e-03
 -1.31351445e-02 -4.79293056e-02  1.30193755e-01 -1.15182716e-02
 -1.55579820e-02 -7.02921376e-02  1.34038208e-02  2.40655858e-02
 -2.47592218e-02  3.67923244e-03  7.23382877e-03  4.38909829e-02
 -4.19072248e-02  7.74381235e-02 -1.27049338e-03 -1.34687349e-02
  4.29084785e-02 -1.35042621e-02  8.94109309e-02  7.06186220e-02
  1.34626694e-03  2.94999266e-03 -3.33770402e-02  3.29173431e-02
  7.66054839e-02 -5.86090907e-02  4.83245626e-02  4.96643707e-02
  2.61956523e-03 -7.29957372e-02  4.07668687e-02 -5.48319034e-02
 -1.84553415e-02  9.59610343e-02  1.94072351e-02  6.70130700e-02
 -7.19549600e-03 -1.43698966e-02 -4.79695154e-03 -6.18181117e-02
 -3.24988458e-03  5.44521064e-02 -1.44850947e-02  3.90000716e-02
 -5.20092435e-02  1.85625702e-02  3.15696374e-02  1.97595898e-02
  3.85208763e-02 -3.00801191e-02  1.60101261e-02 -6.65388107e-02
 -4.66161929e-02 -2.74269190e-02  8.19411071e-04 -1.70277115e-02
  7.54163740e-03 -9.46746692e-02  9.85308178e-03  2.22115088e-02
  2.79195886e-02  4.80729751e-02 ]
[ -1.47307580e-02 -7.12050647e-02 -3.05167753e-02 -1.94032844e-02
  5.35366163e-02 -5.09421118e-02 -8.26670453e-02 -3.19702774e-02
  3.67696770e-02 -6.15953095e-02 -6.54120818e-02 -5.74921854e-02
  3.47581902e-03 -3.42197604e-02 -2.98586898e-02 -1.26510011e-02
 -4.96283099e-02 -2.64473744e-02  1.41726583e-02  1.45477027e-01
  1.25078289e-02 -6.04013763e-02 -7.28659555e-02 -4.12249304e-02
  1.14947639e-01 -3.02807707e-02  6.88053295e-03 -5.51885329e-02
 -8.96281999e-05  3.80741395e-02 -3.28048952e-02  1.82059081e-03
 -2.37789340e-02  4.41546887e-02 -2.15394013e-02  6.57307170e-03
  1.89984534e-02 -4.84376028e-03 -1.48282284e-02 -3.10858991e-02
  4.28227335e-02 -9.49140489e-02  4.71096598e-02 -2.69676689e-02
 -3.22696753e-02  1.31115168e-02  2.23617777e-02 -2.22400893e-02
 -6.85446244e-03 -1.56001491e-03 -1.10820793e-01  3.19514349e-02
 -8.73895362e-02 -1.02599077e-02  1.74604449e-02  2.36016624e-02
 -6.19751140e-02  2.81357169e-02 -5.31762429e-02 -3.31483483e-02
 -5.90479420e-03  8.68908614e-02 -7.99327418e-02 -1.08723633e-01
  3.10005751e-02 -9.71043035e-02 -5.98630831e-02  2.93248668e-02
 -4.58682887e-02 -7.45208263e-02 -1.14756972e-02 -2.93642422e-03
 -3.81499007e-02 -3.54805328e-02 -6.64602891e-02  4.07549692e-03
  2.41038632e-02 -1.32493541e-01 -7.20123351e-02 -3.62132713e-02
 -5.43772690e-02  2.71205343e-02 -1.01885516e-02 -6.30808771e-02
  2.20561549e-02 -1.62055884e-02  2.68899184e-02  3.06324027e-02
  1.44036151e-02 -2.55987048e-02 -1.03861485e-02  5.83721213e-02
  1.03964824e-02 -9.21002254e-02  1.80197954e-02  1.17557058e-02
  5.41906953e-02 -5.48999831e-02 -1.54606597e-02 -9.87881701e-03
 -3.53212841e-02  6.68898299e-02 -7.64956698e-02 -6.03542775e-02
 -2.00727899e-02  6.59685358e-02  2.06850078e-02 -5.93856163e-02
 -1.94324646e-02 -2.03735977e-02 -6.50488259e-03 -8.99192169e-02
 -8.62632170e-02  7.73854554e-03 -1.30854584e-02 -2.34055594e-02
 -1.60880927e-02 -5.75821325e-02 -1.24802981e-02  3.17841247e-02
 -1.22447452e-02 -8.89387056e-02 -3.45258345e-03 -3.51634249e-02
 -8.08325484e-02 -2.90006772e-02 -7.64523894e-02  2.72630658e-02
 -3.95540195e-03  1.68625563e-02 -4.33246121e-02  7.77866342e-04
  4.88641188e-02 -3.71161066e-02  1.09938793e-01  4.18807641e-02
  4.58431020e-02 -9.45599452e-02 -4.06475877e-03 -3.89945358e-02
  2.18218006e-02 -7.02231377e-02  3.88814136e-02 -9.13220271e-02
 -9.10396874e-02  3.02067987e-04 -2.37954725e-02 -1.25552595e-01
  3.09389755e-02 -1.25742834e-02  6.93368679e-03 -1.28450955e-03
  1.11260265e-01 -1.49903912e-03 -2.64706705e-02 -2.64843204e-03
  9.87291560e-02  2.35810820e-02 -9.90664866e-03  5.07838093e-03
  3.21009150e-03 -1.19310595e-01  1.89129021e-02  8.31757635e-02
 -7.86138996e-02  2.04058876e-03 -2.95146462e-02  2.35308036e-02
 -7.82431662e-03 -1.01065688e-01  4.48650010e-02  4.73496467e-02
  3.98751162e-02 -3.46816666e-02  3.32506299e-02  4.76098284e-02
 -5.54622188e-02  5.38974330e-02 -3.82500105e-02 -2.20162771e-03
 -1.18992152e-02  7.01860711e-02 -5.94614819e-02  4.48539108e-02
  3.03373653e-02 -1.73575357e-02 -9.71094221e-02 -4.57177795e-02
 -6.48161098e-02  3.41240130e-02  3.81536111e-02  4.31237817e-02
 -1.31599680e-02  3.80650610e-02 -7.84656107e-02  4.79605515e-03
  5.68144843e-02 -2.97352988e-02  5.14397435e-02 -3.17284949e-02
  1.84631962e-02 -1.01693660e-01 -2.47271918e-02  2.92455889e-02
  1.02901801e-01  3.48759815e-02  6.20329231e-02  1.11081330e-02
 -1.04458414e-01  1.07523061e-01  2.77944077e-02 -9.34928283e-03
 -9.23427641e-02  1.04003632e-02  1.82750523e-02 -1.15439473e-02
 -7.68173346e-03  3.50690484e-02 -1.29200630e-02  8.14894736e-02
  2.52577979e-02 -1.21811911e-01  3.47178318e-02  7.19638355e-03
 -9.57519189e-03 -4.50910628e-02 -3.46598774e-02  3.99619341e-02
  3.17380503e-02 -4.66975383e-02 -1.47535400e-02 -9.43391398e-02
  4.35007028e-02 -3.70817706e-02  4.67932150e-02 -7.49776661e-02
 -8.14839825e-02 -4.02454175e-02  2.42491663e-02  6.76274002e-02
 -6.43685879e-03 -3.54148671e-02 -5.33365048e-02  6.20563962e-02
 -2.19967812e-02 -3.64085436e-02 -7.46496320e-02 -4.94297519e-02
 -5.99187054e-02  2.70617590e-03 ]
[ -3.47689651e-02 -2.56536249e-02  3.84965129e-02 -5.06901704e-02
 -6.12269565e-02  2.00062711e-02  1.44642731e-03  4.65384685e-02
 -6.43322915e-02 -3.91475894e-02 -6.58207536e-02  3.57482815e-03
 -3.64966951e-02 -6.52439659e-03 -5.90720680e-03  5.37102968e-02
  5.66718541e-02  2.98798215e-02 -3.21120732e-02 -1.14185782e-02
  1.96008235e-02  7.24819489e-03 -7.24532530e-02  5.27437776e-04
 -5.10797128e-02  3.06389816e-02  3.88841182e-02  1.56001020e-02
  2.30688695e-02 -7.85269365e-02  2.61660572e-02  1.80293135e-02
 -6.27304427e-03  2.73150578e-03  1.39246946e-02 -5.24052121e-02
  6.55242056e-02 -3.10211871e-02 -9.34566408e-02 -4.47668694e-02
 -2.23928671e-02 -5.74947819e-02  3.06515209e-02 -4.11993116e-02
  1.19457692e-01 -8.85170773e-02  4.98997457e-02  6.92067370e-02
  2.85187028e-02  1.28131947e-02 -1.04979123e-03 -4.07376289e-02
 -7.49956537e-03 -3.77531420e-03 -5.75353205e-03 -1.81908868e-02
 -6.80589527e-02  3.13431886e-03  3.47789936e-02 -4.62336056e-02
  8.43824260e-03 -9.14605036e-02 -3.27639282e-03  1.62154455e-02
  5.37507050e-02 -6.02386855e-02  4.42463756e-02  3.15881819e-02
 -7.83370733e-02 -1.01965629e-01 -2.10501198e-02  8.79605934e-02
  7.84740895e-02 -6.06371872e-02  4.53794934e-02  9.93533060e-02
 -8.42394158e-02 -3.22115794e-02 -1.37248877e-02  3.94705832e-02
  5.16242385e-02 -4.41596434e-02 -3.15699391e-02  4.94324267e-02
  4.26193699e-02  7.98236877e-02  3.11258696e-02 -5.94036505e-02
 -1.04251849e-02 -3.21708024e-02  5.64431585e-03 -1.20946979e-02
 -1.60724726e-02  5.03962580e-03  2.42932420e-02 -2.81595327e-02
 -6.48574010e-02 -8.46347511e-02  2.08636262e-02  3.68567258e-02
  6.42810836e-02 -6.98594823e-02  1.59434113e-03 -5.62788285e-02
  6.09249733e-02  1.01628983e-02  3.12426034e-02  6.89286040e-03
 -4.65124846e-02 -2.61035599e-02  9.38585475e-02  2.62708142e-02
  7.77565911e-02 -2.18576938e-02 -5.49203418e-02 -3.74224521e-02
  1.02580963e-02 -7.34632881e-03 -1.95676554e-02 -2.14216877e-02
 -3.83618847e-02  5.80199435e-02  5.04075503e-03 -3.68956625e-02
 -1.19980518e-02 -5.81569597e-02 -2.55228282e-04  5.75411730e-02
 -9.56418924e-03 -4.66040196e-03 -3.50019112e-02 -3.23945768e-02
  7.19583873e-03  4.40124199e-02 -6.99063540e-02  1.21300237e-03
 -1.10276723e-02 -5.56665240e-03 -4.57828827e-02 -2.94882432e-02
 -3.09898481e-02  5.91597073e-02 -2.42262501e-02  1.69508625e-02
 -5.67852799e-03 -2.89698318e-02 -3.33730690e-02 -3.66952717e-02
  1.86492763e-02  2.51625106e-02 -1.99303105e-02 -1.45310899e-02
 -1.88548584e-02  2.51249988e-02  1.49198901e-02 -1.07941262e-01
  5.17536476e-02 -5.43452203e-02  1.90095529e-02  2.59348713e-02
 -1.55687973e-01 -2.25114673e-02  1.11920703e-02  1.97914746e-02
  1.46660998e-01 -8.89420435e-02  7.73133710e-02  2.08657775e-02
  2.70065553e-02  3.39043066e-02  6.80190325e-02  2.74190232e-02
  1.36181740e-02  1.86086036e-02 -7.19583780e-02 -6.27311915e-02
 -5.88546414e-03 -1.06319912e-01 -5.18388711e-02 -7.03892335e-02
  2.08194349e-02  3.33352536e-02 -7.17498641e-03  2.61581317e-02
 -3.37626748e-02 -2.02408992e-02  3.50157022e-02  1.25427060e-02
  4.87504294e-03 -3.26691233e-02 -1.18541785e-01  4.01592255e-02
  5.46206273e-02  5.49160270e-03  2.37925700e-03  2.08521774e-03
  1.36497468e-02  4.52243071e-03 -3.14533897e-02 -1.25945434e-01
 -5.44204041e-02 -2.15568300e-02  4.52632643e-02 -1.86252743e-02
 -1.10627353e-01 -4.97529358e-02 -1.14418216e-01 -6.68877456e-03
  7.37905921e-03  5.26676849e-02 -1.36813847e-02 -2.54947115e-02
 -2.58728079e-02 -7.10568130e-02 -4.37406786e-02 -5.40757999e-02
 -4.32817079e-02 -6.89224899e-02  3.17552476e-05 -3.72582930e-03
 -2.52107941e-02 -9.47351456e-02 -5.02230003e-02 -9.75887999e-02
 -3.59282084e-02  2.83615738e-02 -5.86199015e-02 -6.25042710e-03
 -1.87308323e-02 -2.94920057e-02 -4.62126099e-02 -7.21169775e-03
 -7.70071009e-03  4.69570421e-02 -1.11560710e-01  6.92646801e-02
 -3.14206779e-02 -6.15295358e-02  5.47140539e-02  3.48401889e-02
 -1.01214342e-01 -4.86892508e-03 -1.31875686e-02 -8.37108959e-03
  2.17644740e-02 -1.71376541e-02  4.62575965e-02 -3.29322740e-02
 -3.72535847e-02  1.32625941e-02 ]
[  3.11764311e-02 -5.68775237e-02 -7.76805431e-02 -7.29524205e-03
  4.39204723e-02 -7.04799220e-02  6.62731677e-02 -6.17519505e-02
 -8.99059623e-02 -3.12717049e-03  1.41675286e-02  1.26306498e-02
  5.56229204e-02 -1.73004121e-02  5.53242825e-02  3.35395820e-02
 -2.61238939e-03 -7.87704960e-02  9.85487774e-02 -1.76929999e-02
 -2.05965471e-02  1.00598354e-02  6.54039904e-02  9.79946107e-02
 -3.41064408e-02 -2.02092621e-02 -3.09544820e-02  4.89683403e-03
 -3.86293158e-02 -9.08583999e-02  3.13617252e-02 -6.48024539e-03
 -2.23483779e-02 -3.50097790e-02 -9.09554958e-02 -5.57445213e-02
 -1.61522999e-02 -2.97742430e-03 -4.39647734e-02 -6.90249540e-03
 -7.22244754e-02  5.04446998e-02 -1.04216084e-01  2.80648675e-02
 -1.22044832e-01 -8.00306574e-02 -1.18658341e-01  3.96573450e-03
  4.05200571e-02 -2.24151965e-02 -6.70215338e-02 -3.40842754e-02
  5.19146328e-04 -6.67288378e-02 -3.28636728e-02 -3.16675901e-02
 -1.10516371e-02 -2.03382373e-02  5.64266637e-04 -4.06528115e-02
  3.13475877e-02  3.19363661e-02  6.03475375e-03  1.02031648e-01
 -6.57085925e-02  7.40135461e-02  1.41700152e-02 -7.94299990e-02
  4.07457426e-02  7.38882720e-02 -5.09448983e-02 -7.65421316e-02
 -3.42165343e-02  7.35916942e-02 -1.85885020e-02 -1.15511585e-02
 -1.50196590e-02  3.54398862e-02 -2.39413232e-02 -7.02124685e-02
 -3.13437469e-02 -4.80930135e-02 -1.28899114e-02  4.20988025e-03
 -3.18648368e-02 -5.70895672e-02 -3.15738167e-03  3.64832766e-02
 -5.49714128e-03 -4.58997712e-02  7.69964000e-03 -8.36877748e-02
 -9.80185252e-03  3.97056900e-02 -4.81411582e-03 -3.57256196e-02
 -8.89165252e-02  6.02190234e-02  8.09683278e-02 -6.88149082e-03
 -6.53463528e-02  2.81705484e-02 -8.35610107e-02  8.22584052e-03
 -3.49179357e-02 -7.21711144e-02 -6.72397539e-02 -1.80771407e-02
 -1.19076017e-02 -2.74830051e-02 -6.47727326e-02  6.62472844e-02
  4.16440964e-02 -2.46644039e-02  3.87764610e-02 -1.92278251e-02
 -5.18936440e-02 -7.17570353e-03 -5.17308805e-03  1.54749081e-02
  6.03430532e-02  7.43547752e-02 -5.83047932e-03  2.89309286e-02
  3.74453664e-02 -3.47014591e-02  3.41920964e-02  9.29750036e-03
 -1.07959032e-01  7.44554354e-03  2.01182142e-02  5.01277973e-05
 -6.35554194e-02  4.03703339e-02  8.26716144e-03 -6.91107586e-02
 -4.71983962e-02  1.80575978e-02  4.57241796e-02 -1.76549412e-03
 -2.24205274e-02 -2.53214948e-02  1.89979076e-02  5.81125580e-02
 -5.15170954e-03  3.26338485e-02 -5.97451515e-02 -1.23534398e-02
 -8.00899565e-02 -4.54654219e-03 -3.48009579e-02  1.49535132e-03
 -4.85765375e-02 -7.68351043e-03 -6.53485954e-02 -2.05230489e-02
 -1.06869519e-01  5.19262068e-03  1.02866516e-02 -8.44204202e-02
  5.82816685e-03 -2.22111605e-02 -3.66129577e-02  5.66726550e-02
 -3.98913398e-02 -1.49793709e-02  4.67092879e-02 -5.13237491e-02
 -1.17511796e-02 -8.39630216e-02 -5.28014079e-02 -3.48841771e-02
 -7.60256648e-02  9.10150111e-02  2.98399869e-02  2.26653740e-03
 -7.28061944e-02 -7.31935119e-03  3.13082598e-02 -3.29868905e-02
  1.63545534e-02  6.33007661e-03 -5.85954599e-02 -3.51692699e-02
 -3.10173947e-02  1.62474476e-02  5.55620454e-02  8.19110963e-03
  3.93597744e-02 -1.03361644e-02 -8.91369656e-02 -3.02655231e-02
 -3.45990714e-03 -5.92145287e-02 -5.65534942e-02 -4.94894153e-03
 -5.67956232e-02 -7.55824968e-02 -1.49628585e-02  6.32487088e-02
 -3.53937992e-03 -3.39489244e-02 -1.09975748e-01 -2.56464886e-03
  1.85373065e-03 -2.75377668e-02 -1.62802879e-02 -7.15425238e-02
  7.28896782e-02 -1.80157304e-01 -2.59107612e-02  2.01817919e-02
  4.90339212e-02  2.97577623e-02  3.44553404e-03 -8.80203675e-03
  8.26236140e-03  4.22076806e-02 -2.77472823e-03 -6.05941378e-03
 -6.69784322e-02  8.66906345e-02  4.59413743e-03 -4.38144756e-03
 -3.25609781e-02 -2.53098942e-02  5.16721718e-02 -2.52951179e-02
 -4.82639596e-02 -7.04337507e-02  6.12351187e-02  3.32068168e-02
 -1.72522999e-02 -4.66391928e-02  3.18618454e-02 -4.44587804e-02
  5.30623347e-02 -6.28283173e-02 -1.69797227e-01  3.03947423e-02
  1.00395605e-01 -3.30070853e-02  2.50891782e-02 -3.62125635e-02
 -1.24487346e-02  1.00986265e-01  2.04966450e-03  5.17937168e-03
 -1.75949354e-02 -4.28286977e-02 ]
[ -1.06436824e-02  3.03752749e-04 -7.95556662e-06 -5.60826948e-03
  1.37797106e-04  2.18864460e-03  1.18942629e-03  1.07103605e-02
 -1.75187942e-02 -7.75948493e-03 -1.25794075e-02  1.61129178e-03
  1.78402029e-02  1.61657315e-02 -1.75133720e-02  5.22888592e-03
 -5.44743787e-04 -8.03884584e-03  1.02407578e-02 -2.45942362e-03
  8.93037859e-03 -8.31153989e-03 -7.32161710e-03 -2.30284855e-02
 -1.39624309e-02 -1.83947477e-02 -1.12384325e-02  1.36437546e-02
 -2.28927638e-02  4.49019717e-03  1.19393570e-02  1.19616818e-02
  1.06979711e-02  1.87255698e-03 -1.20771481e-02 -2.04104297e-02
 -1.41975088e-02 -2.43302081e-02  6.44475874e-03 -8.19515437e-03
 -9.20864008e-03  8.92787520e-03  1.86684877e-02  1.64495874e-02
  2.49282569e-02  3.83371790e-03  1.47173321e-02 -2.95321038e-03
 -2.20548436e-02 -1.88548733e-02  1.83714107e-02 -1.28644714e-02
 -4.63461643e-03  1.75666660e-02 -5.44938631e-03 -2.10162420e-02
  1.63572486e-02  7.82251172e-03  1.01859355e-02  1.64256226e-02
 -1.85352713e-02 -9.50932596e-03 -1.33815343e-02 -1.43547533e-02
 -1.97509676e-02 -1.82186998e-02  3.68176308e-03 -6.56769797e-03
 -9.12311208e-03 -1.46923829e-02  2.28018202e-02  7.05168163e-03
 -1.29449023e-02 -1.40197510e-02  6.90402929e-03  1.15432693e-02
  6.34038402e-03  1.76079161e-02 -1.57277901e-02 -1.32534467e-02
 -1.82058271e-02  1.24151977e-02 -1.63149368e-02 -1.78930275e-02
  6.42814627e-03  1.07119512e-02 -1.10039217e-02 -6.21287443e-04
  2.05654670e-02  3.02134193e-02  2.01089215e-02 -1.67009793e-02
 -1.63761359e-02 -2.54880358e-03 -8.73952359e-03 -1.30458679e-02
  1.65942237e-02  3.96073883e-04 -1.19158430e-02 -2.30261218e-02
  1.41214952e-02  2.59359498e-02  1.97652653e-02 -1.98601279e-02
 -1.90874878e-02 -8.09385034e-04 -1.96498837e-02  1.30166707e-03
 -1.91714372e-02 -1.87412940e-03 -1.55361500e-02  1.86072104e-02
 -4.77162516e-03 -2.22428646e-02  2.27625966e-02 -9.26853740e-04
  2.12860703e-02  1.17123139e-03  4.02179285e-04 -1.28446082e-02
  1.33433472e-03 -5.46633126e-03  1.83930490e-02  8.05849675e-04
 -1.30770030e-02 -5.91507321e-03  2.48224437e-02 -1.65661108e-02
 -2.25681681e-02 -1.92843843e-02  7.28360238e-03 -9.52203944e-03
 -1.06083236e-04 -1.61729660e-02 -2.35612690e-02 -1.93414297e-02
 -3.60565167e-03 -8.31409544e-03  2.27910411e-02  7.73886393e-04
 -9.88938008e-03 -1.34803969e-02 -2.82273777e-02  4.41378355e-03
 -2.78822985e-03 -1.16054562e-03  4.38745087e-03 -2.17549857e-02
  1.11386450e-02 -2.34857537e-02 -1.32711781e-02  6.06832281e-03
  1.42427711e-02 -1.53458165e-02  1.33114569e-02 -1.49965961e-03
 -4.85366862e-03  1.26196612e-02 -1.79118123e-02 -5.16999280e-03
  1.54146254e-02 -4.19004029e-03  5.32417186e-03 -9.67676099e-03
 -1.72973778e-02  1.18913930e-02 -2.29184926e-02 -9.82177164e-03
 -4.32456424e-03 -7.69555848e-03 -2.26113312e-02  7.18880072e-03
  2.71631833e-02  4.13989276e-03 -1.46025773e-02 -2.13878602e-02
 -2.33833268e-02 -9.03878547e-03 -9.75498580e-04 -2.34529171e-02
 -2.04096809e-02  1.47627685e-02 -1.23672299e-02 -3.66457063e-03
 -1.48741361e-02  1.42201185e-02 -3.06674233e-03  4.89437906e-03
 -1.22719500e-02  5.16323652e-03  5.72087476e-03 -2.85418238e-02
 -4.82254382e-03  8.67648050e-03  2.03452073e-02 -1.15317181e-02
  8.53710808e-03 -1.96007378e-02  9.15338937e-03  1.33929010e-02
 -1.18439076e-02 -1.03999283e-02  8.03738367e-03  1.10020265e-02
  8.33824184e-03  1.39829423e-02  1.31367492e-02  5.73787512e-03
 -1.56860910e-02  1.71721040e-04  3.75441479e-04 -1.25339078e-02
 -1.69150364e-02  2.53211660e-03  1.14083067e-02 -2.43488271e-02
  1.47163151e-02  6.64010737e-03 -9.66683961e-03 -1.86768677e-02
  6.23187143e-03 -9.18644387e-03  1.71057507e-02  1.42568909e-02
  5.10674110e-03 -2.60211644e-03  4.23570443e-03 -1.02814399e-02
 -1.13873109e-02 -7.79254967e-03  1.73222777e-02 -1.36488620e-02
  1.24858310e-02  3.96384438e-03 -9.14703682e-03  1.85975805e-02
 -1.68338176e-02  4.58034407e-03 -1.87515616e-02 -3.43097397e-03
  4.40098764e-03 -3.94952767e-05  1.11220423e-02  2.66101328e-03
  1.68358106e-02  6.88282866e-03  5.48912538e-03 -9.82601661e-03
 -1.76936928e-02  1.05771907e-02 ]
[ -0.00520782  0.00435249  0.00608195 -0.00677597 -0.01654291 -0.01774236
  0.01199949  0.02152727 -0.01313236 -0.00390402  0.01016196 -0.01685053
 -0.00636566  0.00595894 -0.00092991  0.00796596 -0.00402649 -0.01032791
 -0.015151   -0.0143433  -0.0012398  -0.00263118 -0.01409117 -0.00726304
 -0.01452094 -0.01254309  0.01271938 -0.00912644 -0.00780058 -0.0151028
  0.02205047  0.00319311 -0.00529418 -0.01843259  0.01347033 -0.0105131
 -0.01688113  0.01020699 -0.0204287   0.00413874  0.00287675 -0.02150782
 -0.02048552  0.02263795 -0.00420888  0.00212517  0.00173424 -0.0142316
  0.02181631 -0.00401658  0.00595258 -0.01531818 -0.00253086  0.00128245
 -0.00599268 -0.01965247 -0.02243421 -0.00924444 -0.00129874 -0.00907272
  0.02053769 -0.00094399 -0.01079232 -0.01076884  0.01623791 -0.00287194
 -0.00279705  0.01494016  0.006246   -0.01006681  0.00851209 -0.00701987
  0.00882487  0.01747157 -0.02209524  0.00764401 -0.01046722 -0.01376717
 -0.00611374  0.02204925  0.02174972 -0.0018578   0.02102465 -0.01223575
 -0.01702344  0.0156545  -0.00814926  0.00902149  0.01696157  0.01200958
 -0.02282776 -0.02111863 -0.00027572  0.00420255  0.0141755   0.0122686
  0.01377509 -0.02008266  0.01062002  0.00513353 -0.00178191 -0.02184957
  0.00298863  0.01351608  0.02055602  0.01314518 -0.01415857 -0.00279083
 -0.02184041  0.01047348  0.0148738   0.02001728 -0.01059644  0.01256558
 -0.01566152 -0.01608398  0.00920825  0.0164183  -0.00549364  0.00038944
  0.00088661  0.00083171 -0.00628995 -0.01604554  0.00395457  0.00729834
  0.00753099  0.00242139  0.00723261  0.01738454 -0.00685218  0.00989017
  0.01673235 -0.0081866  -0.02286245 -0.00168546  0.00334061  0.01909181
 -0.01060592  0.01706034  0.01304471  0.01703752 -0.01230935  0.00179135
  0.0064254   0.00058722  0.01153048 -0.01878616 -0.00390335  0.01372224
  0.01602949 -0.00542532  0.01938828 -0.00582358 -0.008029    0.0090459
 -0.01136402 -0.014953    0.02205945  0.02248164 -0.0211709   0.00325846
 -0.00259893  0.00258011  0.00551023 -0.01553661 -0.00597078 -0.02198746
  0.0218686   0.00411217 -0.02126214 -0.01215616 -0.00095695 -0.02244955
 -0.02188074 -0.00126577 -0.00071274 -0.00161865 -0.00350284  0.00041674
  0.00058537  0.0082012  -0.02209712 -0.01575534 -0.00282904  0.01029163
 -0.01167978 -0.00429675  0.01864341 -0.00901077  0.0029632   0.00050604
  0.01407307 -0.00442641  0.00471058  0.02071535  0.01731368 -0.00977018
  0.01054149 -0.0149214   0.01093845 -0.00517444 -0.00347495  0.01780974
 -0.02286288 -0.01525594 -0.00477469 -0.02207594 -0.00891886  0.00869215
 -0.00215019 -0.01954393  0.0059373  -0.0101718   0.00875254  0.01902383
  0.0092027   0.00331759 -0.0228046   0.01077967 -0.01768892 -0.01594132
 -0.01445566 -0.02125151  0.00806552  0.01587175  0.00719355  0.00339553
 -0.01645791 -0.01641068 -0.00619709 -0.00705487  0.01127695 -0.00135106
  0.02097717  0.00703419  0.01167518  0.02176896 -0.02261506  0.0003523
 -0.01046153  0.00376573 -0.01246138  0.00553333  0.01183892  0.00387288
 -0.01572549 -0.01608719  0.00550073 -0.01586436 ]
[ -0.0303882  -0.01787636  0.0719878  -0.01192557 -0.07772993  0.02232846
  0.02336826  0.02841673  0.04137636 -0.13360095 -0.11419326  0.0467953
  0.0175502   0.00604203  0.01209521 -0.02727469  0.10680132  0.01835587
 -0.05534874 -0.09092165 -0.00999605 -0.06779995  0.0525073   0.01686635
  0.0164791   0.09599372  0.00534383 -0.08903531  0.04261724 -0.02954718
  0.04676034  0.00563307 -0.01570663 -0.01175312 -0.01646172  0.05700784
  0.03845776 -0.02513663  0.00569781 -0.00241628  0.00766587  0.02935933
 -0.01570162  0.08072849 -0.05447257 -0.02169946  0.06490564  0.0114743
 -0.01438    -0.0085727   0.00764854  0.00034961  0.0153273  -0.02610501
  0.03990896  0.00808469 -0.027925   -0.04226345  0.12030985 -0.00648659
  0.0334386  -0.04770892 -0.02396532 -0.03139781  0.0206731   0.00841307
 -0.02027451  0.03879402 -0.00965284  0.02064041  0.07354967  0.01815659
 -0.06063173 -0.04032186  0.09088543  0.02114764 -0.11934691 -0.05675069
 -0.03207972  0.04745447  0.00126445 -0.08962823  0.03641383 -0.02213187
  0.01897061  0.01895076 -0.08598606  0.00276707  0.09394301 -0.02062045
  0.06617964 -0.06133124 -0.02028675  0.03166921  0.01844652 -0.01913964
  0.00610969 -0.09848123 -0.05913112  0.07475455  0.02720064  0.01867659
 -0.03089924  0.01987916 -0.09013035 -0.0726547  -0.00369061  0.00955945
 -0.01059045  0.01923934  0.05026169 -0.02487169 -0.0071937  -0.03343497
 -0.02481527 -0.0184805  -0.06707116 -0.00116473  0.00133117  0.00437767
  0.0997538  -0.05376836 -0.00991293 -0.04150923  0.00693451 -0.09961927
 -0.08963062  0.12860206 -0.04121762 -0.01958727 -0.00276546 -0.05050014
 -0.12519175 -0.00987327 -0.03573986  0.01338131  0.01459793 -0.09116716
  0.05719516  0.01398937  0.01180213 -0.06948877  0.00337624  0.06721431
  0.01797063  0.04846555 -0.00976759 -0.0733232   0.02385058 -0.01915457
 -0.01393878  0.00946176  0.05373872  0.03136187  0.00705105 -0.0034255
 -0.01766397 -0.00400139 -0.01708703  0.04776889 -0.03729875 -0.03896332
 -0.05482024  0.02559864 -0.00862885 -0.03912808 -0.04479055  0.01556311
  0.03003105 -0.00790509  0.02137027  0.00531221  0.04412271 -0.08168215
 -0.02506318 -0.03204615 -0.0032001   0.05500942 -0.05383899 -0.02741071
  0.0016252  -0.06500214  0.0334999   0.05061033 -0.01775629  0.01973789
  0.04236385 -0.03392208 -0.04956868 -0.01953365 -0.03335322 -0.04336935
 -0.02691523  0.02098175  0.01335564 -0.00286414 -0.05043397 -0.09583166
 -0.0227283  -0.08387786 -0.03367765 -0.12935713  0.04393648 -0.0324625
 -0.00332515 -0.05717322 -0.06945841  0.06774353  0.01460735 -0.01169882
 -0.03345203 -0.00684011  0.03015097  0.03502398 -0.06590685 -0.0207749
 -0.01653472 -0.01584799  0.0304434   0.01766851 -0.06722687 -0.06989542
 -0.01429847  0.13717149 -0.04369623 -0.00578656 -0.04742288 -0.00393868
  0.01591339  0.01179971 -0.00044907  0.03632008  0.04884184 -0.05971331
 -0.03115725  0.03156067 -0.03423755  0.01425416 -0.02274115  0.02658848
 -0.2091371  -0.1370343  -0.06636732  0.05077497 -0.05286488  0.01711529
 -0.02343234  0.00736733 -0.0710404  -0.02360368 ]
[ -0.04256368 -0.02412146 -0.04567827  0.01447756 -0.01499439  0.00410031
  0.0368499  -0.07375807 -0.04693142 -0.03090807  0.05778775  0.09050556
 -0.00294386 -0.00648301 -0.08746618  0.09175737 -0.03980077  0.0248
  0.01465025  0.04083575  0.00854759  0.01630329 -0.13082512  0.02388279
  0.03757944 -0.04388485  0.01458204 -0.0302876   0.01786282 -0.08736315
 -0.04928777 -0.05195038 -0.02040331 -0.01491361  0.04613735  0.03375848
 -0.00729452 -0.04601566  0.03745906 -0.04496606 -0.04909245 -0.01285962
 -0.04641991 -0.07328323 -0.05126907  0.07036662 -0.01727537 -0.03049247
 -0.05158506  0.00465707 -0.06077965 -0.10439805 -0.08611028 -0.01668165
 -0.04831167 -0.00251304 -0.04245206  0.0468911  -0.04925256 -0.00897646
  0.04840496  0.00728277 -0.05181347  0.0182681  -0.06862998 -0.01463343
 -0.01270382  0.0282562  -0.00123184  0.04511861  0.00382775 -0.00961476
  0.01440726  0.00443247  0.02738168 -0.08065735  0.02692069 -0.06044463
  0.00036994 -0.02502369 -0.03341547  0.01000842 -0.1003347   0.02279425
 -0.01895752 -0.01834797 -0.02446134 -0.02333958 -0.03181238 -0.02284548
 -0.02352494  0.02346412  0.02324074 -0.02820527 -0.01253875  0.00857032
 -0.00051502  0.05115179  0.0254902  -0.00668104  0.039588   -0.0509765
 -0.09410042 -0.05092089  0.05762337  0.01735352 -0.03311538  0.1016787
 -0.00467855  0.01246057 -0.01562391  0.00315722  0.0246032  -0.04916973
  0.04267105 -0.03522294  0.03058431  0.05080192  0.00680967 -0.0326621
 -0.02506213 -0.07903416 -0.017604   -0.0987889   0.00502481 -0.03677918
 -0.00201648 -0.06192917 -0.00953438 -0.02682805  0.01605131  0.02706829
  0.01033922  0.02695251  0.0212181  -0.04646789  0.01635157  0.03525753
  0.040335   -0.03677317 -0.00296669  0.01566777 -0.02613893  0.05171112
  0.07451724  0.04726043 -0.06118378  0.00580651  0.04487716  0.03663752
 -0.0245093   0.0209604  -0.08241258  0.0039411   0.00757154 -0.01138647
  0.02237868 -0.03465454 -0.00911015 -0.09262274  0.06940547 -0.09211227
 -0.06316259 -0.00681191  0.00217275 -0.03975155  0.0076993   0.0308207
 -0.05806543 -0.1281302  -0.08274438  0.03451267 -0.03372155  0.00262498
  0.0342795  -0.03896701  0.0142912  -0.07196119  0.06546909 -0.00154552
  0.06801093 -0.02749081  0.01904195  0.0816459  -0.02040563  0.01765715
 -0.03298651  0.02707363 -0.02916077  0.03792105 -0.02622912 -0.08856807
 -0.03978168 -0.08834454 -0.00333049 -0.0295118   0.00566068 -0.0486154
  0.09184098  0.02140268  0.01882585  0.05985377 -0.08157884 -0.03599159
  0.06418187 -0.02946824 -0.01459186 -0.07164425 -0.03089129  0.09291805
  0.00992138  0.01515633 -0.00769248  0.03817559  0.0281509   0.03611495
 -0.0522415  -0.05500245 -0.0622322  -0.00454689 -0.09472387  0.03629195
  0.03131067  0.01787271  0.03151416 -0.03711318 -0.00970753 -0.06112191
  0.03201759 -0.05559317  0.0528851  -0.05015083  0.03350399 -0.0032606
 -0.05350015 -0.05012268 -0.03453007 -0.10326996  0.00720466 -0.03319009
  0.00240419  0.00137608 -0.05974098 -0.08855291  0.01020466 -0.06109832
  0.0937601   0.05175634  0.08886856 -0.02797523 ]
[  0.00277293 -0.05769353 -0.05425648  0.03034681  0.00793467 -0.02298361
 -0.03449379 -0.09573691 -0.04364577  0.0163984  -0.01339971 -0.05193882
  0.01978193 -0.10737719 -0.00863624 -0.05032691 -0.02981243 -0.04622694
  0.02562523  0.08368286 -0.01554178 -0.00543858  0.01905632 -0.07973281
 -0.07128218  0.00186926 -0.02155996  0.0732996  -0.00460598  0.01813716
  0.01106887 -0.01167191  0.02621627 -0.05832702 -0.17286535 -0.07011139
  0.0207359  -0.01324557 -0.0556293   0.0112242  -0.01864095  0.01695628
  0.07174098 -0.01262342 -0.06837173 -0.05369471  0.01180636 -0.00540109
  0.0697505  -0.00879051 -0.04465201  0.00752667  0.03501366 -0.04791402
  0.03270333  0.04842618 -0.07497675 -0.05687879 -0.06410494  0.00180583
 -0.08616687 -0.03774131  0.01838043 -0.05114961  0.00823824 -0.01905435
 -0.01903486 -0.10086267 -0.06034296 -0.0293753  -0.0586872  -0.05500084
  0.02433653 -0.05255662 -0.07605709  0.09661952  0.03861358  0.07609215
  0.07409482  0.02665051  0.02465743  0.02778608 -0.05270451 -0.05880609
 -0.02237069 -0.07880241  0.04468267 -0.0423826   0.03442201 -0.0429684
  0.01719668  0.00860523  0.00845435  0.00196893 -0.04686421 -0.04595592
 -0.04237159 -0.04674786 -0.03137334 -0.00354203 -0.01300927  0.00855284
 -0.05673664  0.01117966  0.07983411  0.00239459  0.0008823  -0.03119575
 -0.02153707  0.01201865  0.01578264 -0.02887294 -0.03779621  0.06046797
 -0.06813024  0.0115671  -0.05021869 -0.01829917 -0.00649071 -0.03932908
 -0.11476982  0.02867612 -0.0029026   0.05512149  0.02571884 -0.00605642
 -0.01782022 -0.11309408  0.03125187  0.00647     0.01531926 -0.03306342
 -0.05535169 -0.07958246 -0.06201963 -0.01961695 -0.07077596  0.06518292
  0.01886804  0.00966132  0.0526302   0.03734744 -0.0007464  -0.08256135
 -0.08240461 -0.02276478 -0.04693622  0.02534779 -0.01888121 -0.03913689
  0.02829195 -0.00811606  0.02049092  0.04836069 -0.01604441 -0.13505039
 -0.03737581  0.03303818  0.00366593 -0.01879358 -0.06495621 -0.06881291
  0.0251871  -0.00933111 -0.03035261  0.00756382 -0.08229914 -0.03544206
  0.00629338  0.03596539  0.01119133 -0.01547399 -0.13114795 -0.01288772
 -0.00633749  0.05680225 -0.08754206 -0.01057733 -0.05671519  0.06075882
  0.03110078  0.00502192  0.03488254 -0.02048912  0.0063664   0.01390824
 -0.04055621 -0.06529921 -0.0256898  -0.0125513   0.08055279  0.07143776
  0.03805669 -0.0151427  -0.04024766  0.07747463  0.0524716  -0.00979403
 -0.01362056 -0.03578397 -0.00793772  0.04587269 -0.06055781  0.06973648
 -0.00749994  0.01038183  0.03881525  0.03236746 -0.0454188  -0.08695071
  0.0188952  -0.00068351 -0.00649748 -0.06984336  0.04301507 -0.1124436
  0.01515759 -0.01296563 -0.03902205 -0.03492532  0.00331781  0.00969749
 -0.00137186 -0.02615025  0.00563216 -0.00236898 -0.01357453 -0.00391434
 -0.05178553  0.04282312 -0.06473715 -0.05922154 -0.00858351 -0.03975489
 -0.03228549 -0.01155257  0.01052713 -0.14533262  0.01758487  0.01904058
  0.0327835   0.04647398  0.05731572 -0.07034194  0.00224836  0.05520831
 -0.11566795  0.00948627 -0.03986146  0.02392505 ]
[  0.02705184  0.02779871 -0.05437025 -0.01380416  0.04138374 -0.02349116
 -0.02110942  0.09296753  0.03944074  0.08216066  0.06237955 -0.08214752
 -0.03888863  0.04075028  0.01927358 -0.07085539 -0.06740652 -0.02970435
 -0.00412319 -0.0406432   0.03819614  0.03932597  0.03945505  0.03235327
  0.01249382 -0.10240919  0.05959019 -0.00345466 -0.08863387  0.05959686
 -0.05807695 -0.06450488 -0.05353598  0.00611546  0.04457689 -0.04917503
 -0.04769414  0.00056683 -0.07867923  0.05275698  0.04216912 -0.06364349
 -0.04789918  0.01682387  0.06151455 -0.00982614 -0.07521239 -0.04814348
 -0.05262695 -0.01813042  0.07560189  0.04948344 -0.0089802   0.06986164
 -0.05288517 -0.07859997 -0.05317588  0.03085091 -0.02508958 -0.04700842
  0.03504049  0.06732934 -0.01654703  0.04845902  0.01971804 -0.06361167
 -0.0706037   0.01773185  0.02792345 -0.05960189 -0.08722074  0.02657664
 -0.01324773  0.04306534 -0.06549135 -0.0387677  -0.01268306  0.00229771
 -0.0176168  -0.06462684  0.01434388  0.00092183  0.03237755  0.05307605
 -0.07477438  0.02206797  0.09878801  0.02393054 -0.06841992 -0.0272581
 -0.03360694 -0.05586374 -0.00764642 -0.02315285  0.04514208 -0.00899823
 -0.00139942  0.03294696  0.05195877 -0.00444917 -0.06693662 -0.0732817
  0.11418753 -0.03067647 -0.03524506 -0.01450149 -0.01089856 -0.07581832
 -0.01700332 -0.06989832 -0.05222906 -0.01893129 -0.05073812 -0.04037499
  0.0457507  -0.03923155 -0.07046399 -0.06124708 -0.00413639  0.05637809
 -0.04173572  0.09201859 -0.02321756  0.02723703 -0.05694292 -0.0243192
  0.03787759  0.0152335  -0.04162226  0.03771608 -0.00349415  0.00566972
  0.10820233  0.00065737  0.04377907  0.05314822 -0.01170895 -0.00986197
 -0.12250264 -0.03682026 -0.08859674 -0.02108741 -0.00133363 -0.10416001
 -0.0939764  -0.04364899  0.0452745  -0.05614919 -0.01570831  0.01095107
 -0.06866032  0.0045771  -0.02781759 -0.09791502 -0.06220942  0.02714104
  0.01915111  0.03015637 -0.00770461  0.05969296 -0.04708203 -0.0797443
  0.07772496 -0.06006151  0.01641066 -0.02756462  0.04868216 -0.04013184
 -0.05694247  0.09114765  0.00742402 -0.11308923  0.03801591  0.07655212
  0.01365949  0.03091833 -0.06510556  0.014145    0.00386865 -0.0441823
 -0.08412607  0.00750264 -0.07983076 -0.10743494 -0.03267341 -0.05458976
  0.01379885  0.08725609  0.07308691 -0.06744962 -0.0624069   0.03700723
 -0.00859267  0.00660736 -0.03955827 -0.01918061  0.0040566   0.04739783
 -0.07435042  0.04574653 -0.03355585 -0.01206819  0.04324682 -0.04288801
 -0.01234318  0.05796535  0.00208926 -0.04142842  0.02986427 -0.01590102
  0.02082537 -0.05897764 -0.04168915 -0.08085952  0.01598692  0.06567615
  0.03692754 -0.01020599  0.03336921 -0.03824784  0.0487613   0.01776426
 -0.02081141 -0.12984696 -0.06890207  0.00804933  0.05497415 -0.0354141
  0.03000287 -0.10505519 -0.0207147   0.01998674 -0.07018311  0.02051459
  0.08108532  0.02159635 -0.02351539  0.05760488 -0.01975957 -0.02679965
  0.09047075  0.02783809  0.02797918  0.06534495 -0.01376261 -0.04078235
 -0.0079825  -0.05481401 -0.04423128  0.0137042  ]
[ -1.08585891e-03  2.15191171e-02  1.48413619e-02  1.53141711e-02
 -2.65223198e-02 -9.68477130e-03  1.98220238e-02  2.56045896e-04
  1.61209758e-02  3.60867754e-02 -7.03609502e-03 -2.59415451e-02
 -5.98788355e-03  1.69578530e-02 -1.28128892e-02 -2.71166512e-03
  2.25114115e-02 -2.11287383e-02  2.74467245e-02 -2.07284521e-02
 -2.64515001e-02 -3.53906713e-02 -1.25398254e-03 -1.22761708e-02
 -1.24115520e-03  5.04268939e-03  1.94214731e-02  3.13415146e-03
 -2.52600461e-02 -1.86132025e-02 -1.27369370e-02 -1.81583930e-02
 -9.86126997e-03 -1.60909873e-02  1.04590096e-02  1.01399478e-02
 -1.08795436e-02  7.36819161e-03 -2.03760546e-02 -9.95681249e-03
 -1.64603710e-03 -1.55813443e-02 -2.61411048e-03  1.63458362e-02
  1.51891299e-02 -2.11996119e-02  2.29352922e-03 -2.44626449e-03
  1.74552072e-02  1.02420049e-02 -1.70207638e-02 -1.19663756e-02
 -1.70155652e-02 -5.99204330e-03 -1.80491898e-02 -1.55820046e-02
  3.08711547e-03  3.18513028e-02  1.64132547e-02 -7.70381372e-03
  3.20660509e-03  2.45501902e-02 -1.99850649e-02  9.03658941e-03
 -1.68757758e-03 -1.33539857e-02  1.21665085e-02  1.80667043e-02
  1.13021275e-02  9.78209078e-03 -6.90324837e-03  4.12961561e-03
 -1.60147920e-02 -2.29856838e-02  4.40967688e-03  1.11345835e-02
  2.48666871e-02  7.83765595e-03 -1.24004222e-02 -2.02797092e-02
  7.84590188e-03  2.38649314e-03 -2.25772895e-03 -1.02064721e-02
 -1.95010845e-02 -1.20076295e-02  1.68189239e-02 -3.34092695e-03
  4.90749627e-03  4.18516360e-02  5.35714859e-03  6.82906248e-03
 -7.44319661e-03  1.38594806e-02  5.17355185e-03 -8.46280344e-03
 -6.28932193e-03  2.77503598e-02 -1.43221661e-03 -1.82358071e-03
  2.22678389e-02  1.19010285e-02  4.89814300e-03 -2.05092337e-02
 -2.09593773e-02 -6.30964478e-03  1.52055221e-02 -1.80419032e-02
  1.62976868e-02 -1.92452315e-02 -1.78748332e-02 -2.90624169e-03
 -1.89432874e-02 -1.34131627e-03 -1.81523971e-02 -2.31351294e-02
  1.00290654e-02 -1.22629181e-02 -3.00978730e-03  9.63772088e-03
 -1.36768296e-02  2.07651481e-02 -7.25355418e-03 -7.23604159e-03
  1.08852899e-02 -1.86581835e-02 -2.06709784e-02  2.23323908e-02
 -2.72307936e-02 -4.17982839e-04  6.50512893e-03  1.34064490e-02
  6.01468142e-03  8.44640099e-03 -1.54558998e-02  1.07978936e-02
 -1.85579080e-02  1.83393415e-02 -8.12598504e-03  4.25116066e-03
  5.24275284e-03 -1.91378146e-02 -1.35403229e-02  1.58065539e-02
  1.61570739e-02 -5.68935229e-03  1.82523241e-03 -1.52365342e-02
 -2.96700373e-03 -3.21386149e-03  1.57779884e-02 -1.04991486e-02
 -2.00684723e-02 -3.28892469e-02  2.39600311e-03  1.75800454e-02
  2.61999648e-02 -6.54893508e-03 -6.42292947e-03  4.96476004e-03
 -1.24743246e-02  3.93249318e-02 -6.75682817e-03 -4.00303910e-03
  1.38156088e-02  1.45064481e-03  2.59123580e-03  1.58719607e-02
 -1.20752780e-02 -2.76336708e-04  1.92780681e-02 -9.18260030e-03
 -3.45970690e-03  1.35304332e-02 -3.72284418e-03 -2.95068981e-04
  1.41295604e-03  2.38089226e-02  1.97104868e-02 -1.44343376e-02
 -1.46933226e-02  1.97440432e-03 -5.28620672e-04  6.54946221e-03
 -2.63492553e-03 -1.92655046e-02 -2.25652475e-02 -2.26539541e-02
  2.07436793e-02 -2.27193311e-02  2.24088375e-02 -6.01825723e-03
 -3.84811242e-03  1.61059499e-02 -1.14953686e-02  1.25336302e-02
 -1.46918930e-02  5.09870844e-03  1.14701223e-02 -1.36722000e-02
  3.83757683e-03 -1.08562037e-02 -1.98225048e-03 -1.22743018e-03
  1.40130473e-02  1.79977920e-02  2.62579583e-02 -6.16398128e-03
 -1.87685434e-02  1.50760133e-02  1.63861644e-02  3.51683047e-06
 -1.44784870e-02 -1.31167052e-02 -2.20821034e-02  1.61895007e-02
  2.05475688e-02  2.40355339e-02  2.97366292e-04  5.22034569e-03
 -6.49892120e-03  3.67302564e-03  4.83320653e-03  4.59545339e-03
 -1.85524523e-02  2.93143629e-03 -1.40192974e-02 -1.78008638e-02
 -1.57563444e-02  1.30174961e-02 -2.47756336e-02 -4.76661883e-03
  2.82943947e-03  1.89257804e-02 -2.08698064e-02  2.12199334e-02
 -2.27839649e-02  1.69735774e-02 -1.83856208e-02 -4.52875393e-03
  1.84548423e-02 -1.89126711e-02  1.76124722e-02  6.29776623e-03
 -3.53036379e-03 -4.36861580e-03 -1.69509687e-02  1.96788665e-02
 -2.06297487e-02  1.31341526e-02 ]
[ -1.68349333e-02 -7.66546046e-03 -7.98629317e-03 -2.20733555e-03
 -2.05091164e-02 -2.48722103e-03  1.83256641e-02  1.27444845e-02
 -2.04532687e-02  1.60743557e-02  5.56831108e-03 -1.53923342e-02
 -6.12463104e-03  2.53026863e-03 -7.55002443e-03 -4.09613270e-03
  4.16557118e-03  1.78795718e-02  1.02074724e-02 -4.27245442e-03
 -4.96089412e-03  6.42893603e-03 -5.07529313e-03  1.44985467e-02
  1.57443993e-02  2.92481249e-03 -2.14787368e-02 -1.50420414e-02
 -2.58256984e-03  1.77599937e-02  8.58339481e-03  1.96575616e-02
 -1.05834315e-02  1.40240397e-02  6.22168602e-03 -5.92893874e-03
 -1.87183078e-02 -8.19505891e-04  1.96288116e-02 -2.06526220e-02
  6.93720626e-03 -5.35141351e-03 -1.44637171e-02  2.20211651e-02
  1.41188186e-02  1.71367172e-02 -1.79839674e-02  2.18944084e-02
  2.26707477e-03  1.34264994e-02  9.38621163e-03  3.81217129e-03
 -2.44886358e-03 -1.35930991e-02 -2.22655665e-02 -2.00903192e-02
  2.10684375e-03  2.14653257e-02 -6.25560666e-03 -1.71431135e-02
 -1.59802604e-02  1.04265206e-03 -6.01742370e-03  5.98194171e-03
 -1.33233620e-02  3.97551479e-03  1.34127121e-02  2.09051222e-02
 -1.84157211e-02  3.66685912e-03  5.40551590e-03  6.49648579e-03
 -2.08262522e-02  1.89893041e-02  3.39586567e-03 -1.59612074e-02
 -7.86271505e-03  3.93169746e-03 -1.30804582e-02  1.30791338e-02
  2.49463343e-03  1.58845317e-02 -1.90805197e-02 -1.77334342e-02
  2.27826890e-02 -9.80015937e-03  4.40205866e-03 -2.59692105e-03
  1.90866031e-02  3.60916229e-03  1.32515831e-02 -9.04410891e-03
  1.78904459e-02  8.60569067e-03 -2.25266051e-02 -1.38524044e-02
  1.11731431e-02  8.96531902e-03 -1.77982245e-02 -1.32433427e-02
 -2.20569670e-02  8.02947395e-03 -1.40850656e-02  8.18226766e-03
  4.10473766e-03  2.11833566e-02  1.76983234e-02  2.81021534e-03
  9.74447280e-03 -1.60824619e-02  6.47326699e-03 -3.42494203e-03
 -1.28995515e-02 -1.42756570e-02  1.90049056e-02 -2.24157050e-02
  1.04963323e-02 -2.01499835e-02  4.34905523e-03  9.69036669e-03
 -1.18623674e-02  6.63504889e-03 -2.13663559e-02 -1.35816354e-02
 -1.97671466e-02 -1.97965764e-02 -1.02637429e-02 -9.29236878e-03
  1.14660319e-02  1.27249176e-03 -1.68059040e-02  1.75221190e-02
  2.18297006e-03  6.63187774e-03 -1.55906677e-02 -1.02206264e-02
  4.16323636e-03  1.51023278e-02  2.16780566e-02  1.99816320e-02
 -1.56104751e-02  1.04354564e-02  1.01321852e-02 -4.16395580e-03
 -1.33646969e-02 -7.35960528e-03 -1.77024882e-02  1.59611609e-02
  1.48921497e-02 -2.08070204e-02  9.44400672e-03 -1.20642586e-02
 -1.35819716e-02 -1.93663351e-02 -1.46067748e-02  2.00816076e-02
 -1.48168728e-02  9.79506131e-03  1.90250445e-02 -1.23354653e-02
 -1.78501271e-02 -5.18045994e-03  2.02633459e-02 -1.07210409e-02
 -1.97721552e-02 -1.03464704e-02 -1.60501860e-02  5.00097964e-03
  1.71344844e-03  1.41109887e-03  8.12931545e-03  2.70809687e-05
  1.68643314e-02  7.86155090e-03 -2.18066406e-02 -1.12441247e-02
  8.07346124e-03 -1.93968732e-02 -1.07482485e-02 -1.58522148e-02
  3.71164037e-03  1.58291217e-02  2.12250501e-02  1.07838970e-03
  1.99237559e-03  1.11404632e-03 -2.24099290e-02  4.79050865e-03
 -8.60167295e-03  2.21203398e-02  1.32139223e-02 -1.76397767e-02
  1.94420163e-02 -6.96640043e-03 -7.17024878e-03  1.98535062e-03
  4.20010835e-03 -8.35332554e-03  1.28577901e-02  1.26778036e-02
 -5.35724172e-03 -1.13231121e-02  2.67636706e-03 -1.09486068e-02
 -2.02133413e-02 -1.22386320e-02  1.36363683e-02 -7.56293163e-03
  1.06432941e-02 -6.91298256e-03 -1.36512015e-02 -1.69270895e-02
  1.62900481e-02 -1.29218111e-02 -2.00262889e-02  2.09428575e-02
 -3.18450690e-03  1.23591395e-03 -1.90599393e-02  2.23267730e-02
 -2.85144872e-03 -9.34163947e-03 -1.68375839e-02  1.19734332e-02
 -1.41538391e-02 -1.14715807e-02 -1.27503332e-02 -8.08130857e-03
 -2.02229712e-02  6.09201100e-03 -1.72479320e-02  1.32678272e-02
 -1.79518678e-03  8.62043910e-03 -1.06657790e-02 -1.56107806e-02
  2.15584897e-02  1.97741780e-02 -2.26893555e-02 -9.03427787e-03
  3.28447088e-03 -1.60431899e-02  1.58578213e-02  1.22464048e-02
  3.48818675e-03  7.91065302e-03  1.76137909e-02 -7.10584316e-03
 -3.88569199e-03 -1.36345355e-02 ]
[ -2.08903700e-02 -3.39783542e-03 -1.42181246e-03 -4.74345982e-02
 -7.96498209e-02  1.73550695e-02  9.09090862e-02 -4.98237051e-02
 -3.75758894e-02 -3.91354114e-02  1.73918698e-02  9.82183963e-03
  6.74551772e-03 -5.83161041e-03 -1.49780782e-02 -4.09336016e-03
  6.27116440e-03 -5.23916446e-03 -9.29316133e-02  2.50094216e-02
  2.50096265e-02 -6.54110834e-02  1.77855082e-02 -3.97159681e-02
 -3.70359793e-02  1.04202516e-01 -1.57447439e-02 -1.00153558e-01
  3.16279777e-03  4.38361801e-02 -3.43772992e-02 -9.69994962e-02
 -5.03595024e-02  2.54824944e-02  2.87505407e-02  9.84741095e-03
 -1.44678177e-02 -1.18634235e-02  1.19494201e-04 -2.32520681e-02
  1.85064529e-03 -2.53052413e-02 -9.85275432e-02 -3.87668870e-02
  4.98701185e-02  3.76148857e-02  4.57678325e-02 -1.53155979e-02
 -5.34327177e-04 -9.78104118e-03  5.43376394e-02 -8.85354951e-02
  8.75577256e-02 -2.43505724e-02 -4.76383008e-02  1.65145434e-02
 -3.14612989e-04  4.13445346e-02 -3.79449837e-02 -1.64038837e-02
  3.96482274e-02  4.84655350e-02 -5.23344986e-02 -3.47326994e-02
  4.19631787e-02  6.74459040e-02 -8.32207873e-03 -1.45056760e-02
 -4.49421704e-02 -1.99131425e-02  8.90662670e-02 -4.15292382e-02
  5.77479322e-03 -4.18547168e-02  2.63147205e-02 -6.17691539e-02
  7.22212996e-03  1.99987199e-02 -1.61392950e-02  5.04049798e-03
  2.61175563e-03 -1.70833953e-02  2.35636737e-02 -5.20474240e-02
 -3.31084281e-02  4.48414460e-02  6.35341182e-02  5.82270324e-02
  1.27935763e-02 -2.51634438e-02 -4.67181541e-02 -3.89282182e-02
 -1.17192520e-02  1.10698238e-01 -1.24422573e-02 -4.72344607e-02
 -8.57886001e-02 -2.24335380e-02 -2.79228967e-02  6.20736449e-04
 -4.42252122e-02 -1.05684131e-01 -1.07097821e-02 -2.53432672e-02
 -5.80752008e-02 -2.72152964e-02  7.93033764e-02 -4.10658009e-02
  1.19984141e-02  2.73734760e-02  3.46743880e-04  2.82468498e-02
 -2.69260025e-03  9.37296450e-02 -6.32770434e-02  5.89785315e-02
 -4.47694436e-02  4.77867573e-02  1.71674974e-03 -7.15059275e-03
 -8.11587349e-02 -8.22915658e-02 -3.31866881e-03 -4.68867924e-03
 -3.62356864e-02  1.91374607e-02 -7.36216903e-02 -1.02572171e-02
 -9.97479111e-02  1.96821298e-02  5.24596311e-03 -4.99462709e-02
  3.82483564e-02 -2.61255284e-03  2.10668333e-02 -3.72623876e-02
 -6.15222491e-02 -3.09998095e-02 -2.37620641e-02 -1.91502403e-02
 -3.40850204e-02  1.62642412e-02 -5.16059771e-02 -4.14683707e-02
 -2.73004062e-02 -1.44369788e-02  1.34128347e-01 -1.31455800e-02
  1.08265743e-01 -1.38455478e-03 -2.24584080e-02  2.26376038e-02
  9.60705150e-03  6.63724616e-02  2.85961330e-02 -1.81003660e-02
 -2.17755958e-02 -8.21874756e-03 -1.18821850e-02  4.78282385e-03
  1.15238782e-03 -2.85457354e-02  3.59118506e-02 -1.11828721e-03
 -9.20361131e-02 -2.63077617e-02 -3.90659198e-02 -7.07626939e-02
 -1.92792919e-02 -2.91782990e-02  5.71783409e-02 -1.42252930e-02
 -7.62044638e-03  1.17674088e-02 -8.40439349e-02 -1.38341375e-02
 -8.75444114e-02  1.59831773e-02 -2.79831830e-02  8.98572728e-02
  9.87235736e-03 -9.71691981e-02 -2.93875933e-02 -5.44210561e-02
 -1.93135100e-04  3.62814702e-02  3.42947021e-02 -6.78713992e-02
 -2.17123814e-02  2.51278710e-02  3.51142921e-02 -9.21371728e-02
  2.29502097e-02  4.30279672e-02 -5.07370345e-02 -5.80461212e-02
 -1.60289239e-02 -1.65605005e-02  4.49584983e-03 -3.65309455e-02
  8.13804194e-02  5.05634630e-03 -1.42978961e-02  4.14016247e-02
 -2.01270767e-02  2.53861956e-02 -5.09080365e-02 -1.18080350e-02
 -2.83407755e-02  6.70856684e-02 -3.27240350e-03 -6.53532743e-02
  4.47643884e-02  7.18403189e-03  2.95253471e-02 -1.11669138e-01
  5.58953807e-02  2.98962910e-02 -4.79656048e-02 -2.93454211e-02
 -2.66682673e-02  1.12833148e-02  2.75167283e-02  9.93801057e-02
 -9.96900629e-03 -5.80757260e-02 -1.49190232e-01 -2.64321957e-02
 -9.53433011e-03  1.47747369e-02 -8.99786651e-02  4.21736352e-02
  1.05512301e-02  1.83740444e-02  1.01946909e-02 -6.85996711e-02
 -6.74831420e-02 -2.51650326e-02  5.03746010e-02  5.89138381e-02
  1.13222659e-01 -4.35751714e-02 -7.80372173e-02 -1.76348258e-02
  2.48748455e-02  1.16033107e-02 -6.52784556e-02  4.31522764e-02
 -8.16896278e-03  1.83677375e-02 ]
[ -0.18967514 -0.06120249 -0.07960553 -0.01636021  0.00783829 -0.04836119
 -0.08961532 -0.03439661  0.06277507  0.03488536  0.07242525 -0.07439693
 -0.02825577 -0.0449203   0.04696146  0.00020503  0.07091337  0.04637196
 -0.05102644  0.03178836 -0.06695922  0.01490838 -0.04674741 -0.05370755
 -0.01122351  0.02480343  0.00565922 -0.02985468 -0.02038468 -0.06323495
 -0.01832187 -0.0351174   0.03135918 -0.01448822 -0.0788014  -0.00754829
  0.00631399  0.01261171 -0.06228916  0.08067396 -0.04567314 -0.04043467
 -0.01720683 -0.01309866 -0.12054965 -0.09904541 -0.04667537 -0.03624697
 -0.0418069  -0.02405058 -0.00480851 -0.06633712  0.03706701 -0.04068425
 -0.07080055 -0.01526211 -0.00325212 -0.0711794   0.03928448 -0.02244461
 -0.10427854 -0.05352647 -0.03905696 -0.09271256 -0.06413614  0.08548448
 -0.02832868  0.04849795 -0.08868819  0.0453026  -0.06235194  0.0565297
 -0.01179214  0.05486607 -0.0038844   0.05764683 -0.05738308  0.03193519
  0.03519996 -0.02717822  0.08474966  0.05194963  0.03131409  0.05098029
 -0.01278002 -0.08526577 -0.11099771 -0.04336785  0.06249427 -0.01388866
  0.06139173  0.05375116 -0.01642218 -0.06017349  0.05660008  0.00186039
  0.07164185 -0.03737309  0.02746344  0.0117139   0.06356779 -0.04268996
 -0.07196928 -0.02506662 -0.00165561 -0.06114501 -0.09198643 -0.00172325
  0.02822919 -0.12449991  0.09077438 -0.043929    0.06948785 -0.03558502
  0.03662575 -0.06193632 -0.04772406 -0.06016826 -0.00241608 -0.00205743
 -0.05264767 -0.05094478  0.00112338 -0.00418578 -0.01000282 -0.04503378
  0.01531706 -0.07555263  0.01121299 -0.00230818  0.04968197  0.04151407
 -0.03500668 -0.00071668 -0.05299866 -0.02740878  0.1138422   0.02861915
 -0.00935495 -0.04332314  0.0126015  -0.03820407 -0.01595051  0.00480548
 -0.09518979 -0.03380129 -0.07374816 -0.15123641 -0.0493652   0.04593101
  0.02177901 -0.01545024  0.04357421  0.00803941 -0.06169995  0.04777164
 -0.07167505  0.01357233 -0.00709941 -0.09329218  0.00878558 -0.07039958
 -0.07348993  0.0581678  -0.0440053  -0.02963502  0.03387124 -0.08295175
  0.09854248 -0.01372755 -0.0896545   0.06582318  0.01859575  0.02222419
  0.0364882   0.02290452 -0.02220143 -0.00419716 -0.01761732 -0.05425714
 -0.02133918  0.04729693  0.01781726  0.00281131  0.04805767 -0.05788114
 -0.11689104  0.10562847 -0.04836806 -0.04175768 -0.0348854   0.00040814
 -0.05385609 -0.00975051 -0.02041317 -0.02336977 -0.02085998 -0.02693
  0.06921097  0.03968949 -0.03050485  0.00403426  0.02444668 -0.06646004
  0.04664017 -0.00586642  0.07547203 -0.00036956 -0.03442107 -0.06847789
  0.01743862 -0.07982056  0.03303684 -0.04669484  0.019053   -0.00160593
 -0.08538468 -0.00508611  0.05451304  0.04104676  0.03754093  0.01646247
 -0.02718369 -0.05901276  0.04141568 -0.0224801  -0.08715924  0.00330426
  0.06544251 -0.03019575  0.03596408 -0.03835365 -0.06447711  0.01624245
 -0.04699064 -0.00416731  0.03078791  0.00654116 -0.07674953 -0.10019476
 -0.04299407 -0.04190653 -0.0097901   0.02196968 -0.0980833  -0.05111915
  0.03150946  0.00539617 -0.03262098  0.0278052  ]
[  0.08076658 -0.06155557  0.05850841 -0.02759322 -0.03709257  0.02594287
  0.04834307 -0.01051583 -0.02326792 -0.07209802 -0.05415317  0.03321664
  0.04639018  0.12007365 -0.0952675  -0.02357866 -0.02599478 -0.03683018
  0.05357488 -0.00487797  0.06203049 -0.03992006  0.00117272 -0.03130902
 -0.02362606 -0.05126089 -0.01261004 -0.00357737 -0.07354195 -0.00748172
  0.04409126  0.0255741  -0.0102836  -0.01752868 -0.04870928  0.00601098
 -0.006192   -0.05788979 -0.10220008  0.01753406  0.01187227  0.0440847
  0.03027579  0.03687495  0.06438781  0.00457529 -0.02157733 -0.05580845
  0.02792874 -0.02560004  0.01741675  0.02481045 -0.04176707  0.01572538
 -0.04537169 -0.07032508 -0.05809316  0.00542508  0.02421985 -0.06159823
  0.05602852  0.05044103  0.05139916  0.0093997   0.08516903 -0.05604522
  0.00035145 -0.023788    0.11748174  0.02068115 -0.04720115 -0.02427504
 -0.03571549  0.01410377 -0.05767888 -0.0380115  -0.02474854 -0.06107392
 -0.05976972  0.07590287  0.00658623 -0.04436323 -0.0712004  -0.01304788
 -0.02946645  0.00119035  0.05030449 -0.04300842 -0.00616641 -0.00780738
  0.01297528 -0.06679107 -0.00151276  0.02693002  0.02139783  0.0271552
 -0.00996317  0.01631849 -0.02584601  0.06121188 -0.01924171 -0.04693877
 -0.07208776 -0.03466481 -0.08978029 -0.00166673  0.01933604 -0.07396761
 -0.00431977  0.07836322 -0.07627024  0.0253061  -0.10430478 -0.11079906
 -0.05042785 -0.03288218  0.04321603 -0.07756155 -0.02673182  0.12026158
  0.06724705 -0.02710201 -0.00553782 -0.03873676  0.05941032 -0.07655076
  0.01820218 -0.02005899  0.12607153  0.00957023 -0.02172554 -0.01672161
  0.04815592 -0.02849625 -0.0077818   0.02173462 -0.06696432 -0.01609613
  0.03498193  0.02639502 -0.01654364  0.0019405  -0.12059776  0.01375884
  0.00392198  0.0702085  -0.00708015 -0.05365009 -0.02694266 -0.03471176
 -0.10528567  0.02265161 -0.04478262 -0.02993743 -0.0464591  -0.03367644
  0.1149993   0.05180479 -0.00556268  0.06394345 -0.07812944 -0.049382
 -0.02109309  0.05838491  0.03564674 -0.0304891   0.02096006  0.0437845
 -0.01261246  0.00310098  0.06017778 -0.06696078 -0.05450022 -0.09712765
 -0.00324263 -0.07127853 -0.06784539  0.12659872  0.0519332  -0.01318774
  0.03243479 -0.07106605  0.01456341  0.0457049  -0.00706888 -0.08152755
  0.01345988 -0.02664106 -0.0030387  -0.04913184 -0.00793261  0.0588048
  0.00250668 -0.0281009   0.00350444  0.00636747  0.0179475   0.09349228
 -0.01670589 -0.00517232 -0.07357729 -0.00500312 -0.017102    0.11640717
 -0.08790302 -0.0117271  -0.04810784 -0.0046123  -0.047461    0.00554621
 -0.02553189  0.04883613 -0.04238745 -0.05963223 -0.10240293 -0.00265396
  0.01900613  0.03371831  0.03261461  0.03004843 -0.0109476   0.03492311
  0.00377803 -0.03866608 -0.10380061 -0.01578514  0.08195467 -0.07004413
 -0.06378462 -0.04394609 -0.08725993 -0.00722295  0.02107203 -0.01845816
 -0.02174827 -0.03194807 -0.01244406 -0.06229687 -0.01982564  0.04393224
 -0.01632204 -0.04147496  0.11087258 -0.01943626  0.0282817   0.03482189
 -0.02445178 -0.04185739  0.02836321 -0.01372864 ]
[  5.40011041e-02  7.63124675e-02 -7.91379511e-02  3.89274210e-02
  1.06002679e-02 -2.00007875e-02 -2.38381587e-02  1.85831264e-02
 -3.62855420e-02 -5.77134192e-02 -4.40392904e-02 -1.13600772e-02
 -6.35356009e-02 -8.20972770e-02 -1.40667362e-02 -1.20966621e-02
 -2.49847528e-02 -5.57206385e-02  7.49426857e-02 -3.89448516e-02
 -7.89249018e-02  5.93303479e-02  3.33267543e-03  2.55316105e-02
  5.66445142e-02 -6.94258511e-02  2.28259396e-02  6.58223927e-02
  5.77696301e-02 -1.46192694e-02 -2.61090733e-02  2.43398845e-02
 -3.25242914e-02  1.78676471e-02  4.28416580e-03 -3.54987681e-02
  1.24427257e-02  5.33102416e-02 -1.38912583e-02 -6.77789152e-02
 -1.56312734e-02 -3.83849069e-02  5.57615682e-02 -8.95269662e-02
 -7.49551430e-02 -6.82182750e-03  1.29370568e-02  7.06562549e-02
 -2.28135865e-02 -1.25540793e-02 -3.42307948e-02  3.55830491e-02
 -1.13160193e-01 -3.18376161e-02  1.16835281e-01  2.30031982e-02
 -2.51142122e-03 -5.63122518e-03 -8.02034512e-02  3.32427137e-02
 -8.45418032e-03 -5.47410287e-02 -2.18769275e-02  6.12995438e-02
 -8.90479013e-02 -1.31965071e-01 -3.72272730e-02 -3.33458334e-02
 -4.88887765e-02 -3.88010703e-02  2.42863335e-02  9.10782721e-03
  2.04313137e-02 -3.05485707e-02  2.81712804e-02  3.88978496e-02
 -2.54362659e-03  2.72875954e-03  3.29052396e-02 -4.00812887e-02
 -1.71536833e-01 -6.09670505e-02 -5.42208068e-02 -1.11159375e-02
  3.26054171e-02 -9.94547457e-03  1.51413871e-04  1.60896592e-02
 -8.64088386e-02 -2.61289906e-02 -4.40417975e-02 -2.35674437e-02
  2.52105072e-02 -7.25489333e-02 -2.08989494e-02  1.79523602e-02
 -3.98735031e-02 -5.01509495e-02  7.45575316e-03 -3.89974751e-02
 -1.47412615e-02  9.65203196e-02  2.36760546e-02  2.28867605e-02
  1.67803243e-01  4.40666564e-02 -4.12148573e-02  3.45389023e-02
 -1.72153767e-02 -4.50304002e-02 -6.03133589e-02  1.79775674e-02
 -1.53791932e-02 -2.01082565e-02  5.76009862e-02 -5.30544408e-02
  6.87113032e-03  9.38684121e-02  3.12509052e-02 -1.71799853e-01
 -8.32252298e-03  7.61919692e-02  1.53429285e-02 -3.65196913e-02
  1.27411736e-02 -1.92630966e-03 -3.26430202e-02  1.21297054e-02
 -8.24490413e-02 -9.79464799e-02 -3.73039134e-02  1.77015699e-02
 -1.08860098e-01 -1.33048855e-02 -2.42037289e-02  1.01780603e-02
 -4.00581174e-02 -8.26425999e-02 -9.14829448e-02  2.99895462e-02
 -1.04625532e-02  3.58225629e-02  5.56468107e-02  1.71618965e-02
  9.13271382e-02 -2.78167166e-02 -6.21215701e-02  1.10320263e-01
 -3.00703626e-02  1.08738914e-02  1.15980441e-02  2.29028333e-03
 -7.72394892e-03 -2.35589016e-02  6.09057471e-02 -6.00205287e-02
  4.35439404e-03 -9.35533084e-03  8.41723848e-03  3.35221626e-02
  2.83000767e-02 -2.23835371e-02  2.07907185e-02 -1.54349163e-01
  4.33121063e-02 -2.92936005e-02 -1.33283045e-02  2.55159084e-02
 -1.21139631e-01 -3.11569683e-02 -7.08025619e-02 -5.65989017e-02
  6.98168296e-03  3.46900523e-02 -3.72381806e-02  1.38825914e-02
  3.60172130e-02 -1.08617991e-01 -2.11252794e-02 -9.56274047e-02
  6.06843196e-02  7.81345814e-02 -3.11339125e-02 -2.63339728e-02
 -1.41351093e-02  7.73397367e-03  6.84078503e-03 -2.87256129e-02
  7.83120748e-03 -7.29906606e-05 -5.29685207e-02 -1.74981076e-02
 -8.22792237e-04 -3.62171419e-02  1.49002634e-02  7.83080310e-02
 -9.17365309e-04 -1.14963666e-01 -8.11422765e-02 -4.54208478e-02
  1.78964008e-02 -8.49247053e-02 -1.04783559e-02 -5.35828583e-02
  2.64487155e-02  1.76630095e-02 -1.51432268e-02  5.87298013e-02
  2.02312768e-02 -2.49841250e-02 -4.87771183e-02  9.27677676e-02
 -5.12699224e-02  3.82353216e-02  4.66608293e-02 -5.68003207e-03
 -5.62642552e-02 -6.53587356e-02 -8.15447494e-02 -9.40677226e-02
 -8.03821012e-02 -4.48441021e-02  1.04128458e-02  3.34351696e-03
 -7.72317732e-03  7.39041716e-02  8.04011673e-02  2.42661010e-03
 -4.49119769e-02 -8.74234177e-03  8.09490755e-02 -4.01730873e-02
 -1.18495896e-02 -5.66432551e-02  5.94663434e-02  7.34397769e-02
 -2.33977363e-02 -3.40965129e-02  6.66193962e-02  2.32978506e-04
 -1.02963991e-01  3.55953686e-02 -7.24405572e-02  1.99924447e-02
  3.20768878e-02 -1.47272758e-02  1.35332309e-02 -2.73564495e-02
  5.41242911e-03 -6.45291954e-02 ]
[  0.00181139 -0.01419223  0.01359989 -0.00227039  0.00175408  0.00500195
 -0.00778674  0.02434182 -0.01304942 -0.01637861  0.008979   -0.00911256
 -0.00367697 -0.01853561  0.00988422 -0.00490164  0.00556382  0.01777158
  0.00426222 -0.01195224  0.00047585 -0.01614377 -0.03233922  0.02054491
 -0.01714337  0.01770053 -0.01410927  0.00931337 -0.01382698  0.0090879
  0.01725647  0.00622055 -0.00477246 -0.01541459  0.01660439 -0.01190854
 -0.00323903 -0.01667077  0.01301591 -0.01657659 -0.0037429  -0.01114224
 -0.00725518  0.01623165 -0.01176457  0.01091962 -0.01904551 -0.01415575
 -0.01291951  0.02114181 -0.02059517  0.00750347 -0.00985958  0.01092431
  0.01113096 -0.0171994   0.00944763 -0.02158433 -0.00651877  0.01520852
 -0.02007631 -0.00247896 -0.03244353 -0.02609213  0.00743317  0.0187377
 -0.03922664  0.00356797  0.00384238  0.00046935  0.01977151 -0.01607916
 -0.00825753  0.0161486   0.00456434 -0.02252487  0.00809734 -0.01486915
  0.01647855 -0.01899635  0.01852438  0.0162271  -0.00641737 -0.001639
  0.00873796 -0.01870004  0.0003627   0.02152335 -0.01615722  0.02816786
  0.02397926 -0.01926656 -0.00899681 -0.00235749  0.01495119 -0.01552288
 -0.0087144   0.00387647 -0.01002611 -0.01842861  0.01803071 -0.01416502
 -0.01961288 -0.00420885  0.00577318  0.00478817  0.00095534  0.00119126
  0.00467843 -0.01717378  0.0148522   0.00493636 -0.00917604 -0.00226951
 -0.02120188 -0.02415801  0.00425656  0.00323903 -0.02093567  0.00554661
  0.00332493  0.01358334 -0.01614541 -0.01310606 -0.01878552 -0.00163744
  0.00809043  0.01989926  0.01453025  0.01423228  0.02194796  0.00690585
  0.01209101  0.00196385 -0.01724397  0.00313043  0.00542764  0.01972832
  0.02494494 -0.00748384 -0.01397292  0.00665172 -0.021138   -0.00981441
  0.00445782 -0.01506578 -0.02958833 -0.00910902 -0.00397456 -0.01736693
 -0.01463577 -0.01332728  0.0096081  -0.01131553 -0.00171423  0.01925967
 -0.0110014   0.01137653 -0.0192437   0.01368047  0.01896165  0.0039626
 -0.00821518  0.0068673   0.00062643  0.02415178 -0.00826786  0.00721663
 -0.02457623 -0.0135431   0.00839269  0.01161775 -0.01147295 -0.02880103
  0.00538899  0.02613547  0.01571438  0.0276736   0.01331373  0.01294814
 -0.02528156 -0.00627851 -0.01836     0.0212787  -0.01969449 -0.01298797
  0.01610817 -0.01417144  0.00555324 -0.02289637 -0.0179176   0.00457194
  0.01308534 -0.01667371 -0.00150115  0.00607032  0.001728   -0.00799905
  0.0014368  -0.00620409  0.00967765  0.01754452 -0.00547964 -0.01059689
 -0.00081083 -0.02081275 -0.02234653  0.00890428 -0.02491975  0.02270587
 -0.01282843  0.03446162 -0.01601891  0.01714523  0.00097902 -0.01297411
  0.01563068  0.01895928 -0.00611914 -0.00634436  0.00186019  0.02198178
  0.01015748  0.00965332  0.00752751 -0.01447994  0.01676632 -0.00556731
 -0.02090378  0.00946321  0.01523881 -0.0002124   0.01303394  0.01683806
  0.00111712  0.0104748  -0.01325431 -0.00333257 -0.02068371 -0.01701263
 -0.01904849  0.00443246  0.02562406  0.01101874 -0.02390852 -0.00917918
  0.00077605  0.00984909 -0.02037882  0.00905757 ]
[  4.48830053e-03  1.88609995e-02 -1.37847280e-02 -1.99052412e-02
 -4.77340119e-03 -1.08343093e-02 -2.03295872e-02 -9.46037192e-03
  1.72681995e-02 -1.37425754e-02  1.35566480e-02 -6.81218831e-03
 -2.39665713e-03 -5.48538612e-03  1.29039781e-02 -2.00398415e-02
  4.41101985e-03 -7.04691652e-03  6.36080187e-03  1.01910799e-03
  6.18875056e-05 -6.54801028e-03  1.00889066e-02 -8.23628344e-03
  1.21125788e-03 -1.12256641e-03  3.14458180e-03 -2.22599786e-02
 -1.95977315e-02 -8.76798388e-03  2.12982949e-02  1.66801196e-02
 -1.65164303e-02 -1.47556486e-02 -2.24969275e-02  8.56818259e-03
 -1.40622891e-02 -3.38813686e-03  1.24717206e-02 -2.93096993e-03
 -1.32720335e-03  1.17382417e-02 -1.90210156e-02 -1.53524913e-02
  4.14447626e-03  7.33590394e-04 -4.40195523e-04  1.51112489e-03
  2.05147546e-02  1.50009217e-02 -1.61822867e-02  1.58371646e-02
  1.89118963e-02  5.77925378e-03  1.58717949e-02 -1.21166371e-02
 -2.16100849e-02  1.07651092e-02  1.03527149e-02 -8.79133865e-03
  1.58188045e-02  5.44138439e-03 -5.56798978e-03  1.38982367e-02
  1.38323596e-02  6.14605751e-03 -1.38893286e-02  5.69650019e-03
 -1.37428688e-02 -1.34996651e-02  1.62371376e-03 -7.46994233e-03
 -8.70892871e-03  1.56097747e-02 -3.47348861e-03 -1.12882210e-02
  6.78590615e-04  2.27093622e-02  2.26136148e-02  1.50502212e-02
 -1.86688807e-02 -1.33236879e-02  2.88342009e-03 -1.68996155e-02
  8.64544045e-03 -8.40022508e-03 -1.38153397e-02 -1.76396556e-02
  1.19669624e-02  2.06836183e-02  6.24048349e-04  2.19195094e-02
 -5.75442752e-03 -1.45100765e-02 -8.42285715e-03 -8.10176879e-03
  6.48697698e-03 -1.59805939e-02 -5.54872258e-03 -2.09097601e-02
 -2.25936132e-03  1.54027762e-02  6.61865389e-03 -2.00375225e-02
 -1.89758595e-02  6.82049105e-03 -1.59667116e-02  5.88330394e-03
  1.40450364e-02 -1.10611534e-02 -7.20408559e-03 -9.88360681e-03
  2.18643714e-02  1.00812095e-03  9.46957897e-03 -2.12622788e-02
 -1.63629334e-02  1.09470217e-02  5.40669833e-04 -2.14503035e-02
 -9.50430520e-03  2.15981752e-02 -9.38490313e-03 -1.81662198e-02
  1.77890696e-02  1.48727484e-02  1.87198054e-02 -1.10466620e-02
  1.48530526e-03  5.96201397e-04 -1.48609607e-02  2.26866733e-02
 -1.12418672e-02  1.45823713e-02 -2.04334711e-03 -2.24240613e-03
 -2.17088684e-02  7.64041266e-04 -1.81873273e-02  1.15334745e-02
  9.86073166e-04 -1.41249299e-02 -2.56447680e-03 -2.55859410e-03
  6.00061892e-03  2.08946597e-02 -1.98369613e-03  6.78922050e-03
 -5.45297936e-03  1.89605204e-03 -9.43063013e-03 -9.14731529e-03
  1.86934825e-02  1.90738682e-02 -1.19276466e-02 -1.34404646e-02
 -2.50530429e-03  1.43630384e-02  3.14842514e-03 -1.07122352e-02
  4.21464676e-03 -1.45085752e-02 -4.44395561e-03  1.78459883e-02
  2.23575830e-02  9.01575573e-03  1.69063378e-02 -9.04647075e-03
 -1.70153882e-02  2.19070930e-02  1.61105078e-02 -8.95943772e-03
  1.09745713e-04  7.93508533e-03 -6.22077473e-03  1.15727475e-02
 -1.08456127e-02 -2.03794558e-02 -6.19225670e-03  2.16751117e-02
  9.02657583e-03  1.86537132e-02 -1.95832662e-02  1.35936541e-02
 -8.99099093e-03  4.50629322e-03 -8.33885837e-03 -1.06105153e-02
 -3.93493753e-03 -1.17543712e-02 -1.82821508e-02  6.92188647e-03
 -3.25067155e-03  6.51164853e-04  1.74817163e-02  3.71412258e-03
  8.93275347e-03 -1.34388832e-02  1.70594249e-02 -1.59479082e-02
 -2.28521246e-02  1.19096553e-02  1.00834975e-02  1.11206258e-02
  1.74877904e-02  1.90861057e-02  1.68075245e-02  1.67601500e-02
 -5.47165750e-03  1.52582051e-02  1.72970425e-02  8.43796879e-03
 -9.01200715e-03  1.77901555e-02 -1.47497440e-02  9.64264106e-03
  5.37907984e-03  2.19656434e-02  2.26286035e-02  2.01849956e-02
  2.19854545e-02 -1.59737673e-02 -3.54251312e-03 -7.21502956e-03
 -2.10657306e-02 -1.88731006e-03  6.90890336e-03 -1.05143096e-02
  5.04773716e-03  7.52092979e-04 -8.37393105e-03 -2.10424103e-02
 -1.03041269e-02  8.95333290e-03 -3.80279450e-03 -8.90114903e-03
  5.99060627e-03 -5.09740727e-04  3.36183514e-03 -1.95536241e-02
 -9.81993973e-03  1.38372630e-02  2.11548209e-02 -9.24415770e-04
 -8.68748594e-03 -3.12845083e-03  1.68260355e-02  7.50330230e-03
  4.60670004e-03 -1.64696928e-02 ]
[  0.03305087  0.03900367 -0.0080008  -0.08696204 -0.02133114 -0.16336946
  0.00470798  0.02319625 -0.00347579 -0.04210317 -0.06559766  0.0428082
  0.01687542  0.05032657  0.01425126  0.00715237  0.00506741  0.03892211
  0.02983838  0.04996268  0.10101146  0.05737581 -0.09632125 -0.07950853
 -0.06942085  0.04989682 -0.01768996 -0.07218817 -0.01190125 -0.01400139
  0.03258626  0.08226921 -0.07630622 -0.04778799 -0.08212767 -0.01530093
 -0.00895739  0.07601257  0.03907957  0.0100749   0.04963324  0.01075485
 -0.0423946   0.00476131 -0.10835066 -0.01023607 -0.03128736 -0.06824701
  0.0209933   0.01844338  0.00371165  0.04362991 -0.04190941 -0.01107964
 -0.02362185  0.04245749 -0.04164701 -0.03827708 -0.04582762  0.00777913
  0.00289461  0.07302729 -0.00457809 -0.00919338 -0.05538293  0.04994769
 -0.0142145  -0.0991889  -0.0681782   0.00503964 -0.02181179  0.03995599
  0.00202041  0.04592375  0.06309496  0.03117513 -0.02681775  0.03881601
 -0.10554749 -0.06910103 -0.04623178 -0.02937362 -0.05459463 -0.12708631
  0.05687956 -0.00518924 -0.00198199 -0.11319288 -0.0408844  -0.04406048
  0.00181775  0.05192792  0.00729651  0.00826647 -0.04658068 -0.07998251
  0.02237316  0.06371853 -0.00842331 -0.03272452 -0.09022222 -0.02589551
 -0.08444772  0.01336179 -0.02848315  0.00049151  0.06239636 -0.00756326
  0.04366998  0.01155416 -0.01999347  0.0027971  -0.02473604 -0.04851091
 -0.03431663 -0.0415895   0.02179072 -0.02843642  0.02884789 -0.00687407
  0.04319223 -0.04847269 -0.00196439 -0.10856049 -0.02143201 -0.00426371
 -0.02374334 -0.05705166 -0.02878835 -0.06664941  0.01086482 -0.00195561
  0.04362905 -0.00107558  0.01452821 -0.00566216  0.02386022 -0.05732775
 -0.10162845  0.08958702  0.07840678  0.03676343 -0.06592686  0.07995224
  0.00446522  0.03149924 -0.06645253  0.01010629 -0.03015804  0.04886482
  0.03087566  0.00252274 -0.09048247 -0.03090406  0.04553668 -0.09242138
 -0.02010607 -0.00909533  0.01786058  0.06666273 -0.09971836 -0.03384488
  0.01132489  0.05931463 -0.07381792 -0.04572259  0.12977156  0.01774628
  0.04725188 -0.0632401   0.04051174 -0.09101315 -0.03232209 -0.02416742
 -0.07710724 -0.04719923 -0.04156774 -0.10237238 -0.00023157 -0.00509755
  0.00513987  0.04487906 -0.05133778  0.05902953 -0.00792074 -0.04118538
 -0.06509239  0.01679289 -0.03896848 -0.01170959  0.11609031 -0.03689482
  0.02229872  0.06090441  0.01867158  0.00897984  0.06034362  0.03462844
 -0.05895054  0.02224853  0.05972535 -0.06817434 -0.00553446 -0.05899715
 -0.02072735 -0.0313759   0.01029565  0.03436384 -0.02743083 -0.08008301
 -0.03169133 -0.04947315 -0.10424115  0.06396207 -0.06065004  0.07060165
 -0.02162271 -0.04862311  0.03718947 -0.02228691 -0.0126303   0.03431009
 -0.00519136 -0.03495917 -0.02518283  0.04270802 -0.01769422  0.03956945
 -0.02966633  0.00899289 -0.05519226 -0.05445848  0.0347167  -0.00983373
  0.00565657  0.01757398 -0.00637273 -0.03999942  0.00728952 -0.00859199
 -0.03191606 -0.05544956 -0.04940671 -0.03315344 -0.02077779 -0.04720352
 -0.01047626  0.01934838 -0.02045899 -0.00950953 ]
[ -7.77074471e-02 -1.08105786e-01 -9.55902413e-02 -9.16581228e-03
  5.63120954e-02  2.43151635e-02 -7.48519376e-02 -2.72753332e-02
 -5.42197339e-02 -1.46398187e-01  6.11032955e-02 -4.49939109e-02
  2.29061134e-02 -2.87246183e-02  7.28809088e-02  7.31353313e-02
 -3.39922681e-02 -1.00823157e-02 -8.99754092e-02  2.19286531e-02
  3.11520556e-03  1.13714859e-02  6.03201315e-02 -1.35263195e-02
  6.77596927e-02 -4.01658267e-02 -2.47546658e-02 -2.02237871e-02
  1.60691999e-02  3.79325449e-02 -4.01116759e-02 -2.97404686e-03
  1.59544479e-02 -3.07176001e-02 -8.09684396e-02 -2.33128332e-02
 -1.99562404e-03 -1.39061883e-02 -3.75554189e-02  3.86374854e-02
 -2.82221362e-02 -1.54951932e-02  9.60282981e-03  1.14796357e-02
 -1.44766094e-02 -6.31085113e-02 -4.10914840e-03 -1.88838691e-03
  2.43370999e-02  1.30380951e-02  6.88337758e-02 -4.99914624e-02
 -8.92557204e-03  5.27862040e-03  2.62537636e-02  1.78457238e-02
  7.49554113e-03 -1.86569095e-02 -2.13836990e-02  9.60508268e-03
  4.70312797e-02  2.77383607e-02  8.03662371e-03  2.63382476e-02
  1.04893306e-02 -4.71213497e-02 -8.29133019e-02 -4.23457250e-02
 -1.39077092e-02 -2.85143089e-02 -6.79408610e-02  4.11969423e-02
  6.83477670e-02  1.02258690e-01  9.91613939e-02 -6.97314888e-02
  5.72546907e-02 -1.31727844e-01 -3.25478800e-02  2.91178245e-02
  3.17102410e-02 -6.92902924e-03  2.70035490e-03  2.16394216e-02
 -4.90568765e-03 -8.22550803e-02 -2.88062468e-02 -3.07936985e-02
  4.38151993e-02 -2.88920309e-02  3.68534327e-02 -3.64247225e-02
 -1.46692544e-02 -2.73503121e-02  7.95105472e-02  4.63479832e-02
 -9.23800748e-03 -1.29838241e-02  2.43822336e-02 -5.43861743e-03
  9.06335562e-02 -2.14341208e-02  1.29509270e-01 -5.57615310e-02
 -2.91864797e-02 -2.07612980e-02 -4.12074700e-02  2.27329116e-02
 -1.32681234e-02 -3.71793397e-02 -1.11909956e-02 -4.76035364e-02
  8.97563063e-03 -4.89294156e-03  2.89438050e-02  7.62915611e-02
 -2.53015719e-02 -1.44988112e-02  1.58609804e-02 -5.38266031e-03
 -1.40571492e-02 -8.21268484e-02  8.23477097e-03  2.79959273e-02
  4.04228549e-03 -1.73548143e-02 -2.48032454e-02  5.32020889e-02
 -3.84649821e-02 -1.12873185e-02  1.47588635e-02  2.28573885e-02
 -4.58744774e-03 -3.23993191e-02 -1.07109845e-01 -6.98289368e-03
  4.20874655e-02  6.65911064e-02 -5.22371940e-02 -6.96714222e-02
 -9.40047577e-02  3.42762424e-03  5.11876727e-03  9.10990965e-03
 -2.17270013e-02  8.15361831e-03  8.55916962e-02 -4.65279333e-02
 -4.35284786e-02 -7.88275078e-02 -6.63111359e-02 -1.47920456e-02
  2.56673899e-02 -7.80645816e-04 -8.81848484e-03  1.93665177e-02
 -4.97005938e-04  8.22716684e-04  1.54772783e-02  5.70288021e-03
  3.46090458e-02 -5.87991998e-02 -7.21758232e-02  1.43166222e-02
  1.76384021e-02 -1.00051705e-02 -4.75090332e-02 -1.05515204e-01
  4.78730723e-02  8.97710212e-03  8.73769261e-03  1.73598900e-02
 -3.43509205e-02 -2.25255564e-02  2.86979396e-02 -6.29614294e-02
 -3.79047953e-02  4.33899648e-03  3.00077396e-03 -9.05832462e-03
 -6.04334101e-03 -5.82755879e-02  5.13666011e-02 -3.25022452e-02
  1.44205885e-02  3.00152507e-02  8.18050355e-02 -2.12033018e-02
 -5.51621430e-02  1.04350829e-02 -1.50456980e-01 -3.56293246e-02
 -9.89227276e-03 -4.96950373e-02 -4.31261882e-02  6.86886385e-02
 -1.00512253e-02 -3.78919430e-02  3.01783495e-02 -1.21201752e-02
 -5.75380065e-02  2.91811563e-02 -2.06662957e-02  4.14082110e-02
  4.91355844e-02  8.37468728e-03  3.57424113e-04  4.95814942e-02
 -8.35174695e-02 -4.58539616e-05  3.43189426e-02  7.47255832e-02
  5.10937674e-03 -4.01904471e-02 -2.93388460e-02 -6.88769296e-02
 -1.51384976e-02  3.57739553e-02 -3.18123624e-02  7.96375945e-02
  1.08758257e-04 -7.50433207e-02  1.44404219e-02  6.77727163e-02
 -7.60211721e-02 -4.61735986e-02 -1.42148472e-02  1.56127708e-02
 -1.84413679e-02 -3.50940712e-02  8.34366605e-02 -8.22758395e-03
 -3.86196673e-02 -8.23357850e-02 -8.85720327e-02 -8.80974233e-02
 -7.34902248e-02 -6.48462176e-02  2.66043786e-02 -5.73522188e-02
 -7.19557554e-02 -2.99516562e-02  2.15987172e-02 -8.19489658e-02
  9.76153091e-03 -7.80040920e-02 -6.75111040e-02 -6.93859011e-02
 -1.73869170e-02 -7.86389690e-03 ]
[  0.01263686  0.0112513   0.08069617 -0.02392757 -0.0158771  -0.00543277
 -0.03087846 -0.06470476 -0.00963545  0.00211107 -0.03309221  0.01656205
 -0.00920565 -0.00072299 -0.07551974 -0.06129706 -0.02791038 -0.09520198
  0.0375797   0.01562345 -0.02628675 -0.07615067  0.00153666  0.0552275
  0.08577682 -0.02618598 -0.04934157 -0.02947129 -0.0089711  -0.02470739
 -0.0741347  -0.03162595 -0.05274737 -0.00100732  0.05350497 -0.00299304
 -0.01680085  0.03223876 -0.04140621  0.00635986  0.02914721 -0.01902044
  0.0350819  -0.0834315   0.06214032 -0.02097492 -0.00901941  0.04453491
  0.00884368 -0.01290798 -0.01601417 -0.08683209 -0.00576266 -0.02560589
 -0.10320036 -0.01611988 -0.01825949 -0.05464373 -0.02857114 -0.00998364
 -0.09057331 -0.01522775 -0.0784884   0.00287088  0.08909795 -0.00176639
  0.04319682  0.00026123 -0.04337475  0.02567317 -0.01270194 -0.08498529
  0.04378148 -0.04331711 -0.05504673 -0.09469848 -0.0910587   0.12808678
  0.0439808   0.0547295  -0.0485065  -0.01941836 -0.01815443  0.05316325
 -0.00209863  0.05061434 -0.0004753   0.00106812 -0.02799903  0.01812158
 -0.03791672 -0.09402984 -0.02192467  0.04143126 -0.07788697 -0.02509612
 -0.00036443 -0.0595135   0.02667665  0.0384248   0.05520118  0.04781118
 -0.04944473 -0.00532999  0.00680225 -0.00799265 -0.0007106  -0.04385225
 -0.00444261  0.06398301 -0.03194017  0.02563603 -0.00546589 -0.04593208
  0.05501363  0.01170421 -0.02134203  0.16030227 -0.00328871  0.0845958
 -0.08956768  0.06537422  0.0002231  -0.04171642 -0.04269534 -0.08748306
 -0.09880164  0.02156855  0.08696482  0.00296591 -0.00173869 -0.00467331
 -0.0328906  -0.00102639 -0.06416315 -0.05298839 -0.05131478 -0.04348153
 -0.00955713 -0.04303149 -0.03521943 -0.06337266  0.05391899 -0.15553313
  0.03894276 -0.01487791 -0.05146493 -0.04070557 -0.04222509 -0.00301553
 -0.09302651 -0.02320318 -0.04970728  0.04253754 -0.07183019  0.01392704
  0.00273839  0.00990656  0.01603562  0.00846264  0.03686564 -0.03551158
  0.07887213 -0.12511887 -0.03423311 -0.02310068 -0.05102704 -0.03857472
 -0.00153739  0.01787981 -0.01144663  0.02233583  0.03016578 -0.06139209
  0.04769744  0.03859624 -0.01830862 -0.02030029 -0.13527088  0.01416586
  0.06277958 -0.04122641  0.04331597 -0.05820041 -0.0385912  -0.02357993
  0.04118512 -0.05280701 -0.03927971 -0.03207058  0.01927885  0.07542492
  0.02107538 -0.03639629 -0.06139639 -0.09772687 -0.02455053 -0.03005418
  0.01307315  0.01195022 -0.01656549  0.03819715  0.016525    0.06557791
  0.00308961 -0.01871692 -0.07281204 -0.00985023  0.03056064  0.11769532
 -0.00988685 -0.12768015  0.06199992 -0.0583359   0.0402027  -0.02291957
  0.00243155 -0.05719252  0.04856693 -0.01842523  0.00148521  0.01683174
  0.01884816  0.00744447  0.04808953 -0.02127094 -0.0480807  -0.07368834
 -0.00943045 -0.08478226 -0.04315751 -0.01644576  0.06753474 -0.01441208
  0.02566496  0.01226068  0.0327244   0.04056292 -0.03859018  0.06060179
  0.05029251  0.00737864  0.029881    0.06854522 -0.06569533  0.01552743
  0.0206652   0.00166284 -0.02831115 -0.00857066 ]
[ -0.05913296 -0.01744077  0.01646772  0.09901608 -0.08543564  0.04866176
  0.11290725 -0.03093556  0.02597515  0.07723787 -0.03575444 -0.060048
 -0.07220595 -0.08061032 -0.0341976  -0.05258555  0.0158701   0.03198655
  0.03486656 -0.04660707 -0.09253213 -0.04004497  0.03342012  0.01038007
 -0.10274301 -0.02096156  0.03611101  0.07943591 -0.02129299 -0.08542374
  0.00988823 -0.11033513  0.04682791  0.01624292  0.05078052 -0.04090466
  0.03187683 -0.08280938 -0.08141392 -0.03900791 -0.10308488 -0.05603057
 -0.0116559  -0.03972266 -0.01280528  0.03616397  0.1152095  -0.04685883
 -0.04171451 -0.00740465 -0.06588022  0.01149184  0.00626025 -0.08523875
  0.07267185 -0.05305805 -0.02781215  0.05634358  0.02932465 -0.02000079
 -0.00270092 -0.09626336 -0.04502616 -0.02613771 -0.06097233 -0.03818721
 -0.0268637   0.03804103  0.0964727  -0.07830881 -0.00622636 -0.07917301
 -0.06300686 -0.06451521 -0.06697287  0.08688079 -0.00903194 -0.03220966
  0.06559698 -0.02631035  0.02640251 -0.03461316 -0.01432176  0.02198348
 -0.06713349 -0.0038892  -0.04177105  0.09517579 -0.03569251 -0.03518481
 -0.0425261   0.02496662  0.03124198  0.04792774 -0.01724796 -0.04603593
 -0.0491445  -0.02616004 -0.03212146  0.07900684 -0.02975108 -0.03969499
 -0.03508424 -0.00441475  0.0024065  -0.06997745 -0.0863319   0.02875642
 -0.03442219 -0.08574285  0.04645981  0.01966356  0.00050521  0.03704533
  0.00577154 -0.13668346  0.01266984 -0.11642426 -0.0192146  -0.14894953
  0.02982115 -0.00637581 -0.01534486  0.05101924  0.0065546  -0.02818676
  0.08082306 -0.00021581 -0.05508224  0.00385762 -0.03747718 -0.0048631
 -0.05632924 -0.01289976  0.11216561  0.05594061 -0.03706651 -0.00496686
  0.05326018  0.02248948  0.02923057  0.03662945 -0.03401106  0.0162537
 -0.10917144 -0.00022582 -0.00845651  0.03399576  0.03232286 -0.03157366
  0.04524379  0.01679257  0.07656303  0.03370658  0.05625821 -0.0496331
  0.01837384  0.04218825 -0.00837099 -0.09881205 -0.05448972 -0.01175651
 -0.03656308  0.02289824 -0.00177786 -0.01949162 -0.03493956  0.05071577
 -0.09855113 -0.00826335 -0.00426745  0.007801   -0.00078819  0.0904878
 -0.04757335  0.0444224  -0.0747136   0.1293661   0.0976562  -0.05545731
 -0.03339102 -0.00272796 -0.07821959  0.02110812  0.0339917   0.02385951
 -0.05738558  0.01544474  0.09411559  0.00573568 -0.01209308  0.01804258
 -0.02824719 -0.00557414  0.01991101  0.02472506 -0.02440682  0.01871261
 -0.09681045 -0.07371826  0.0097397  -0.04721312  0.0170361  -0.05668854
 -0.08765292  0.02901169  0.02197662 -0.06155704  0.06306196 -0.14106521
 -0.02061635  0.07458498  0.00121049 -0.02418567  0.04331976 -0.07071713
  0.03554302  0.01834255 -0.08102505 -0.07584198  0.00942464  0.04078035
 -0.02143636 -0.05692034  0.01296735 -0.02340647  0.01746876 -0.05066769
 -0.01317983  0.03989627 -0.03864186  0.01594791 -0.03294452  0.05564399
  0.00856044  0.03149203  0.02061819 -0.03133321 -0.07918502  0.01855863
  0.01411226 -0.03604741  0.02631237  0.02103998 -0.02563328  0.08084492
  0.0029652   0.0444767   0.02150291 -0.02759681 ]
[  5.47733856e-03 -6.61956053e-03 -6.91649504e-03 -1.26044117e-02
 -6.32631220e-03  4.32978757e-02  1.13620399e-03  2.33993456e-02
 -3.44928578e-02  1.27247851e-02 -6.33300006e-05  8.46587494e-03
 -1.93039645e-02 -3.90194403e-03 -1.62579324e-02  1.44306617e-02
  6.64890232e-03  2.09349655e-02  5.88158844e-03 -7.77667202e-03
  5.49184950e-03  5.43569634e-03 -2.03508418e-02  6.45689201e-03
  3.64145939e-03 -7.87761703e-04  1.71774048e-02  4.42101015e-03
  4.50363150e-03  1.17627392e-02  8.68333410e-03  2.35061031e-02
 -8.59070476e-03  2.21421309e-02 -6.00249507e-03 -1.15542617e-02
  5.07836239e-06 -1.12250529e-03 -1.00275651e-02 -2.65787132e-02
 -1.28761688e-02 -2.02631224e-02 -1.95290912e-02  2.96144374e-02
 -1.41569264e-02  1.01496922e-02 -1.02609042e-02  1.31859689e-03
  3.73814674e-03  1.35428393e-02  1.06953336e-02  1.47917755e-02
 -6.85837446e-03 -5.90064679e-04 -4.33114730e-03  2.34119240e-02
  6.64138561e-03  3.88747873e-03  7.75548571e-04 -2.83066947e-02
 -1.13487281e-02  1.63868964e-02 -4.12252359e-03 -1.19321998e-02
 -1.03217894e-02  2.58098040e-02 -1.51520185e-02  2.13216040e-02
 -1.77388899e-02  9.23792890e-04 -8.87731276e-03  2.06933115e-02
 -2.33515371e-02  2.07522279e-03 -1.88034251e-02 -1.87966246e-02
 -7.35577755e-03  2.25554276e-02  3.36145088e-02  7.96227809e-03
  2.00368203e-02 -1.10775611e-04  1.51998783e-02 -8.64383020e-03
 -2.15431433e-02 -3.43331471e-02  3.29617672e-02  5.18347137e-03
 -2.20724870e-03  2.64016688e-02 -1.34256575e-02 -5.17075062e-02
 -1.74475443e-02 -3.67162861e-02  3.89648275e-03  4.53457236e-02
  6.73736737e-04  3.10671050e-03 -2.19484400e-02 -1.17565424e-03
  1.83287505e-02 -1.23649901e-02 -6.32948382e-03  8.50315578e-03
  5.32802679e-02  2.07782499e-02  5.42069785e-03 -1.17210709e-02
 -1.95000153e-02 -7.89779052e-03 -2.05882378e-02  3.28207132e-03
 -1.30133592e-02 -2.72133686e-02 -1.84659809e-02 -9.15001705e-03
 -2.52376357e-03 -2.04241481e-02  1.47290500e-02  1.39237139e-02
  3.62597802e-03  4.28050477e-03 -1.95539761e-02 -2.10369695e-02
  1.55661721e-02 -1.26083326e-02 -7.25910254e-03 -3.90182063e-03
 -1.51645479e-04  3.03248763e-02  3.13897431e-02  7.44012790e-03
  1.55332172e-02 -1.91951860e-02 -2.56890361e-03  1.54238623e-02
  5.72582893e-03 -3.40187214e-02  4.85907197e-02  3.20659461e-03
  1.03786308e-02 -2.54385862e-02  8.54739640e-03 -1.64338294e-02
 -1.39183132e-02  2.94762626e-02 -4.88387421e-03 -3.72978812e-03
  4.24210057e-02  4.13335785e-02  2.75205169e-02 -2.26738434e-02
  1.89059675e-02 -1.49464970e-02 -2.22614072e-02 -1.24224145e-02
  4.41619009e-03  1.03083020e-02  1.45302834e-02  1.30178239e-02
  3.80233489e-02  2.92123239e-02  1.11443242e-02 -1.19706960e-02
  3.23347859e-02  3.61495055e-02  3.99019686e-04  3.45821567e-02
 -4.83575836e-02  8.37505143e-03  2.68357228e-02  1.01881931e-02
 -4.04027551e-02  1.32598002e-02 -1.50388470e-02  2.00935248e-02
 -2.57484266e-03  1.58457533e-02  1.01649128e-02 -1.75553150e-02
 -2.12665536e-02 -5.25407679e-03 -9.40714870e-03 -3.83869861e-03
 -8.52034369e-04  9.98180546e-03  1.28869060e-02 -1.48681516e-03
 -1.08680734e-02 -4.65586670e-02 -5.30581083e-03  2.15966403e-02
 -2.22716182e-02 -1.06385965e-02 -1.34152928e-02 -1.19235506e-03
  9.61693469e-03  2.21362505e-02  3.91117446e-02 -1.89630166e-02
  2.01829299e-02  3.81071493e-02 -2.06836741e-02 -4.87442128e-04
  1.49877998e-03  6.12528669e-03 -1.31782959e-03  8.03324766e-03
 -2.70767994e-02  4.07096669e-02  2.02043019e-02  4.55733207e-05
  1.15987230e-02  9.91667528e-03  1.57784810e-03 -7.16173032e-04
 -8.21218267e-03  1.96333732e-02 -1.74481012e-02  1.05054667e-02
 -3.96498367e-02 -1.20343165e-02 -1.34310396e-02  5.60620567e-03
 -4.35002521e-02  8.84259492e-03 -1.01117557e-02  3.23555665e-03
 -1.46255872e-04 -1.79626103e-02 -2.01853290e-02 -1.70735084e-02
  2.09536497e-02 -4.27559912e-02  1.81309786e-02  2.93229707e-02
  2.20738146e-02  2.06523724e-02 -5.74353966e-04 -8.49610567e-03
  3.88008840e-02  2.17290875e-02  4.41484107e-03 -1.39351962e-02
 -9.01670661e-03  1.80506893e-02 -3.59263900e-03 -1.47793824e-02
 -1.61608942e-02  3.20501402e-02 ]
[  6.61425933e-04  2.12937966e-02 -1.69334654e-02  1.28344735e-02
  4.44089202e-03  9.12766438e-03  5.36546856e-03 -6.34519709e-03
  9.28506430e-04  2.27706861e-02 -1.95738785e-02 -6.61318423e-03
 -1.17878420e-02 -2.14836970e-02  6.15562452e-03  1.19512901e-02
  2.17253957e-02 -6.15947368e-03  1.82085782e-02 -1.05690844e-02
  1.30742723e-02  1.32457288e-02 -7.82888569e-03 -7.75944162e-03
 -1.78287104e-02  2.23472547e-02  1.84780490e-02 -2.11649528e-03
 -2.11890377e-02 -1.26508921e-02  8.74293689e-03  1.52031938e-02
  1.43157030e-02 -9.80205648e-03  2.97644269e-03 -1.63599476e-02
  3.71539587e-04  2.14541284e-03 -2.16324180e-02 -7.74030061e-03
  3.25225457e-03 -4.60539898e-03 -1.11064650e-02  9.96121764e-03
  1.83071122e-02  2.06634682e-02 -2.02216431e-02 -9.72023699e-03
  5.68266539e-03  1.98652185e-02 -5.70796384e-03 -1.38001330e-02
 -5.15160151e-03 -2.76678219e-03  2.92730634e-03  2.01383643e-02
 -1.02813775e-03 -9.31237731e-03 -2.09751129e-02 -5.21704648e-03
 -8.37778673e-04  1.76497679e-02  1.07366759e-02  4.93702246e-04
  1.58119332e-02  2.37509632e-03  3.92269203e-03  1.04565993e-02
 -1.22633381e-02 -1.87105089e-02 -1.94936395e-02  9.51918587e-03
 -2.17587575e-02 -3.27897468e-03 -4.79966775e-03 -3.06690112e-03
 -4.74370178e-03  1.23283418e-03 -1.57743078e-02  1.70940012e-02
  1.46825798e-02  7.28490017e-03 -1.85306128e-02  1.52162286e-02
  1.63857955e-02 -2.19148472e-02 -6.84424117e-03 -1.80342719e-02
  1.92718187e-04  1.77433901e-02 -1.36159090e-02  8.30761343e-03
  1.17990356e-02 -1.20783430e-02  3.69053683e-03  7.40987295e-03
 -1.88465603e-02  9.09648556e-03  3.87566118e-03 -1.60284787e-02
  1.10619059e-02 -8.87467247e-03  3.70255532e-03  1.01033952e-02
 -6.30609924e-03 -2.28142012e-02 -9.61015560e-03  1.85059309e-02
 -8.11649859e-03  1.56462993e-02  2.25316342e-02  4.25557420e-03
 -1.34223308e-02 -2.14012386e-03  1.52014913e-02  6.68744417e-03
  9.01540450e-04 -1.32098398e-03 -1.15675088e-02  8.91826022e-03
  1.65579896e-02  6.59631146e-03  1.84790343e-02  1.20243225e-02
  3.96174239e-03 -1.89474635e-02  9.07697529e-03 -2.14540642e-02
  9.54505149e-03  1.42322816e-02 -1.69234127e-02 -1.19275915e-04
 -1.14002889e-02  2.23571192e-02 -1.23317707e-02  5.95962582e-03
  1.93295870e-02  1.18139656e-02 -1.26908114e-03  1.32423704e-02
 -1.47517212e-02 -9.72465333e-03  2.23960113e-02 -1.96575709e-02
 -2.81389034e-03 -1.81713738e-02  1.21116033e-02 -1.42932553e-02
  9.48622543e-03 -2.17269138e-02 -1.78608056e-02 -1.82051305e-02
 -4.48885886e-03  7.14654475e-03  1.24622760e-02  1.57797039e-02
 -5.51313488e-03 -2.63952138e-03  7.66135752e-03 -7.35836220e-05
  1.44127216e-02  1.61419082e-02 -4.37125005e-03  3.44350492e-03
 -2.52178079e-03  3.45605868e-03  1.75352264e-02  2.88306316e-03
 -3.41659924e-03 -9.21008829e-03 -3.76049848e-03  8.64455383e-03
 -2.25229450e-02  2.02833153e-02  1.97782763e-03  1.68176834e-02
 -6.84638740e-03 -1.57524925e-02 -5.96941961e-03  1.29750324e-02
  9.46437847e-03 -1.63816400e-02 -3.33688408e-03  1.34495739e-02
 -2.04283670e-02 -1.66957602e-02 -1.29947113e-02  1.39130896e-03
  1.27455890e-02  1.51401935e-02  1.25931473e-02 -1.36853382e-02
  1.75655633e-02  1.30394669e-02 -1.63244251e-02 -1.28584718e-02
 -4.93952903e-05 -1.93436798e-02 -1.43922726e-02 -7.94121623e-03
 -6.32371102e-03  8.78961757e-03 -7.02149607e-03  4.71504219e-03
  8.97233747e-03  7.65918661e-03 -9.68850683e-03  8.64722207e-03
  4.91723325e-03  1.29596563e-02 -7.13332742e-03  1.67949442e-02
  1.47846369e-02  1.43144634e-02  2.11273395e-02 -3.42029938e-03
