layers 12
layer 0 Dense
228 250
[-0.05676176  0.09553789 -0.04831162 -0.01771621 -0.00197218 -0.01699481
 -0.013988   -0.04388612 -0.01836014 -0.03504236 -0.04184512 -0.0329119
  0.02757483 -0.02880144 -0.05166407 -0.03563991 -0.02385052 -0.09077775
 -0.05370278 -0.03038743 -0.04962999 -0.09139869  0.097225   -0.04277909
 -0.05343902 -0.01604795 -0.05294355 -0.01791397 -0.01889765 -0.07616936
 -0.05623707 -0.0453701  -0.01759748 -0.10744422  0.02118787  0.00058168
 -0.09164028 -0.04605143 -0.03906076 -0.00536032 -0.04068796 -0.07732234
 -0.04903985 -0.04277156  0.01270601 -0.05091942 -0.12159749 -0.07170387
  0.00969838 -0.0254676  -0.01314768 -0.00698367  0.02108474 -0.00708243
 -0.04530201 -0.02659154  0.08641724  0.00737573 -0.05423554 -0.11035401
 -0.0410893  -0.04129738  0.02995085 -0.01164072 -0.09926615 -0.06332468
 -0.00440864 -0.10463605  0.00867587  0.02153608 -0.03557872 -0.06023078
 -0.03271429 -0.07226925 -0.07611248  0.00404937 -0.01255615 -0.04008153
 -0.03837956 -0.06004624 -0.02414829 -0.02180722  0.0145972  -0.05437856
  0.01234965  0.0181059  -0.04449367 -0.05167186 -0.0282812   0.125064
 -0.05185928  0.02091313 -0.08483061  0.06327217  0.00275486 -0.07939868
  0.09069471 -0.06529938  0.03262387 -0.11231206  0.00391163  0.05228555
 -0.06856129  0.10273796 -0.07659492  0.04566846  0.02427584 -0.02823639
  0.02810516 -0.09509818 -0.07983235 -0.01281368 -0.06805009 -0.03147851
  0.01504024 -0.06907755  0.05168844  0.04007381  0.00155911 -0.07561979
 -0.02147063 -0.03911072 -0.05293027 -0.01725608 -0.02365532 -0.10129829
 -0.03279966 -0.03494252  0.03557552 -0.03635691 -0.01310161  0.0136984
 -0.09994251 -0.02213123 -0.06994664  0.0415988  -0.06878211 -0.01518031
 -0.04101429  0.00521258 -0.00110906  0.00832161 -0.08720056 -0.0579443
  0.01697321 -0.0461338  -0.05111501  0.04558028 -0.07996084 -0.06305841
  0.01372625 -0.007885   -0.1061383  -0.00308287 -0.03344424 -0.0115681
 -0.04291646 -0.04999052 -0.0047431  -0.1279702  -0.07539804  0.08512636
  0.0041612  -0.07872333 -0.03205457 -0.07936741  0.01888022 -0.01225936
 -0.00597025 -0.03953562 -0.05544835 -0.01376289  0.03103305 -0.02876737
 -0.11264301 -0.08836374 -0.09210728 -0.10898788 -0.06832916 -0.06081261
 -0.05807041  0.08298253 -0.0240572  -0.07220928 -0.02804621 -0.04463972
 -0.0021688  -0.08477961 -0.06403743  0.04245403 -0.03943092 -0.08241104
  0.00265315  0.06111785 -0.10716907 -0.08889202 -0.03114581 -0.02587023
 -0.00453489 -0.03513724  0.01304124 -0.01277868  0.05438309 -0.02673564
 -0.05022169 -0.00882359 -0.09557942 -0.03013548  0.05752198 -0.04732319
 -0.01539047 -0.05027964 -0.05317796  0.04128392 -0.08553587 -0.06518388
 -0.07254719  0.06795084 -0.09798144 -0.01454991  0.00193534 -0.01157807
 -0.02979554 -0.01839803  0.04045357  0.04126532 -0.05283128 -0.01746777
 -0.12648368 -0.0784323  -0.01972217 -0.04957065 -0.08959612  0.02143798
 -0.05896947 -0.09276842  0.03652792  0.07258184 -0.04335959 -0.05164644
 -0.10799152 -0.02271686 -0.03110537 -0.00200793 -0.04238585  0.02881529
 -0.06632815 -0.02860463 -0.08358267  0.04360075]
[ 0.00820384 -0.0130675   0.0191229  -0.02262154 -0.05463422 -0.00277738
 -0.00909711 -0.1254909  -0.06377171 -0.01644723 -0.05553551 -0.04276609
  0.02365126 -0.01859213 -0.05749659  0.00555665 -0.0566086  -0.03375568
  0.01610079 -0.01397086  0.00789826 -0.05666083 -0.011317   -0.01617217
 -0.04571918 -0.03980523 -0.02954555  0.007065   -0.02255782 -0.04010699
 -0.01743216 -0.05795913  0.00151102 -0.08540247 -0.02263505 -0.02783876
 -0.01509812  0.0265917  -0.02966904  0.02335958  0.00254079 -0.04805818
  0.00215206 -0.05733505 -0.0263756  -0.03582263 -0.04403839 -0.00724427
  0.02323779  0.00836828 -0.02664157 -0.00612263  0.03757029  0.02839147
 -0.04520639 -0.0214915  -0.02656749 -0.05373054 -0.00461028  0.00244154
 -0.02544324 -0.06384186 -0.00776512  0.01197779 -0.02757779 -0.04766672
  0.02567335 -0.05684177 -0.04406198 -0.03898922 -0.00609065  0.01641355
 -0.03023392 -0.04895073 -0.06247378 -0.00840843 -0.0108679  -0.04968443
 -0.03057202 -0.00332145 -0.03820186 -0.05398504 -0.00288416 -0.05222321
 -0.02360102 -0.01182538 -0.00576212  0.0150176   0.01015183 -0.02574089
 -0.01227426 -0.0092967  -0.04379194 -0.01286208 -0.03871461 -0.02342556
 -0.03170106 -0.00088825 -0.01224598  0.01125523 -0.0098648  -0.09818121
 -0.00672319 -0.04285413 -0.02678206 -0.02249521  0.01922098 -0.06366891
 -0.01995338  0.00866161  0.01535799  0.03666316 -0.02596648 -0.01321802
 -0.02603666 -0.05333241 -0.05041431  0.00912889 -0.01543688 -0.05018032
  0.01633977 -0.04711356 -0.10500132  0.02928317  0.02455265 -0.0834987
 -0.00889606 -0.03138426 -0.01412452 -0.03752554 -0.01222725 -0.03104814
 -0.00370729 -0.02214773 -0.03055044 -0.01265077 -0.05842103  0.01125112
 -0.02459541 -0.02773082  0.00460804 -0.00571752 -0.0173524  -0.02173375
 -0.04652095 -0.04958514 -0.03531723 -0.03615607 -0.05753722  0.00606235
 -0.00058185 -0.01206075 -0.00994873  0.02200113  0.02936152  0.00742029
 -0.03464514 -0.03053618 -0.0070701  -0.01534659  0.0149655  -0.07824428
 -0.00680557 -0.0605629   0.00068082 -0.08011238 -0.01686462  0.01449131
 -0.02553829  0.02855152 -0.0743038  -0.04672372  0.01721604  0.00294521
  0.01078576  0.00838595 -0.0811655  -0.06058373 -0.00858812  0.00249434
 -0.00146147 -0.00830478 -0.00213974 -0.06134686 -0.02298111 -0.00204934
 -0.01669615 -0.010753    0.01381646 -0.02666936 -0.04910735  0.03739887
 -0.01212393 -0.04416055 -0.02614855 -0.01428414 -0.00770039  0.00126592
 -0.0606037  -0.04696731 -0.02137737 -0.00944467 -0.06310768 -0.01162006
  0.00823188 -0.01457796 -0.07353599 -0.04920246 -0.00603168 -0.02826473
  0.02728293 -0.0370026  -0.01100192 -0.01322897 -0.00481686 -0.02696309
 -0.01502099 -0.0422343  -0.05996265 -0.01843616  0.01257249 -0.04672515
 -0.0262693  -0.02797778 -0.03824902 -0.00285505  0.01140831 -0.02242165
  0.03155829 -0.02880597 -0.01668382  0.00152506 -0.0377948   0.00886881
 -0.08028292 -0.07213271 -0.06943309 -0.01317758 -0.0032366  -0.04531989
  0.01246448  0.00946971 -0.05529521 -0.01400976 -0.04143285 -0.02732908
 -0.03245678 -0.05943003 -0.03398149 -0.02920284]
[-0.1335946   0.1886239  -0.12031092 -0.13484286 -0.04241886 -0.00510658
 -0.0184769  -0.0916658   0.01370107 -0.0426842  -0.13419037  0.0586396
 -0.02310869 -0.00629372 -0.13498792 -0.21481991 -0.04408269 -0.09267884
 -0.07135138 -0.03660692 -0.1271825  -0.13045903  0.12903056 -0.12701702
 -0.11796868  0.00392605 -0.21373054 -0.08761957 -0.00730587 -0.15930855
 -0.02596768 -0.03753408 -0.02765716 -0.2516997   0.12428752  0.03183635
 -0.21456316 -0.10735074 -0.06232614  0.04407328 -0.05078776 -0.06971555
  0.06429374 -0.2549684   0.04736691  0.00845174 -0.37852445 -0.27911445
 -0.04825933  0.01010233 -0.05230077 -0.00286769 -0.04587018 -0.13340423
 -0.13033734 -0.13124119  0.07452572  0.05331784 -0.06649533 -0.1714003
 -0.17790964 -0.10286321  0.09836926 -0.03272642 -0.13917537 -0.15082738
  0.06725132 -0.21725039  0.11111294  0.03137567 -0.03954003 -0.08772716
  0.00941271 -0.15813003 -0.14788362  0.04196168 -0.05952829 -0.08984557
 -0.11996952 -0.09052103 -0.03516406 -0.0384269   0.13340282 -0.1301793
  0.03082011  0.08630524 -0.11781254  0.01582976 -0.12784846  0.4333141
 -0.09758747  0.00597426 -0.02511994  0.08428583  0.03296766 -0.11549465
  0.26350898 -0.29219025  0.0830657  -0.1855757   0.00392405  0.07833555
 -0.12022684  0.26623565 -0.1161481   0.07969559  0.03335985  0.0283039
 -0.02839707 -0.18148102 -0.17104368  0.04767202 -0.19715117  0.02934066
  0.02810765 -0.06612754  0.19020247 -0.06879061  0.01096961 -0.17587185
 -0.06203875 -0.0421584  -0.15054505 -0.09121588  0.00295201 -0.07434524
  0.00436163 -0.12981187  0.0678369  -0.09874311 -0.0842168   0.07858474
 -0.24567734 -0.11366768 -0.1611256  -0.03538308 -0.11782638  0.06416216
 -0.09421042  0.02862879  0.05160027  0.00905818 -0.21696639 -0.19160819
 -0.04251686 -0.13283248 -0.02182404  0.16395654 -0.11174527 -0.15530503
  0.1117401  -0.04980405 -0.25676024 -0.0909819  -0.09786675  0.04576875
 -0.20111263 -0.03095528 -0.01599019 -0.18547145 -0.05887045  0.27303433
  0.04666858 -0.08530496  0.03373713 -0.0981746   0.01075498 -0.06340076
  0.00765445 -0.08389321 -0.2621843  -0.03200628  0.13827413 -0.06268824
 -0.22263542 -0.18142663  0.02397587 -0.19818994 -0.07444788 -0.17142051
 -0.136081    0.1472678  -0.00670466 -0.13255203  0.08698642 -0.15283985
 -0.09754158 -0.1471159  -0.02213781  0.15361364 -0.06556751 -0.20032813
  0.05660247  0.13438115 -0.16331571 -0.11947469 -0.03762603 -0.03167145
 -0.09474547 -0.06131691  0.01473514 -0.0674224   0.1608701   0.04916154
 -0.13059694 -0.02168611 -0.1677817  -0.03798334  0.17790958 -0.11608487
 -0.03664687 -0.11122359 -0.1648922   0.11389247 -0.21806848 -0.08098839
 -0.00632764  0.2593096  -0.12025833 -0.05828209 -0.00142966 -0.05472479
 -0.00060842  0.02510603  0.19972782  0.05291687 -0.09640802 -0.05542649
 -0.255118   -0.08536953 -0.00660475 -0.10047444 -0.08646118  0.06219616
 -0.10088399 -0.13072304  0.09565359  0.08248893 -0.00895684  0.00944998
 -0.18931979 -0.03741075 -0.13050963 -0.00424648 -0.00271364  0.12484573
 -0.16123055 -0.00846173 -0.16026211 -0.02627609]
[ 3.75367962e-02 -6.47542626e-02  1.06098622e-01 -2.39302814e-02
  2.78958511e-02 -1.80355888e-02 -1.44042820e-01  4.48770970e-02
  3.80716920e-02 -2.81700511e-02 -1.38326949e-02 -6.14848174e-02
 -1.70362704e-02 -3.36059295e-02  5.29552400e-02 -2.17467751e-02
 -1.75894443e-02  8.83226991e-02 -3.16580907e-02  7.06108636e-04
  6.48051798e-02  3.19377035e-02 -1.41442969e-01 -3.62805985e-02
  1.58843317e-03 -4.95914072e-02  4.66221310e-02  4.80851084e-02
 -3.78403105e-02 -5.73522970e-03  4.01292667e-02  1.29586924e-03
 -4.43151593e-02  6.41754642e-02  1.90339237e-02 -1.02362281e-03
  4.02869582e-02  2.27482393e-02  7.04367235e-02 -5.83140366e-02
  1.33848637e-01  5.38351797e-02 -4.87094820e-02  1.09004870e-01
 -6.33461699e-02  3.88243347e-02  9.12495553e-02  8.67030174e-02
 -5.95542751e-02 -3.10570616e-02 -2.93828920e-02 -4.01755720e-02
  2.35497579e-02  5.76705597e-02  8.93880576e-02 -2.30722651e-02
 -7.74635747e-02  3.91869843e-02 -2.12091152e-02  7.04401731e-02
  2.05400530e-02  3.86013687e-02 -4.90728160e-03  1.71965212e-02
  5.46438508e-02  3.55132632e-02  2.17269864e-02  5.35552502e-02
  8.96010641e-03  2.10933872e-02  2.29938254e-02 -4.36506839e-03
 -5.04547432e-02  2.30042990e-02  8.86366442e-02 -1.34795243e-02
 -4.40785475e-02  3.78237367e-02  2.31521465e-02 -4.96436656e-02
  2.27406248e-02 -1.62687637e-02  4.76955017e-03  4.30571921e-02
  1.34109277e-02  1.24320369e-02  4.29622605e-02 -2.48102192e-02
  1.79443434e-02 -2.89520323e-01 -3.29096196e-03 -3.58180217e-02
  2.27186549e-02 -4.18952405e-02 -6.64040521e-02  7.11508915e-02
 -1.02222599e-01  7.50830546e-02 -2.29025245e-01 -6.42032474e-02
 -5.77409118e-02  1.42158717e-02  3.20700109e-02 -3.58607978e-01
  6.63930699e-02 -1.72386959e-01 -5.65814190e-02 -3.24593723e-01
  1.23437932e-02  7.71642700e-02 -5.39799361e-03 -6.99498728e-02
  7.06372261e-02 -3.77789289e-02  9.26536042e-03 -2.26646364e-02
 -1.24193802e-01 -4.86198589e-02 -2.81129610e-02  8.82961154e-02
  1.02330156e-01 -8.69294256e-02  2.62097903e-02  5.40673211e-02
  8.10432993e-03  8.57737362e-02  1.03029767e-02 -3.40166874e-02
 -2.67338157e-02  5.30898124e-02 -6.10360950e-02 -7.59471357e-02
 -1.13840625e-02  2.07035840e-02  2.46828217e-02 -7.69972196e-03
  1.24690663e-02 -6.29565120e-03 -2.82112509e-02  2.24864800e-02
 -1.86107773e-02 -8.88687447e-02  5.99763654e-02  2.52396017e-02
 -2.20350437e-02  5.11983503e-03 -2.83443388e-02 -1.06661513e-01
  2.69011967e-02  2.11968366e-02 -7.77591914e-02  1.15811937e-02
 -2.73288563e-02 -6.54824078e-02  4.77817617e-02  5.61892614e-02
  5.86433299e-02 -6.46401122e-02 -2.68255174e-02  7.32826740e-02
 -6.11906275e-02 -4.01481599e-01  1.27666808e-05  6.82556108e-02
 -8.78829286e-02  6.87100366e-02 -2.76336614e-02  2.92761251e-02
 -9.07816440e-02  3.51438903e-05  1.95673574e-02  5.60690649e-02
 -5.79596274e-02  6.36963965e-03  6.50195181e-02  9.66197178e-02
  3.79594602e-02  3.17343213e-02  5.57257049e-02  4.56829816e-02
 -1.12876385e-01 -4.45180275e-02 -8.73735473e-02  1.45591684e-02
 -3.53578217e-02  1.00680599e-02 -8.03543925e-02 -1.84352562e-01
  3.82206626e-02  1.45580191e-02  4.27224627e-03  8.09640344e-03
 -4.39026207e-02 -3.17333676e-02  9.81248915e-02  3.67522277e-02
 -4.30554338e-03 -4.98176273e-03  2.25914009e-02  1.54798226e-02
 -1.71125624e-02  3.62999439e-02 -1.79281011e-02 -5.83439413e-03
 -2.68977247e-02 -4.29669628e-03  6.73557222e-02  3.78384553e-02
  3.61983031e-02 -3.01711690e-02  6.01138500e-03  6.77736327e-02
  4.92356531e-02  3.72703560e-02  2.15271898e-02  1.64237674e-02
  8.62295181e-03 -1.56644553e-01 -1.26068955e-02  4.33355644e-02
 -2.27729278e-03 -3.61685120e-02 -3.01000625e-02 -5.81532121e-02
 -1.73196420e-01 -4.94637527e-02 -5.70088401e-02  3.65248173e-02
  5.75607084e-02  2.09076200e-02 -5.85154956e-03  8.66768137e-03
 -1.81228872e-02 -2.20379606e-01  2.66036745e-02  1.02785312e-01
 -7.81316385e-02 -7.32462481e-02  4.32676375e-02 -6.51272759e-02
  3.58602703e-02 -4.70455922e-02  4.58395295e-02 -4.86033335e-02
  3.26005742e-02 -7.32645690e-02  8.79252553e-02  8.32884014e-03
  1.99726578e-02 -3.53236087e-02]
[-0.12889655  0.00820335 -0.07377504 -0.04303597 -0.07942766  0.08120573
  0.03254541  0.00078044  0.04158054  0.06298944  0.05975844 -0.03769527
 -0.02451552  0.0145417  -0.21263155 -0.02432351  0.02569234  0.00351983
 -0.08735825 -0.00581451 -0.08219965 -0.0479109   0.03460596 -0.01177761
 -0.15304959 -0.05040402 -0.00318274 -0.08405503 -0.03930467  0.01810618
  0.11827556 -0.05211902 -0.00182174  0.08174885  0.06582889  0.01298272
 -0.07648363  0.03825697  0.01766913  0.02154776 -0.06465738 -0.09997809
  0.0798148  -0.00300077 -0.03571125  0.09646481 -0.01223337 -0.00191584
  0.02817278 -0.01520941  0.01862337 -0.01254507  0.01323748  0.03984347
 -0.06654678 -0.06451175  0.02305157 -0.02722209 -0.08180338  0.04511088
  0.01127803  0.02311498 -0.04030766 -0.01566206  0.0720607   0.05666778
 -0.01648019 -0.04642764 -0.04310187  0.00912323  0.02194948 -0.07694932
 -0.03181979  0.03227078 -0.05598021 -0.03763419 -0.09383386  0.0684734
  0.02909545  0.02772753  0.02162966  0.00552553 -0.05017712 -0.03689593
  0.06577449  0.11294612 -0.03715914  0.02625081  0.04108827 -0.02773087
  0.03184035 -0.02535101  0.04977999 -0.04427955 -0.08714999 -0.00127126
 -0.02522319 -0.0896252  -0.02394522 -0.0025214  -0.05990067 -0.01666235
 -0.0741078  -0.01804121  0.02826693 -0.05934206 -0.03622866  0.0167628
  0.01393211 -0.083184    0.08026449  0.05288986  0.00154792  0.02187962
 -0.04305187  0.00056255 -0.03730928  0.0309552  -0.00916185  0.06136286
 -0.04482557  0.03036707  0.05010064  0.04052774 -0.00580717 -0.01207816
 -0.07303924 -0.08531532 -0.0513295  -0.05343632  0.00173489 -0.01607851
 -0.00337205 -0.10201989 -0.04838753  0.06715786  0.00738044 -0.04490261
 -0.00147998  0.06196403  0.0049582   0.01021863 -0.10665771 -0.07916308
 -0.05731977 -0.00395511  0.0530851  -0.02535211 -0.0660354  -0.03618049
  0.02923251  0.02671953 -0.08965711  0.09410303 -0.02963922 -0.03012338
 -0.08481099  0.04494245 -0.00644088 -0.02942352  0.01378658  0.00739909
 -0.00378522 -0.02682619 -0.03700294  0.05040985 -0.02116694  0.02926262
 -0.1012568   0.00780523 -0.16025293  0.01625858  0.00524465  0.00642055
  0.00911943 -0.02177203  0.00023301  0.04943825 -0.03722487 -0.08438859
  0.00518392 -0.09058906  0.0300939  -0.04418886  0.03174777  0.05849062
  0.00299824 -0.03661739 -0.08104157 -0.01795063  0.02944381  0.09276464
 -0.13410722 -0.01134114 -0.04249067  0.05767189 -0.01065266  0.0099128
  0.08087575  0.02065185 -0.03445105 -0.08793972 -0.05335563  0.03004115
  0.00300033 -0.00746086  0.01194303  0.02904023  0.03208094 -0.03058153
 -0.04180221 -0.07660606  0.02546833 -0.0283727  -0.02041101  0.04685488
  0.09294677 -0.11873922 -0.03371301 -0.06589203 -0.02158608  0.00056053
  0.03543387  0.01057484 -0.03617329 -0.0359902   0.02585519  0.06528607
 -0.04518037  0.03922789 -0.00553398  0.00933579  0.00760986  0.01076974
  0.07680765  0.04824297  0.01152473  0.04718254 -0.06552907 -0.00531363
  0.07919807 -0.05583     0.04192284  0.04248092 -0.03539078 -0.09465831
  0.05496912 -0.03100715  0.02703633  0.01474736]
[-5.83148503e-04 -6.37138337e-02 -1.31614516e-02 -3.39364782e-02
  3.98252979e-02  1.18248984e-02 -9.01235081e-03 -3.24419662e-02
  3.90680088e-03 -4.81632687e-02  8.95244256e-02 -2.77605355e-02
 -1.15803601e-02  6.94622621e-02  5.46129644e-02 -9.41741094e-03
 -4.95322943e-02 -1.05162943e-03  5.87982312e-02 -1.00727854e-02
 -5.76562854e-03  5.58890551e-02 -3.74627002e-02 -4.42526303e-02
 -5.60496710e-02  5.93500733e-02  6.68838620e-02 -1.01038832e-02
  4.37324718e-02  1.76169537e-03 -7.38025680e-02  1.57554150e-02
  7.20483856e-03 -3.28875147e-02  9.52429511e-03 -2.29003765e-02
 -4.25383411e-02 -1.93572380e-02 -6.57907082e-03 -2.09837742e-02
 -4.62639295e-02 -1.52712688e-02 -5.03170304e-02  4.02615815e-02
  9.19583887e-02 -9.48740765e-02  5.25768031e-04  3.43013480e-02
  1.41755408e-02 -6.89856894e-03 -2.45389733e-02  2.62784455e-02
 -6.09795824e-02 -2.12133620e-02 -1.36669934e-01 -6.77689677e-03
 -1.62361264e-01 -2.07696259e-02 -2.79922802e-02 -6.15713745e-02
  5.95185682e-02  8.47139955e-02 -2.01072525e-02 -3.45330201e-02
 -6.31091297e-02 -7.11340681e-02  1.48836582e-03  1.59471426e-02
 -3.64990234e-02 -7.06839636e-02 -1.68230403e-02  5.86482249e-02
 -8.92440155e-02 -1.29622119e-02  2.12920597e-03  2.50831544e-02
 -2.43008975e-02 -2.43659522e-02 -1.03825293e-02 -3.15844938e-02
  3.48394900e-03 -2.42928583e-02  7.60150775e-02 -9.96576026e-02
 -7.88720176e-02 -1.27373129e-01 -1.07291322e-02 -5.86721674e-02
  3.96359153e-02 -5.87372258e-02  5.05689234e-02  6.17696643e-02
 -1.96752176e-02  4.49607559e-02  4.45720963e-02 -3.95326093e-02
  1.50790811e-02  2.46129762e-02 -1.93437599e-02 -6.71492517e-02
 -5.86865842e-02  7.10541904e-02 -5.48239704e-03 -6.94045275e-02
 -1.20947376e-01  4.84318519e-03 -3.09746489e-02  1.81393158e-02
 -2.53435392e-02  2.53970884e-02 -1.58197656e-01 -1.88890785e-01
 -6.04344569e-02  1.34635651e-02 -6.01175204e-02 -1.55989863e-02
 -3.24700885e-02 -6.41172379e-02 -3.56587619e-02  4.07843217e-02
 -1.94780324e-02 -4.40026559e-02 -4.77357507e-02 -1.45985544e-01
 -5.63185290e-03 -7.65470415e-02 -6.00129329e-02  2.23410726e-02
 -3.96927968e-02 -3.45611088e-02  1.45237232e-02 -1.67538431e-02
  4.76384833e-02 -7.37640634e-02  2.45511178e-02  8.59604403e-03
  3.06748468e-02 -4.73004719e-03  1.79688376e-03  3.47426608e-02
 -6.79847673e-02 -1.91865433e-02  4.40417863e-02 -1.37360960e-01
  2.05702763e-02  2.62129139e-02 -5.08878641e-02 -8.91524181e-03
  2.01912280e-02 -1.31578878e-01 -4.03864384e-02  1.05488300e-02
  5.31414151e-02 -6.95354640e-02  1.50309911e-03 -1.47159658e-02
  9.74094868e-02 -5.23688942e-02 -6.23468347e-02 -4.03428227e-02
 -7.40557462e-02 -2.13416405e-02 -4.65640202e-02 -6.88164029e-03
  2.89536593e-03 -1.98009070e-02  2.92764511e-02 -5.37489019e-02
  3.35157812e-02 -6.85539320e-02  1.25313863e-01 -5.40952943e-02
  8.69801790e-02 -1.39071301e-01 -3.27660749e-03  2.67863329e-02
 -6.37343079e-02  5.34790680e-02 -6.30800128e-02  2.24087425e-02
 -6.51418120e-02  4.43295725e-02 -6.02091402e-02  3.44407931e-02
  1.33604370e-02 -6.06607944e-02  8.79498897e-04 -4.44060285e-03
 -1.24197453e-01 -3.60972695e-02  2.39977278e-02  4.61491123e-02
  7.80254006e-02  1.60677373e-01 -1.27138168e-01 -1.11917384e-01
  4.32422459e-02 -6.31776378e-02  5.63157797e-02  5.19559607e-02
 -3.38347293e-02  1.68876201e-02  6.19684439e-03  6.37764260e-02
  4.19059210e-02 -2.25702059e-02  5.78145497e-02  4.61284854e-02
 -1.48181081e-01  9.31065381e-02  2.61046477e-02  8.38281810e-02
 -9.05943662e-02 -3.30510736e-02  4.16462906e-02  1.80394459e-03
 -9.21987295e-02  4.55878749e-02  2.39302833e-02  8.17531347e-02
 -2.38805767e-02  1.15630496e-02 -9.56571102e-03  4.80402149e-02
  2.05253530e-02 -7.09673092e-02  6.18228177e-03  1.25774613e-03
  4.84855324e-02 -1.99591788e-03  9.61461570e-03 -5.90136535e-02
 -6.16823454e-05 -2.14458741e-02 -2.34140176e-02 -7.38165677e-02
 -3.50606032e-02 -1.50145933e-01  5.01074977e-02  2.18849187e-03
 -7.07264468e-02 -6.84728771e-02 -5.41616790e-02 -4.03608708e-03
 -8.62327591e-02  2.22440977e-02 -7.54862353e-02 -6.56865984e-02
 -7.67532885e-02  9.59804654e-02]
[-0.05724239 -0.02032324 -0.01880158 -0.03493176 -0.01040616  0.00251795
  0.01614743  0.04109041 -0.11429822 -0.08412295 -0.04610457  0.01723617
 -0.02497211 -0.00897101  0.01334142  0.01072136 -0.00413407 -0.06382044
  0.02751616 -0.01354155 -0.02601331 -0.10084675 -0.03066864  0.03372233
  0.06428481  0.01108176  0.00677782  0.05724291  0.0307453  -0.01176879
  0.03342238 -0.0165255   0.00050548  0.03369736 -0.10335994 -0.04794531
  0.08715815 -0.05641147 -0.0624879  -0.04533815 -0.01988394 -0.0043157
  0.07000352 -0.03289826  0.0303285  -0.08288123  0.01473845  0.06949844
 -0.00392322  0.0168209   0.02756068  0.03600973  0.04624033  0.00702415
  0.06370425  0.09777777  0.01677319  0.01195346 -0.00910687 -0.04799283
  0.01010018 -0.10220724  0.05913664  0.06314482 -0.03213454 -0.06562997
 -0.00086731  0.16880833 -0.02894961 -0.10234275 -0.00676831 -0.02176968
  0.0121764  -0.10299054 -0.02406729  0.02537579 -0.00265543 -0.08950597
 -0.02590221  0.00527403 -0.01777416  0.04614837 -0.08233293  0.04731256
  0.03047561  0.0449589   0.10809772 -0.07807391 -0.05698944 -0.03960036
 -0.04250105 -0.0269021  -0.03591844 -0.0698964   0.00959571  0.02820659
  0.03993004 -0.12304865  0.0083254  -0.0183066   0.09519242 -0.09749117
 -0.03234556 -0.06389895  0.13120376 -0.01700235  0.00425891  0.00423733
 -0.03449849 -0.01083963  0.15095675  0.02167437  0.06087405 -0.03384545
  0.0653051  -0.0298095  -0.00831169 -0.07946578 -0.04385428 -0.06749172
 -0.00028498 -0.00721561  0.01681861 -0.01282961  0.01073642 -0.03397275
 -0.02728464  0.06511433  0.03898313  0.08623772 -0.06113661 -0.16878948
  0.02329289  0.0787774   0.00734626  0.00866751 -0.03324528 -0.00750095
 -0.04323167 -0.05366068 -0.02900555 -0.00713526 -0.01415286  0.07294649
  0.06812213 -0.00349744 -0.04199584 -0.05637094  0.04612016  0.08435386
  0.01329924 -0.02714519  0.02293321  0.0024116  -0.01280026 -0.09169752
  0.06379817 -0.07529128  0.06608101 -0.02335233 -0.01596837 -0.03513562
  0.01748223 -0.04284831  0.1436581  -0.06045254  0.00029872  0.03406914
 -0.04027547  0.01558969  0.12973431 -0.01483904  0.02353084  0.05655528
 -0.11042695 -0.05038324 -0.07011165 -0.08276781  0.00594247 -0.07573929
  0.03838151 -0.04593308  0.02575038  0.01561477 -0.03853639  0.00212085
  0.01552108 -0.01961304  0.10240673 -0.08219466 -0.01699509 -0.02639674
  0.07499825 -0.05392866  0.05681363 -0.00547607  0.04375212  0.02292612
 -0.0780173  -0.0577974  -0.03384527 -0.04501136 -0.0267993  -0.01457657
  0.00378563 -0.0366138  -0.01157329  0.01199356 -0.05277307 -0.08477381
 -0.03306376  0.03289034 -0.03040463 -0.05904716 -0.00661584 -0.01702503
  0.01318584 -0.05246874  0.03360017  0.06760161 -0.05782547 -0.07336405
  0.00379672 -0.02796266 -0.03179392  0.09019132 -0.02660444 -0.11878284
 -0.05577927 -0.05134705  0.03399341 -0.04981367 -0.07117584  0.03881533
 -0.06896342 -0.03026078 -0.05991304 -0.03173281  0.08024931 -0.01078956
 -0.11517539  0.02393386  0.02592271  0.0146917   0.08665679  0.03775315
 -0.03675541 -0.04639904 -0.02015289 -0.08343381]
[ 4.84572910e-02 -6.67529032e-02 -1.00254389e-02  1.57905109e-02
  7.49315545e-02 -8.26491266e-02  6.38977624e-03 -4.09732647e-02
  2.98638679e-02  7.69766122e-02 -1.45172685e-01  4.56783269e-03
  1.31415073e-02 -8.52142423e-02  1.32520378e-01  4.43461798e-02
 -4.00598533e-02 -4.97682914e-02  2.06186604e-02 -2.49617752e-02
  8.59773010e-02  7.20434487e-02  5.20002916e-02  3.92219350e-02
  5.95398769e-02 -4.31941263e-02 -8.09344128e-02 -3.56759764e-02
 -2.14804709e-02 -8.29696059e-02 -4.18517217e-02  6.33060187e-02
  3.49965841e-02 -1.16392046e-01  1.28157409e-02 -3.13046277e-02
  3.06855757e-02  1.12325232e-02  1.65877247e-03 -4.27605724e-03
 -1.28470724e-02  6.32194877e-02 -9.15858522e-02 -2.02479423e-03
 -8.05058777e-02  1.50312539e-02  4.56205867e-02 -5.27573749e-02
 -1.15084392e-03 -2.91922037e-02 -1.67072117e-02 -8.43288079e-02
  1.63149834e-02 -4.49383780e-02  1.32866418e-02 -4.82463762e-02
 -2.25762893e-02  5.43484800e-02  7.77844563e-02 -7.48223737e-02
  2.81297751e-02 -1.54928993e-02 -1.03285909e-02  1.93552207e-02
  7.58307753e-03  1.97585803e-02 -7.90604763e-03 -1.21228486e-01
  6.25003502e-02  1.10047096e-02 -3.28932069e-02  1.14317331e-02
  3.35570388e-02  5.69052845e-02 -2.78796926e-02 -2.60512102e-02
  2.32150638e-03 -4.68417862e-03 -2.33910792e-02  1.00084394e-02
 -1.77721214e-02 -2.34440807e-02 -1.05980255e-01 -2.94915773e-03
 -1.79419797e-02 -9.42699015e-02 -3.07853613e-02  4.89774644e-02
 -6.36472777e-02 -3.55200320e-02  1.36973476e-02 -3.76673378e-02
  3.87848937e-04 -1.75690334e-02 -2.04769801e-02 -4.39972356e-02
 -4.22278494e-02  3.15738507e-02  2.30435487e-02  9.83819179e-03
 -5.17725106e-03 -4.50194553e-02 -2.78631356e-02 -1.82304904e-02
 -3.64932455e-02  7.13851750e-02  6.29332062e-05  9.95165482e-03
  1.92061986e-03  8.44267011e-03 -7.80405700e-02  7.85785541e-02
  1.92488339e-02  2.81968489e-02  5.48516773e-03 -4.00784463e-02
  4.42185067e-02  3.52291055e-02 -1.77920412e-03 -6.58322275e-02
  4.86178398e-02  5.38651794e-02 -5.96741140e-02  3.78622226e-02
 -4.54305625e-03  3.07013839e-02  5.77444397e-02  4.58457647e-03
 -9.48741809e-02  2.83216815e-02  6.07361905e-02  1.20926075e-01
 -1.29128948e-01  2.97762938e-02 -9.36872791e-04 -8.35887939e-02
  1.71363596e-02 -4.35429066e-03  4.35865633e-02 -9.42101032e-02
 -8.65937117e-03  6.77166926e-03  1.31704481e-02  5.39914928e-02
 -8.28236416e-02 -2.06950158e-02 -3.06262318e-02 -1.14926426e-02
  5.27255684e-02 -3.19603905e-02 -1.88085418e-02 -1.54342577e-02
  7.85604939e-02  5.05120605e-02  6.91407220e-03 -1.23801054e-02
 -7.86420554e-02  1.02757942e-02  2.57807653e-02  1.32726431e-02
  5.24098948e-02 -5.20578213e-02 -2.58647949e-02  1.09716497e-01
 -7.55226389e-02 -4.55640443e-02  2.32436471e-02 -7.89038762e-02
 -3.06982324e-02 -3.50036584e-02 -1.43439889e-01 -1.03000896e-02
 -1.54618010e-01  6.91461340e-02  7.32189864e-02  9.30378519e-05
 -6.76035210e-02 -1.66580384e-03  6.13231249e-02  2.87721548e-02
  3.68369557e-02  4.29315045e-02 -9.21138152e-02 -3.62920091e-02
 -2.11034119e-02  2.28309128e-02  7.13115418e-03  3.66964862e-02
  4.80783544e-02  2.81705037e-02 -7.39239678e-02 -4.07094322e-02
  1.11352606e-02 -1.73970118e-01 -7.21163452e-02  8.46149400e-02
 -6.79181889e-02 -4.74128053e-02 -4.04639170e-02 -4.02058326e-02
  7.03006983e-04  4.63683307e-02 -9.83400270e-02 -5.22824824e-02
 -1.60256680e-02 -2.37701740e-02  1.14200255e-02 -7.30308667e-02
  9.19158570e-03  4.63210121e-02 -1.29878344e-02  4.93367799e-02
  3.93369906e-02  9.73460171e-03  3.25811841e-02 -4.06479873e-02
 -3.42252851e-02 -7.52740875e-02  1.97381563e-02 -2.97256876e-02
 -2.81855520e-02  8.12308956e-03 -9.54942219e-03 -4.57356758e-02
 -2.02664789e-02  2.08807569e-02 -2.68300623e-02  1.00302342e-02
 -4.69240062e-02 -3.95665132e-02 -5.41925840e-02  7.22854361e-02
 -2.28513703e-02 -2.62241270e-02  6.08335389e-03 -8.91678222e-03
  6.15271665e-02  4.40612733e-02 -1.58763528e-01  1.69533975e-02
  5.39368093e-02 -1.38195110e-02 -2.52602920e-02  1.07622826e-02
  2.82074641e-02 -2.31254417e-02  8.05265680e-02  1.06244674e-02
 -2.25385856e-02 -3.31459492e-02]
[-0.01127094  0.00593302  0.00870123 -0.00191626  0.00244749  0.00167781
  0.00176725  0.01434582 -0.02705883 -0.02908729 -0.01845471  0.00189589
  0.02676151  0.00024215 -0.02658507  0.00726533 -0.00082064 -0.02044277
  0.01800334 -0.00324638  0.01404661 -0.01129868 -0.01140453 -0.03440594
 -0.01701995 -0.02769129 -0.01798136  0.02041134 -0.03388074  0.006141
  0.02032124  0.01759611  0.01519001  0.00704644 -0.02831543 -0.03049421
 -0.02131945 -0.03147456  0.02479995 -0.01218837 -0.01294189  0.01367048
  0.02848767  0.02735383  0.04370533  0.00879437  0.02152716 -0.00527496
 -0.03109026 -0.02839762  0.0260798  -0.02718261 -0.00731613  0.03217496
 -0.00688846 -0.03083771  0.0228929   0.01069781  0.01353512  0.01848956
 -0.02206734 -0.01467627 -0.02424219 -0.02156975 -0.02473182 -0.02777224
  0.00762757 -0.00669198 -0.01308876 -0.0232134   0.03511314  0.01312462
 -0.02262707 -0.01897167  0.00992978  0.0195453   0.01073262  0.02647165
 -0.02371955 -0.01920939 -0.02288624  0.01539226 -0.02921861 -0.01962278
  0.00950715  0.01615036 -0.01075669 -0.00535524  0.03064148  0.03292886
  0.0299319  -0.02565707 -0.0238534  -0.00381193 -0.02773003 -0.01763744
  0.02307509  0.00124115 -0.01862134 -0.03355554  0.02532088  0.03343435
  0.0163399  -0.03084501 -0.02649887  0.00049665 -0.03390105 -0.00164711
 -0.0285196   0.00054402 -0.00930674  0.02761489 -0.00819961 -0.0334903
  0.03436806  0.00136463  0.03183492  0.00037612  0.00139564 -0.01815224
 -0.00077587 -0.0082346   0.02823904  0.00100081 -0.01232416 -0.00571081
  0.03056751 -0.02496032 -0.03404672 -0.03775217  0.01031172 -0.01760088
 -0.00273167 -0.02442124 -0.0277489  -0.02642624 -0.00349611 -0.00958715
  0.0322846   0.00524486 -0.01460512 -0.02145689 -0.04063361  0.01400189
 -0.00357853 -0.00013627  0.0066225  -0.03204044  0.0158956  -0.0257693
 -0.01534964  0.00913653  0.02063943 -0.02083694  0.02282695 -0.01367518
 -0.00626639  0.02409039 -0.01813217 -0.00419782  0.02304576 -0.02469769
  0.01192337 -0.01391594 -0.02432141  0.02430474 -0.03007356 -0.01431468
 -0.00542038 -0.00017261 -0.03217313  0.01308739  0.03246402  0.00659351
 -0.02361669 -0.03237663 -0.02762    -0.01140641 -0.00067712 -0.02972103
 -0.03083802  0.02151929 -0.03033147 -0.00533452 -0.02103115  0.02022297
 -0.00510048  0.0068938  -0.01773198  0.00753884  0.0105359  -0.02221449
 -0.00726988  0.01324909  0.02928368 -0.01713836  0.01282238 -0.0288527
  0.02185281  0.02015944 -0.01769684 -0.00776752  0.00737148  0.01658311
  0.02575598  0.02099014  0.01007983  0.0070086  -0.02475122 -0.00181255
  0.00101745 -0.0188516  -0.02527943  0.00151512  0.01923569 -0.03708253
  0.01365912  0.01082392 -0.0131991  -0.02824323  0.00972027 -0.01363405
  0.02523639  0.0168213   0.00871916 -0.00413395  0.00508363 -0.01785452
 -0.01671871 -0.01229909  0.02600859 -0.02054808  0.01859288  0.00161088
 -0.0137682   0.02873869 -0.02531031  0.00671182 -0.02823315 -0.00365918
  0.00285018 -0.00014132  0.02339021  0.00413376  0.02533416  0.00972574
  0.00829343 -0.01424112 -0.02774732  0.01967002]
[-0.00784273  0.00655462  0.00915676 -0.01020285 -0.02491048 -0.02671426
  0.01806561  0.03240805 -0.01977349 -0.00587865  0.0153024  -0.02537192
 -0.00958389  0.00897316 -0.0014002   0.01199414 -0.00606361 -0.01555133
 -0.02281094 -0.021597   -0.00186707 -0.00396271 -0.02121736 -0.01093411
 -0.0218606  -0.01888533  0.01914921 -0.01374343 -0.01174633 -0.02273942
  0.03320517  0.00480794 -0.00797247 -0.02775644  0.0202819  -0.01583367
 -0.02541781  0.01536995 -0.03076198  0.00623213  0.00433108 -0.0323793
 -0.03084721  0.03408639 -0.00633735  0.00319978  0.00261091 -0.02143125
  0.03284938 -0.00604847  0.00896387 -0.02306398 -0.00381116  0.00193111
 -0.00902248 -0.02959226 -0.03378079 -0.01392043 -0.00195571 -0.01366475
  0.03092546 -0.00142131 -0.01624642 -0.01621173  0.02445628 -0.00432377
 -0.00421175  0.02249546  0.00940481 -0.01515967  0.01281659 -0.01056926
  0.01328645  0.02630928 -0.03327233  0.01150914 -0.01576516 -0.02073075
 -0.00920568  0.03320334  0.03274515 -0.00279736  0.03166504 -0.01842408
 -0.02563201  0.02357111 -0.01227447  0.01358655  0.02553847  0.01808034
 -0.03437048 -0.03180397 -0.00041512  0.00632786  0.02134667  0.01847461
  0.02074236 -0.03024368  0.01599172  0.00773002 -0.0026833  -0.03290144
  0.00449997  0.0203513   0.03095296  0.01979271 -0.02132071 -0.00420243
 -0.03288711  0.01577484  0.02239591  0.03014815 -0.01595686  0.01891864
 -0.02358144 -0.02422085  0.01386615  0.02472357 -0.00827283  0.00058642
  0.00133515  0.00125216 -0.00946993 -0.02416207  0.00595362  0.01098839
  0.0113391   0.00364612  0.01088895  0.02618104 -0.01031849  0.01489355
  0.02519465 -0.0123284  -0.03442044 -0.00253777  0.00502955  0.0287566
 -0.01597088  0.02568941  0.019642    0.02565393 -0.0185373   0.0026973
  0.00967558  0.00088419  0.01736001 -0.0282868  -0.00587766  0.0206641
  0.02413751 -0.00816734  0.02919426 -0.00876869 -0.01209057  0.01362381
 -0.01711077 -0.02251471  0.03321864  0.03385193 -0.03188125  0.00490643
 -0.00391366  0.00388503  0.00829771 -0.02339493 -0.00899047 -0.03311066
  0.03293123  0.00619229 -0.03201612 -0.01830162 -0.00144083 -0.03380379
 -0.03295023 -0.00190609 -0.00107316 -0.00243735 -0.00527374  0.00062742
  0.00088142  0.01234986 -0.03327515 -0.0237194  -0.00425975  0.01549691
 -0.01758696 -0.0064716   0.02807267 -0.01357019  0.00446248  0.00076213
  0.02118962 -0.00666456  0.00709277  0.03119195  0.02607661 -0.01471071
  0.01587563 -0.02246731  0.0164721  -0.00779139 -0.00523132  0.02681711
 -0.03442106 -0.02296967 -0.00719172 -0.03324338 -0.01342991  0.01309033
 -0.00323863 -0.02942687  0.00894153 -0.01531716  0.01317934  0.02865124
  0.01385783  0.00499511 -0.03433637  0.01622772 -0.02663269 -0.02400267
 -0.02176374 -0.03200041  0.01214642  0.02389627  0.010831    0.00511288
 -0.02478299 -0.02471213 -0.00933236 -0.01062293  0.01698016 -0.00203379
  0.03159486  0.01059122  0.01757997  0.03277528 -0.03405206  0.00053048
 -0.01575637  0.0056699  -0.01876427  0.00833236  0.01782885  0.00583165
 -0.02367551 -0.02422577  0.00828346 -0.02388497]
[ 0.00765534 -0.05216803  0.01168958 -0.03552666 -0.06646199  0.04289985
  0.03132852 -0.01327444 -0.00671458 -0.04255613  0.02270919  0.07026904
 -0.01892533 -0.05679281 -0.01288335 -0.00945696  0.05976401 -0.03069298
 -0.01137911 -0.03473848  0.03179075 -0.04511353  0.01946517  0.13607004
  0.05329231  0.06806456 -0.00476887 -0.05687797 -0.02658543  0.01314422
  0.02045648 -0.02858248  0.00766832  0.00196929 -0.0375651   0.05582416
  0.04464066 -0.07832808  0.05354673  0.0290864  -0.00786313 -0.06510691
 -0.08137589  0.08570601 -0.00524038 -0.05772189 -0.03332307  0.03484808
 -0.01483751 -0.00411898  0.06786861 -0.05741899 -0.04195587  0.01716906
 -0.02696149  0.03336582 -0.10318047 -0.0408394  -0.04973121 -0.02382218
  0.04534183 -0.06687777 -0.1168845  -0.01923085  0.02903159 -0.10403012
 -0.01787548  0.10119589  0.0137265   0.02524968  0.03187981  0.04153864
  0.02424706 -0.07778685  0.09643002 -0.03422575 -0.01961388 -0.056831
 -0.10148463  0.02629076  0.04270769  0.01946169  0.05167358 -0.0754974
  0.02248465  0.04560175 -0.13066694  0.03400384  0.00829546  0.0044788
  0.06620362  0.0046904   0.02950655 -0.01622947  0.00502859 -0.00109111
 -0.06313447 -0.11502226 -0.05810465  0.05733349  0.00607324 -0.06304742
 -0.07986341 -0.0197705  -0.02576372 -0.0536924  -0.02826032 -0.02345472
 -0.01757002 -0.00582384  0.1194022  -0.0097288  -0.02434655  0.08246639
  0.01061969 -0.02577383 -0.04094264  0.05152271  0.01211576  0.10546459
  0.02444136  0.0230962  -0.04880353 -0.03612896  0.00792477 -0.01099628
 -0.03955309  0.06888087 -0.08653586  0.03211644 -0.02645841 -0.00921965
 -0.05574459 -0.02665179  0.04273351  0.01950976 -0.04242978 -0.09690192
  0.00645393 -0.0532636  -0.02178433 -0.05804139  0.07167328  0.09544945
 -0.01426229  0.04231854  0.01431729  0.01694106  0.04527937 -0.00460687
 -0.04107229 -0.00761053 -0.03827398  0.07797828  0.0111841  -0.02314765
 -0.02939026  0.12103149 -0.03833231 -0.01221161 -0.08815584  0.0161925
 -0.05992801  0.04376546 -0.05976683  0.0108038  -0.04037435  0.0237763
  0.08582722 -0.05669747  0.05578587  0.00719717  0.08197413 -0.03997945
  0.01810668 -0.0115413  -0.04906272  0.08375481 -0.02397256 -0.0937258
 -0.00257551 -0.09229867  0.04451466  0.13364625 -0.04944422 -0.02119675
  0.08941316 -0.03286501 -0.09680057  0.01075095 -0.06568166 -0.00295908
 -0.06400165 -0.10442356  0.00525067  0.01638413 -0.04220104 -0.03716054
 -0.13992652 -0.00332828 -0.03196574 -0.12155648  0.03892212 -0.03631222
  0.02836526 -0.01262401 -0.0584303   0.06534414 -0.09886503  0.07332747
  0.02114339  0.07373955  0.01187498 -0.03072131 -0.01102132 -0.04117322
 -0.11799762 -0.09236516  0.00779259  0.02376123 -0.04011966 -0.10343298
  0.01060813  0.0392636   0.0408746   0.0287881   0.03697718  0.08575208
 -0.02134415 -0.05067614 -0.03980151 -0.03235614 -0.0354555   0.00524305
 -0.07818627  0.02873413  0.02948242 -0.05122258 -0.03656983 -0.03069798
 -0.09889959 -0.13149945 -0.08570012  0.06440471 -0.03620527  0.00225141
  0.00377557 -0.04671708 -0.05779123 -0.06457653]
[ 0.03227446  0.00076703  0.01093988  0.05082958 -0.01543025  0.10673697
  0.04296118  0.01142313 -0.01461006  0.05233135 -0.08356354  0.06795854
 -0.01113798 -0.05484162 -0.10618709  0.01678966 -0.0304255   0.051192
  0.00416632  0.0223505  -0.01924344 -0.00256857 -0.0033554  -0.01052731
  0.04406714 -0.00073405  0.11342128  0.0237219   0.04278233 -0.05310989
 -0.00778259 -0.03863081 -0.00734108 -0.03695839  0.0059122   0.04908065
  0.00393502 -0.02901311  0.04703541  0.02698178 -0.07524119  0.019765
 -0.04547561 -0.1346384  -0.11668289  0.00246604  0.0203563   0.02207816
 -0.01509226  0.00385775 -0.00987026 -0.07654957  0.01099741 -0.0380648
  0.03682571 -0.05372908 -0.04775247 -0.00497303  0.09128157 -0.06469353
 -0.00784498  0.08331636 -0.01935041  0.02526194 -0.06705777 -0.0533184
 -0.05543792  0.10143549 -0.04324078  0.02689251  0.03040869 -0.00687129
  0.0147032  -0.0528097  -0.08926927 -0.00386068 -0.0055066  -0.07501391
  0.05199131 -0.02939339  0.01192784 -0.05530572 -0.10902375  0.02127511
  0.00295331 -0.03840547  0.01021691 -0.04977196  0.04267001 -0.06289086
  0.00135872 -0.01581083  0.019525    0.00576564 -0.03304384 -0.00301093
  0.00036495  0.06719474  0.03643655 -0.01838944  0.00569874  0.00710948
  0.00317015 -0.01698287 -0.00687722 -0.02143255 -0.01823813  0.05301968
 -0.02610738  0.06666332 -0.03516486 -0.00154878 -0.02205397 -0.11597291
  0.03349455 -0.00188825  0.05145755 -0.06560364  0.00022994 -0.00479012
 -0.00455893 -0.04541203 -0.07412323 -0.07620753 -0.03143007 -0.05371447
 -0.06288173 -0.07200777 -0.0653539  -0.03691512 -0.05385807  0.00727029
 -0.02197589  0.07031501  0.00223444 -0.03643655  0.0349949   0.08631676
  0.03548306  0.02324252 -0.01722724  0.05175588 -0.07674915  0.09098383
  0.08101618  0.00674576 -0.0885881   0.01789647  0.02966312  0.00612846
 -0.05392127  0.07029178 -0.06404349 -0.07159578 -0.05969383 -0.09456983
 -0.00599175 -0.01806548 -0.01170454 -0.01859667 -0.03803739  0.01389026
 -0.08305088 -0.04206609 -0.05131735  0.01182772  0.00126501  0.04717119
 -0.06348647 -0.09287471 -0.07078611 -0.0477571  -0.07005672  0.00139968
 -0.08333013 -0.05629315  0.00158455 -0.08577063  0.03592835  0.03761452
  0.05079469 -0.06883851  0.05613783  0.09164801 -0.01438526  0.03628266
 -0.09307806  0.03841743 -0.00745115 -0.04804865 -0.02179895 -0.04529027
 -0.05364512 -0.04003747 -0.06450406 -0.04841202  0.00796155 -0.03137374
  0.10881939 -0.02200251 -0.01019253 -0.03674129  0.01099485  0.01096016
  0.05872333 -0.02100334 -0.08570267 -0.1112474  -0.00839886  0.07315375
 -0.05215562 -0.03448591 -0.0145692  -0.03113055  0.15660293 -0.03130574
  0.03539373 -0.11840281 -0.00847003 -0.01649077 -0.13093273  0.06569614
 -0.00761594 -0.00903738  0.08004667  0.01174934  0.03605779  0.05150081
  0.03653954 -0.03025363  0.02088368  0.00216554  0.00124589 -0.10977954
  0.03469474 -0.06451937 -0.05412307 -0.06919149 -0.0002942  -0.07852563
  0.01048694  0.05154743  0.06344742 -0.06442084 -0.00680078  0.00837625
  0.02048832  0.00324022  0.04044362 -0.00310939]
[-1.48095265e-01 -2.33619940e-02  5.83741739e-02 -8.70374218e-03
 -1.81140769e-02 -5.70824817e-02 -2.38032900e-02 -7.63513660e-03
 -3.33598033e-02 -9.18416530e-02  8.35780203e-02 -2.20425203e-02
  3.80104184e-02 -1.67611632e-02 -4.45552431e-02 -5.57612367e-02
 -2.29035672e-02 -3.59571464e-02  3.55818565e-03  6.53551565e-03
 -7.95640238e-03 -2.61627026e-02  1.13081262e-02 -5.49240671e-02
 -7.78978989e-02 -1.20481491e-01 -2.25633234e-02 -3.14606354e-02
  7.81187043e-02 -1.30814770e-02 -6.72567785e-02  3.56010324e-03
 -2.99696848e-02 -4.80780825e-02 -4.46304679e-02 -1.22878753e-01
  5.49210748e-03 -1.08297057e-02 -1.46969020e-01  1.66195992e-03
  2.77132485e-02  2.59226412e-02 -6.34967312e-02  2.96549294e-02
 -5.21390513e-02  1.48552293e-02 -2.65895557e-02 -3.33429798e-02
  1.07697621e-02 -1.63413398e-02  5.75866550e-03  1.32349012e-02
  5.86727522e-02  4.42126840e-02  1.62361544e-02  3.01439129e-03
 -4.36310545e-02  4.22080606e-03 -5.21067642e-02 -5.88609511e-03
 -7.15935603e-02 -3.96575741e-02  1.22761816e-01  1.09975329e-02
 -1.44038517e-02  6.03249446e-02 -1.70045737e-02 -4.24818434e-02
  3.05790808e-02 -4.09759209e-02 -3.87759544e-02 -7.02272207e-02
  3.78213897e-02 -5.52338213e-02 -7.54054859e-02  4.06610370e-02
  1.89152192e-02 -7.33925262e-03  2.17754319e-02  1.89477708e-02
 -1.84400771e-02 -1.90983023e-02  1.38655985e-02 -4.57047746e-02
 -7.30248690e-02 -9.11584198e-02  4.88498590e-05 -5.05002923e-02
  2.54002474e-02 -6.49075881e-02 -8.52589775e-03 -9.64243244e-03
  3.02154478e-03  1.83859875e-03 -2.35539675e-02  2.36060787e-02
  5.58636002e-02 -5.77941053e-02 -8.10216069e-02  5.34911267e-02
  2.27830969e-02 -2.44580917e-02  1.95042603e-02 -2.98955068e-02
  7.62342587e-02 -6.19375966e-02  1.00848405e-02 -3.87054193e-03
 -2.63691768e-02 -7.90821090e-02 -8.92777070e-02 -1.30637676e-01
  3.78302969e-02  1.37455687e-02 -5.46238981e-02 -8.73640832e-03
 -5.01924679e-02  5.15117496e-02 -2.56996043e-02 -1.48691442e-02
 -3.57369222e-02 -6.24810159e-02  1.05912156e-01  7.22564757e-02
 -4.63827001e-03 -5.60936034e-02 -6.54487237e-02 -7.67425150e-02
  1.09159062e-02  3.76384929e-02  8.12609866e-02 -8.77333581e-02
 -1.37604410e-02 -5.74152954e-02 -6.63330182e-02  1.52141144e-02
 -2.26797685e-02  9.61869583e-02  1.10986188e-01 -6.37999848e-02
 -8.82192049e-03 -6.95967525e-02 -9.43776220e-03 -1.77434966e-01
 -5.36174960e-02 -4.02316935e-02 -7.67468214e-02 -4.13707867e-02
 -3.40165719e-02 -5.27268127e-02 -1.19852982e-02 -7.59615004e-03
 -5.24401478e-02 -3.06259245e-02 -3.65262739e-02 -1.04817159e-01
  1.18140327e-02 -5.95872030e-02  2.67225411e-03  2.22428329e-02
 -9.30505712e-03 -3.20912227e-02 -3.00787296e-02 -3.74855357e-03
  2.57840138e-02 -4.99577634e-02 -2.03028545e-02 -2.04584263e-02
 -2.62619858e-03  6.78438246e-02 -3.19172777e-02  2.53807642e-02
 -5.76404855e-02 -7.80116860e-03  7.28257075e-02  8.56001154e-02
 -4.34801765e-02  3.33835147e-02 -2.66694720e-03  1.32982228e-02
  2.30564680e-02  2.91469172e-02 -5.49071580e-02 -9.54754278e-02
 -4.30761417e-03 -3.54020037e-02  5.55972978e-02  5.17645068e-02
 -2.55342964e-02 -2.77275406e-02  6.53310195e-02  1.68825164e-02
  6.86461776e-02  4.66971509e-02 -7.88690820e-02  1.07833587e-01
  1.17372617e-01 -2.41772104e-02  5.57330437e-02 -4.28378507e-02
  3.73497643e-02  3.80980037e-02 -1.32458523e-01  4.18125987e-02
  1.19167082e-02  3.48344631e-03  8.93167481e-02  2.54672524e-02
 -9.52150077e-02 -1.97769217e-02  1.61315762e-02  9.30430926e-03
  1.22565124e-03  1.36281727e-02  1.93449575e-02 -1.56848319e-02
  9.52023715e-02  2.51938123e-02  9.49180871e-03 -6.81903437e-02
  3.76466429e-03  8.96592345e-03  1.05132849e-03 -5.47319092e-02
 -6.63479790e-02  4.08107601e-03 -2.89634485e-02 -9.52537730e-02
 -4.93014418e-02  6.05394691e-02 -3.18026319e-02  1.22980485e-02
  6.79733753e-02 -6.10281006e-02 -3.49986553e-02  7.78888762e-02
 -3.03496290e-02 -1.28638428e-02  3.23043317e-02  3.05480156e-02
 -2.59794351e-02  6.19103126e-02 -1.25200031e-02 -4.47702445e-02
 -6.57825544e-03  1.40881250e-02 -8.08548778e-02  6.35199323e-02
 -3.38853896e-02  8.28345343e-02]
[ 0.07406516  0.01589569 -0.12518309 -0.00351722  0.04961619 -0.07563724
 -0.02184629 -0.01627235  0.00762302  0.11227747  0.01239908 -0.11551302
  0.02500199  0.06865595  0.09673605 -0.01515542 -0.05309997 -0.04072374
 -0.00511291  0.00756362  0.01539944  0.0455211  -0.0547394  -0.07083729
 -0.07150491 -0.0094797  -0.00910806  0.02315253 -0.10384636  0.04048623
  0.00841333 -0.10016746 -0.01300225 -0.01729049 -0.0269993   0.02339429
 -0.05734107  0.04301521  0.05347937  0.00565464 -0.00075699  0.02724193
  0.0999159   0.02702848  0.03713289  0.07165623 -0.00980851 -0.10322059
 -0.01703551 -0.02897713 -0.04562368  0.11303402 -0.00702096  0.05035323
 -0.06402886 -0.00753764 -0.06992853 -0.00745959  0.01154781 -0.01501997
  0.10827646  0.02858282 -0.01977705 -0.02271098  0.05989365 -0.01375945
 -0.00627635 -0.15877096 -0.02274751 -0.04832136 -0.06611447  0.04950726
 -0.138235    0.0925566  -0.04959374  0.02169354 -0.08261955  0.0544408
  0.01660907 -0.03345076 -0.07004045  0.00052376 -0.08722096  0.05355924
 -0.04772004 -0.02610117  0.14677556  0.02528592 -0.03885031 -0.0205728
 -0.01519913 -0.00919513 -0.05709852 -0.04967426  0.04778786 -0.08668581
  0.01209015  0.00348076  0.04859265 -0.07857884 -0.01883819 -0.01757501
 -0.00701599 -0.04628509 -0.02317779 -0.00309788 -0.02684237  0.00716264
  0.00259475 -0.06967364  0.01340716  0.06356286 -0.09616957  0.0222034
  0.00673498 -0.04365628 -0.1160786  -0.04784754 -0.00726442 -0.08295012
 -0.09976099  0.09794949 -0.09273113 -0.0136827  -0.02286926 -0.03145243
  0.10294529  0.01275311 -0.02296724 -0.01753031  0.00161852 -0.0085579
 -0.01647436 -0.03007729 -0.00859356  0.03135822 -0.02196598 -0.03100665
 -0.14292279 -0.00897075  0.00720792  0.00728664  0.04889944 -0.10200875
 -0.09527266  0.03074949  0.04743543 -0.0642251   0.03228709  0.01482709
  0.05314937 -0.00854012  0.14405857  0.0209889   0.0080677   0.0881578
 -0.01941654 -0.04187523 -0.00554297 -0.03343055  0.00779248 -0.08412186
  0.15970871 -0.07261387  0.07049516 -0.05713796 -0.0233184  -0.05921575
 -0.10658063  0.12205728 -0.02951335 -0.16209468 -0.05263578  0.04930943
  0.02940331  0.04037336 -0.10008783 -0.04902746 -0.04651882  0.04208736
 -0.10286132  0.00770276 -0.03190582 -0.13028073 -0.03264375  0.04967074
 -0.00075182 -0.02031731  0.07476182 -0.07937779 -0.03113548  0.03280144
  0.00406385  0.03063869  0.03890425 -0.03574938 -0.04234949 -0.00124024
 -0.04517154  0.04401331 -0.05159792  0.06796003 -0.02716567 -0.03654542
 -0.05643688 -0.00368251  0.02214498  0.01885681  0.01893745 -0.10428754
  0.04939411 -0.10951137 -0.09681925 -0.07191455 -0.12850164  0.02027738
  0.00338513 -0.03122222 -0.0957012   0.00032333  0.03273773  0.02049102
 -0.00293483  0.04504938 -0.10792766 -0.02587826  0.00904987 -0.13548538
  0.02245771 -0.06226082 -0.0065834  -0.05034401 -0.04227852  0.06028856
  0.01613801 -0.02751561 -0.04765526  0.05453781 -0.00683037  0.073015
  0.01062078 -0.01415456 -0.00351601  0.04794785 -0.02119283 -0.04392268
  0.01242291 -0.01923249 -0.04507333 -0.06373641]
[ 0.01388506  0.03696346  0.032104    0.02866738 -0.01626072 -0.0150526
  0.01997875 -0.01564098  0.02403772  0.03679878 -0.01087008 -0.03605118
 -0.01728327  0.0257322  -0.01370331 -0.01289032  0.03370501 -0.03123168
  0.03296029 -0.02989641 -0.03374065 -0.03368705  0.00830058 -0.00712291
  0.00329669  0.01328863  0.03037634  0.00484343 -0.03862669 -0.02834417
 -0.01818783 -0.02824418 -0.00855562 -0.01071214 -0.00449315  0.01519575
 -0.01572424  0.01917297 -0.01677716  0.002324   -0.00398711 -0.02344395
  0.03193668  0.03027398  0.03736932 -0.03400671  0.00685989  0.00332881
  0.02931912  0.01539579 -0.01978972 -0.04069568 -0.02565987  0.00092928
 -0.02544445 -0.0318386  -0.00541619  0.04131306  0.0225214  -0.01832835
  0.01093999  0.03674671 -0.02867978  0.01129844 -0.01610773 -0.02172615
  0.01853438  0.02785898  0.02065497  0.01584405 -0.00991814  0.00664337
 -0.02445204 -0.03153722  0.00439367  0.02944421  0.01837801  0.01874997
 -0.01067924 -0.02627604  0.01745866  0.01526921 -0.01543505 -0.0298761
 -0.02935705 -0.01745315  0.03368886 -0.00582391  0.01169812  0.03349226
 -0.00206836  0.01725215 -0.01051828  0.01811668  0.01104912 -0.01272839
 -0.01643769  0.04575138 -0.00307696 -0.00604041  0.01290482  0.01835613
  0.00575193 -0.0376664  -0.02643894 -0.00313525  0.02537775 -0.02847446
  0.02455583 -0.02704106 -0.02171137 -0.00514152 -0.02851154 -0.00201939
 -0.02960731 -0.04675096  0.00460246 -0.04163839 -0.0053445   0.01577334
 -0.01061844  0.0317494  -0.01107345 -0.01370861  0.02317546 -0.01503614
 -0.03395625  0.03668763 -0.02573243  0.00765676 -0.00384792  0.02742975
 -0.00029538  0.01019621 -0.02418655  0.01660264 -0.00927113  0.03141175
 -0.00731954  0.01123489  0.00620883 -0.01999786  0.00187981  0.02343588
  0.03105018 -0.005226    0.00219986 -0.02014835  0.00215537  0.00444169
  0.02636808 -0.0156322  -0.03389469 -0.04215902  0.00572611  0.01593486
  0.022436   -0.0113343   0.00101924  0.01118931 -0.02259925 -0.00854737
  0.00906215 -0.01844341  0.03315286 -0.01486675  0.00192402  0.02240111
 -0.0153755  -0.00106728  0.02485912 -0.00276707 -0.00200829  0.02389951
  0.00078887  0.00251534  0.00477089  0.03355312  0.0251668  -0.02361205
 -0.01389479  0.0180543   0.00094267  0.00689616 -0.00899327 -0.02919536
 -0.03817711 -0.03423442  0.03091347 -0.03316076  0.03103508 -0.01519863
 -0.00579392  0.02825037 -0.01772205  0.01315195 -0.01865046  0.00352556
  0.01810806 -0.02359517  0.00220554 -0.00332693 -0.00462154 -0.00780639
  0.02300209  0.02717899  0.03618104 -0.00088257 -0.02844797  0.02330871
  0.02595069 -0.01216362 -0.02194687 -0.00493717 -0.01788939  0.02828475
  0.02815989  0.02385364  0.00760399  0.00991895 -0.02288868  0.00507477
  0.00609126  0.00765178 -0.02757572  0.0039585  -0.02273018 -0.03326048
 -0.02383651  0.02365818 -0.01386959 -0.00736677  0.00433714  0.02427455
 -0.03082089  0.02526292 -0.02720437  0.02481259 -0.02725582 -0.02508062
  0.02797836 -0.02840741  0.02754778  0.00363789 -0.01374482 -0.00848842
 -0.01901687  0.03052749 -0.02973704  0.01487492]
[-2.53485162e-02 -1.15416395e-02 -1.20252445e-02 -3.32331820e-03
 -3.08826044e-02 -3.74575518e-03  2.75960509e-02  1.91882700e-02
 -3.07988320e-02  2.42061354e-02  8.38483498e-03 -2.31763311e-02
 -9.22242831e-03  3.81026906e-03 -1.13676433e-02 -6.16829470e-03
  6.27238676e-03  2.69236881e-02  1.53706744e-02 -6.43381802e-03
 -7.47086527e-03  9.68087558e-03 -7.64267240e-03  2.18273737e-02
  2.37033106e-02  4.40413784e-03 -3.23363058e-02 -2.26482768e-02
 -3.88872065e-03  2.67411750e-02  1.29275015e-02  2.96000130e-02
 -1.59376357e-02  2.11144295e-02  9.36879870e-03 -8.92883260e-03
 -2.81850155e-02 -1.23394257e-03  2.95562036e-02 -3.10978629e-02
  1.04440171e-02 -8.05706717e-03 -2.17756890e-02  3.31612192e-02
  2.12597568e-02  2.58082245e-02 -2.70830300e-02  3.29710841e-02
  3.41449934e-03  2.02153903e-02  1.41330957e-02  5.73967025e-03
 -3.68730584e-03 -2.04681624e-02 -3.35278213e-02 -3.02548185e-02
  3.17228027e-03  3.23164761e-02 -9.41905100e-03 -2.58181747e-02
 -2.40622256e-02  1.56998564e-03 -9.05863848e-03  9.00677964e-03
 -2.00589057e-02  5.98565536e-03  2.01944727e-02  3.14850137e-02
 -2.77311392e-02  5.52158151e-03  8.13704450e-03  9.78219882e-03
 -3.13631259e-02  2.85977200e-02  5.11338562e-03 -2.40330826e-02
 -1.18377069e-02  5.91935311e-03 -1.96956247e-02  1.96936429e-02
  3.75705026e-03  2.39158161e-02 -2.87391022e-02 -2.67006401e-02
  3.43035050e-02 -1.47563918e-02  6.62767095e-03 -3.91056109e-03
  2.87485346e-02  5.43388119e-03  1.99523177e-02 -1.36210751e-02
  2.69402899e-02  1.29621839e-02 -3.39193791e-02 -2.08557546e-02
  1.68244485e-02  1.35008153e-02 -2.67995298e-02 -1.99399572e-02
 -3.32149193e-02  1.20912855e-02 -2.12079994e-02  1.23221474e-02
  6.18113577e-03  3.18996534e-02  2.66470481e-02  4.23150696e-03
  1.46715371e-02 -2.42185332e-02  9.74737201e-03 -5.15750144e-03
 -1.94242690e-02 -2.14966312e-02  2.86219027e-02 -3.37530263e-02
  1.58088822e-02 -3.03439051e-02  6.54956186e-03  1.45915654e-02
 -1.78644899e-02  9.99004487e-03 -3.21701728e-02 -2.04507690e-02
 -2.97669973e-02 -2.98118442e-02 -1.54550802e-02 -1.39923319e-02
  1.72620565e-02  1.91617059e-03 -2.53049731e-02  2.63837799e-02
  3.28722224e-03  9.98528674e-03 -2.34768353e-02 -1.53904054e-02
  6.26888359e-03  2.27387045e-02  3.26329917e-02  3.00938338e-02
 -2.35063657e-02  1.57160740e-02  1.52577423e-02 -6.26996299e-03
 -2.01216228e-02 -1.10820150e-02 -2.66534071e-02  2.40330137e-02
  2.24234387e-02 -3.13334018e-02  1.42203597e-02 -1.81602594e-02
 -2.04512794e-02 -2.91618779e-02 -2.19923984e-02  3.02421469e-02
 -2.23105252e-02  1.47486236e-02  2.86531169e-02 -1.85774770e-02
 -2.68787462e-02 -7.80044030e-03  3.05139478e-02 -1.61410589e-02
 -2.97746304e-02 -1.55791715e-02 -2.41691675e-02  7.53194932e-03
  2.58023362e-03  2.12474004e-03  1.22439833e-02  4.07712796e-05
  2.53926143e-02  1.18359951e-02 -3.28342542e-02 -1.69309229e-02
  1.21585587e-02 -2.92069558e-02 -1.61812790e-02 -2.38663871e-02
  5.58876386e-03  2.38310732e-02  3.19612883e-02  1.62431283e-03
  2.99989083e-03  1.67750020e-03 -3.37443650e-02  7.21507287e-03
 -1.29559366e-02  3.33099812e-02  1.98958237e-02 -2.65576895e-02
  2.92735938e-02 -1.04872650e-02 -1.07964231e-02  2.98914663e-03
  6.32419158e-03 -1.25780469e-02  1.93616245e-02  1.90849025e-02
 -8.06568190e-03 -1.70494039e-02  4.02950961e-03 -1.64876450e-02
 -3.04389410e-02 -1.84285026e-02  2.05338132e-02 -1.13870045e-02
  1.60261281e-02 -1.04084890e-02 -2.05563195e-02 -2.54867543e-02
  2.45360155e-02 -1.94576588e-02 -3.01616844e-02  3.15433331e-02
 -4.79455665e-03  1.86114968e-03 -2.87072025e-02  3.36196311e-02
 -4.29335702e-03 -1.40662380e-02 -2.53524929e-02  1.80275142e-02
 -2.13134568e-02 -1.72704943e-02 -1.91973653e-02 -1.21705616e-02
 -3.04533858e-02  9.17224120e-03 -2.59797126e-02  1.99766830e-02
 -2.70300033e-03  1.29846586e-02 -1.60593670e-02 -2.35068128e-02
  3.24542001e-02  2.97777150e-02 -3.41635048e-02 -1.36060687e-02
  4.94544115e-03 -2.41584685e-02  2.38749627e-02  1.84404608e-02
  5.25127817e-03  1.19095584e-02  2.65188720e-02 -1.07008545e-02
 -5.85106481e-03 -2.05310322e-02]
[ 6.41199052e-02  2.61940602e-02 -3.01870164e-02  6.21276982e-02
 -1.58869326e-01 -6.27710968e-02  7.65703470e-02 -9.39232931e-02
 -9.48397890e-02 -3.28411870e-02  6.96310773e-02  1.12731429e-03
 -3.54824252e-02 -6.96825534e-02 -8.30993131e-02  2.47596465e-02
  4.25571762e-02 -7.36153796e-02  7.94261973e-03  7.13714445e-03
 -1.53288264e-02 -5.65268770e-02  7.73829035e-03 -1.08875334e-01
 -5.51396906e-02  4.79416624e-02 -3.11180763e-02 -5.56812920e-02
 -4.05089669e-02  2.38831844e-02  1.80348661e-02  3.49977463e-02
 -3.03997826e-02 -5.31784184e-02  1.85969640e-02 -5.01952227e-03
  2.28880998e-02 -2.18076799e-02  9.49822925e-03  6.12880755e-03
  5.89550212e-02  4.78140265e-02 -1.74957201e-01 -6.14642650e-02
 -1.09017417e-02 -2.18042713e-02 -3.62920389e-02 -2.14915834e-02
 -2.59212684e-02 -1.03837131e-02  5.30548319e-02  5.92449009e-02
  5.64018376e-02 -1.60193921e-03 -2.98944898e-02  2.52090394e-02
 -6.71175942e-02  1.03433676e-01  1.46358889e-02  4.76796879e-04
  3.54414098e-02  8.78828391e-02  1.55669777e-02 -4.29459289e-02
  4.58936878e-02  7.83524290e-02 -2.51676235e-02  4.29593201e-04
  1.57934114e-01  8.75287317e-03  8.57324973e-02 -3.22426632e-02
 -5.56823835e-02  6.92046806e-02  5.93437627e-02 -2.50732824e-02
 -5.88093922e-02 -7.83181284e-03  5.81942983e-02 -1.57240964e-02
  4.58239280e-02 -3.93130556e-02 -4.37662601e-02 -4.26054597e-02
  3.99975479e-02 -2.20617242e-02 -6.14931881e-02  2.68219858e-02
 -2.67050490e-02 -2.90173329e-02 -8.07004794e-02  2.03319751e-02
  1.12693638e-01  1.00715332e-01 -2.65921652e-02 -7.50690475e-02
 -4.30873185e-02 -2.13231537e-02 -2.08972786e-02  5.37557118e-02
  2.56209522e-02 -2.02477779e-02 -1.03980005e-01 -3.11506968e-02
 -2.76627056e-02  7.03638187e-04 -5.07492162e-02 -1.18503191e-01
  2.17966475e-02  1.81956310e-02 -7.23192096e-02 -7.27470741e-02
  1.42598739e-02  7.63673410e-02 -1.20042600e-02 -3.17592211e-02
  1.06627669e-03  6.72193766e-02 -4.20069462e-03 -4.43338826e-02
 -2.24394947e-02 -8.01607594e-02  1.11744523e-01  1.52299171e-02
  1.74562149e-02  3.79121117e-02 -1.54799223e-02 -5.94570264e-02
 -8.63233730e-02 -2.44450551e-02  2.99071688e-02  2.63731088e-02
  6.40388727e-02 -4.22135293e-02  3.47616076e-02 -4.28572558e-02
  1.64518924e-03 -3.64521928e-02 -9.24017802e-02  6.32114112e-02
 -2.88446248e-02  1.51504688e-02 -3.20875496e-02 -7.77208135e-02
  4.18296866e-02  1.32520469e-02  1.47384644e-01 -7.77759850e-02
  4.57402132e-02 -1.52932843e-02  2.05949247e-02  1.40089123e-02
 -4.31989990e-02  8.72287247e-03 -3.26389484e-02 -4.39663418e-02
  1.81824826e-02  1.26012564e-01  7.94972926e-02 -1.67748411e-04
 -4.76103313e-02 -5.28547764e-02  6.23984598e-02 -1.96401402e-02
 -3.21431048e-02  5.69574311e-02 -7.43554998e-03 -1.41016096e-01
  3.83653715e-02 -5.61568141e-02  3.61471139e-02 -9.41013470e-02
 -2.89357994e-02  5.40269390e-02  6.66096732e-02 -7.70222023e-02
 -1.03515297e-01  2.40421742e-02 -5.02367085e-03  1.47731546e-02
 -1.10340118e-02 -1.65832713e-01 -6.80715367e-02 -4.00730036e-02
  2.69218329e-02 -3.76360603e-02 -9.15102847e-03  1.61003228e-02
 -9.25709903e-02 -5.36888791e-03 -6.25545681e-02  3.64022627e-02
 -3.96112017e-02 -5.95201738e-02 -7.79821798e-02 -1.17239051e-01
 -1.17654819e-03 -1.45067405e-02  2.44163768e-03  1.10816937e-02
  9.18600243e-03  2.06356533e-02 -3.95235457e-02  1.47541724e-02
 -4.73702215e-02  2.70015057e-02 -1.10983653e-02  6.00763112e-02
 -1.61844119e-02  7.88175762e-02  2.01595109e-02 -2.45253723e-02
  1.80145372e-02  1.91587247e-02  3.96238863e-02 -1.15402620e-02
 -1.95173603e-02  5.11323474e-02  3.62848975e-02  2.67951423e-03
 -5.10537215e-02 -1.37203224e-02  1.68514699e-02  2.90863663e-02
  5.94248511e-02  8.07326585e-02 -1.92037895e-02 -8.79897401e-02
  7.88247585e-03  4.41667698e-02 -5.59545420e-02 -2.50719599e-02
  8.92323733e-05 -3.64847966e-02  5.97397797e-02  2.46331710e-02
  1.47209577e-02 -9.86919031e-02 -3.03875213e-03  5.75014837e-02
  4.24409518e-03 -5.84885515e-02 -9.22778174e-02  6.25608712e-02
  2.05856133e-02  8.58244952e-03 -1.47908866e-01 -5.48512526e-02
  7.09453970e-03 -3.45780216e-02]
[-3.9124433e-02 -9.6264869e-02 -2.5640311e-02 -6.7489990e-03
  1.2622152e-02  3.0505816e-02 -7.8390148e-03  7.4260660e-02
  3.2666333e-02 -6.1391603e-02  4.3287799e-02 -7.5790510e-02
  1.8313676e-02 -4.1832201e-02  1.3945788e-01 -7.5395368e-03
  3.9546691e-02 -3.8517080e-02 -9.8544443e-03 -2.9069832e-02
 -6.2173124e-02  4.0096436e-02 -4.2002453e-03 -6.4821199e-02
 -1.1090457e-03 -5.1385164e-03 -1.8779602e-02 -1.1270193e-01
 -1.8327242e-02 -5.3747226e-02  1.4897693e-02 -3.8482118e-02
 -1.2946102e-02  2.4649136e-02 -1.5648897e-01  6.5501300e-03
 -7.8052454e-02  1.0888153e-01  3.4957863e-03  6.9811046e-02
 -6.7359723e-02 -2.4145830e-02  4.8453156e-02 -1.8031094e-03
 -1.1804969e-01  6.9622467e-03 -3.1088849e-03  2.4690542e-02
 -7.7825080e-04 -3.0345909e-02  1.5722068e-03 -5.5777892e-02
  6.8174819e-03 -5.5333473e-02  4.0560044e-02  9.0528941e-03
 -6.4674346e-03 -8.0878347e-02 -1.4125039e-03 -1.3159999e-01
 -3.0520786e-02 -8.0139332e-02  3.6910128e-02 -3.6067814e-02
 -4.2759646e-03 -2.1727564e-02  7.6449541e-03 -3.6100797e-02
 -1.2674803e-01  7.9170018e-03 -2.4608152e-02  2.3591422e-02
  8.9208464e-05  4.2934153e-02 -3.5639331e-02  6.4326055e-02
 -5.5480123e-02  9.7414084e-02 -7.5220078e-02 -1.2879246e-02
 -1.6223451e-02  2.0757124e-02  6.7181207e-02  4.8723266e-02
 -1.4671138e-02 -5.5243906e-02 -6.1997022e-02 -7.7278018e-02
 -4.8385389e-02 -3.6477789e-02  2.7827868e-02  2.0746872e-02
 -4.3098975e-02  3.8590558e-02  9.1751128e-02  1.9452622e-02
  6.0068429e-02 -1.0254300e-01  3.9365940e-02 -6.6151842e-03
 -1.1618275e-03 -5.8029298e-02  3.9161831e-02 -1.8001216e-03
  3.4403227e-02 -3.9558351e-02 -1.1472335e-01 -9.3091428e-03
  3.3503581e-02 -1.3873498e-01 -4.1701030e-02  6.2402163e-02
  8.2736835e-02 -7.8884318e-02 -4.3475054e-02  8.1053823e-03
 -6.1192319e-02 -2.2642629e-03 -4.9204151e-03 -4.9901246e-03
 -6.4538524e-02  1.1713282e-03 -4.6255827e-02 -4.6649620e-02
  3.8249895e-03 -1.8827612e-02 -2.1672864e-02 -1.2622710e-02
  6.3192607e-03  4.8969552e-02  5.1232345e-02  1.1237436e-02
 -3.5488006e-02  3.5811789e-02 -1.3163039e-02 -1.0873214e-02
 -1.7033018e-02 -1.8019756e-02  9.6969709e-02 -1.0080003e-02
 -2.9234914e-02 -4.7101308e-02  4.4982024e-02  7.9484791e-02
 -7.7654552e-03  9.1432221e-02 -1.4248395e-02 -9.6470103e-02
 -2.3210242e-02 -1.1205129e-02 -1.0978131e-01 -1.9210124e-02
  7.8007332e-03  5.9621528e-02 -5.5165019e-02 -2.9269408e-02
 -3.3703756e-02  2.2467570e-02  1.9679839e-02  5.9568882e-03
  7.7165989e-03 -2.8320393e-02 -1.2140096e-02 -4.7526374e-02
 -6.1700858e-02 -5.1199421e-02  1.0129150e-02  1.6825099e-02
 -1.9706657e-02 -6.0303271e-02 -7.1855389e-02  1.4115152e-01
  1.8716088e-02 -5.6886464e-02 -3.2698240e-02  8.8387445e-02
 -6.2367790e-03  1.2822910e-01  1.7967824e-02 -1.8341692e-02
 -4.3440264e-02  1.3029149e-01 -3.3479054e-02  5.4967897e-03
  4.7572721e-02 -3.2892700e-02 -3.5134897e-02  2.0562388e-02
 -4.9329080e-02 -7.1849965e-02  7.1264334e-02  3.0329863e-03
 -4.5470633e-02  4.4514246e-02 -3.9428879e-02 -3.8979832e-02
 -2.4056630e-02 -9.0529591e-02  4.7962174e-02  5.1926016e-03
  2.4027934e-02 -5.0166436e-02 -7.1463525e-02 -2.4226505e-02
  6.1514447e-03  6.6292728e-03  3.4514047e-02  5.2684784e-02
 -1.4528517e-01 -4.0787172e-02 -4.1645199e-02 -1.0360252e-01
  1.1603638e-02  9.8212939e-03 -3.1886540e-02 -4.6811994e-02
  8.0494434e-02  5.6713302e-02  1.6199057e-03  8.8471733e-02
  6.2696107e-02  9.7615227e-02 -9.9944519e-03 -4.7568858e-02
  1.6540951e-03 -6.1268326e-02 -1.8596536e-02  2.9135574e-02
 -6.6794768e-02 -7.6258741e-03 -2.2815373e-02 -4.1470863e-02
 -3.6255222e-02 -1.7557755e-02 -5.9651189e-02 -8.4384762e-02
 -5.1171139e-02  6.5627635e-02 -2.6790295e-03 -5.9615853e-03
 -3.2907669e-02 -9.7638704e-02 -4.2851973e-02  5.9065972e-03
 -7.5342201e-02 -4.9336076e-02  6.6395737e-02 -9.8663755e-03
 -6.2723078e-02  3.7356757e-03]
[-0.07232615 -0.03308374  0.05404463 -0.11157613  0.01852361  0.03289909
  0.0592274  -0.0053946  -0.00059702  0.04846945 -0.08593684  0.04378452
  0.06215874  0.10197973 -0.07116966 -0.04401303 -0.00460282 -0.01481978
 -0.04632719  0.03666126  0.04266786 -0.00855791 -0.0013583  -0.01207207
 -0.01608433 -0.03272618  0.01576881  0.00422263  0.01346967 -0.07427055
 -0.07619105 -0.09149797  0.0487825   0.00247268  0.02241165 -0.01789135
  0.0160831  -0.05128396 -0.11843089  0.01534702  0.02019249  0.05935682
  0.0343096   0.07535868  0.03417223  0.00436232 -0.0547419  -0.04328544
  0.01217333 -0.03085099 -0.00937323  0.05460531 -0.00805503  0.09959666
 -0.10876927 -0.02403258 -0.04856464  0.02773354 -0.01776973 -0.04109273
  0.01109154  0.00922546  0.04504408 -0.01286986  0.05230604 -0.10026805
 -0.0025901   0.01577459 -0.03535223  0.04989209 -0.00484883  0.0261576
  0.03016149 -0.03816331 -0.07173067  0.00035875 -0.05908035 -0.05907552
  0.05588086  0.06252466 -0.02778243 -0.00999703 -0.12019567 -0.0220267
  0.02551562 -0.0008666   0.09862722  0.02910402  0.07383962 -0.04200995
  0.03621788 -0.017594   -0.10703938 -0.1139687  -0.05230608  0.05336021
 -0.02326475  0.11890099 -0.0182996  -0.00128744 -0.0118043  -0.1156196
 -0.13483839 -0.0628116  -0.07702084 -0.0133855   0.05669524  0.04327544
 -0.0132658   0.04871461  0.00495144  0.04105496 -0.09298087 -0.08965529
 -0.06697798 -0.07081917  0.02727651 -0.02791116 -0.038164    0.03378354
  0.08679714 -0.10861325 -0.08182638 -0.02185703  0.00068859 -0.13560724
 -0.04909026 -0.00938999 -0.10460994  0.05010239 -0.04415248 -0.1143159
 -0.01907425 -0.04487598 -0.04504805  0.05551425  0.0608918   0.01261504
 -0.01459946 -0.09307121  0.03765487 -0.0209215  -0.12626229 -0.04226469
 -0.03695107 -0.00390465 -0.0430383   0.07009453  0.03431352  0.00306833
 -0.10689523  0.04039138  0.03434646  0.00188006  0.06241176  0.02840537
  0.0733704  -0.07302178 -0.09470524  0.00671773  0.04180921 -0.03667631
 -0.05049436  0.04309722 -0.00398963 -0.05806291  0.0017683  -0.03168245
 -0.05639255 -0.00766609 -0.00164624 -0.0390591  -0.03210982 -0.06273705
  0.05646163 -0.05198614 -0.10421368  0.01139446  0.00480097 -0.03197166
  0.05165776 -0.10784012 -0.02120001 -0.05675942 -0.05039069 -0.01536795
  0.05237295 -0.04333895  0.06271803 -0.05013956 -0.09153541 -0.02972243
  0.02256178 -0.07586537 -0.04391457  0.07655293  0.00403876  0.06625728
 -0.03267748 -0.05133281 -0.00514058 -0.08583793  0.02076648  0.05583635
 -0.00099377  0.01010912  0.04094296 -0.05603782 -0.05524198  0.05558257
 -0.05585882  0.04261807 -0.03412501  0.00665165 -0.02063994 -0.02883677
 -0.04506041  0.03000241 -0.09776537 -0.00812571 -0.05870122 -0.02852235
  0.02386557  0.06920584 -0.13107593  0.00514046 -0.0066465  -0.06727054
 -0.03959562 -0.04866535 -0.05500441  0.03814318 -0.03450084  0.02540681
  0.03151793  0.03734145 -0.00493897  0.00634694  0.08183072  0.01243055
  0.03190882  0.09373625  0.04262537  0.05042516  0.01499281 -0.08075672
 -0.01860676 -0.06945501 -0.01583681 -0.08953829]
[-1.18630817e-02  3.60197723e-02 -6.55864626e-02  2.08757613e-02
  2.15317365e-02  1.05571421e-02 -6.00766987e-02 -2.25279052e-02
 -6.22547790e-02 -7.22618476e-02 -1.37534803e-02 -3.73572856e-02
 -3.87906618e-02  3.12595032e-02 -6.71466216e-02 -1.59670617e-02
 -2.40406301e-02  2.01063156e-02  1.69423036e-02  1.12046581e-02
 -3.50872092e-02 -1.03827864e-02 -3.01226918e-02  8.10380876e-02
  2.30755936e-02  3.54924309e-03  4.99857739e-02  1.01784520e-01
  4.39327396e-02  8.14042166e-02  1.97060183e-02  3.27406498e-03
 -2.59613171e-02  2.17316300e-02  1.72961839e-02 -2.04270091e-02
  6.95699006e-02  4.23669582e-03  1.81607623e-02 -3.18531953e-02
 -7.39078671e-02 -1.03254281e-01  2.47764569e-02 -1.21091582e-01
  6.36827972e-05 -3.19004282e-02  5.15106469e-02  1.85240805e-02
 -5.15621388e-03 -2.69947853e-02  3.24461721e-02 -1.31765947e-01
 -9.73638669e-02 -5.84437624e-02  4.48740870e-02 -7.05073029e-02
 -3.84090990e-02 -8.40527415e-02 -4.23687771e-02  3.96071002e-02
  6.95261057e-04 -2.42366120e-02 -8.33916962e-02  2.99005210e-02
 -1.34269357e-01 -6.55755983e-04 -3.12045552e-02  2.47405134e-02
 -3.68473530e-02 -5.91602810e-02 -1.63600442e-03  2.48161331e-02
 -2.12530401e-02 -5.73421903e-02 -2.50120983e-02  3.22815985e-03
  3.49679627e-02 -4.56333756e-02 -1.59415957e-02 -6.05543237e-03
 -1.25020295e-01 -2.32951324e-02 -3.77566777e-02 -9.46373045e-02
 -5.56164831e-02 -3.80366109e-02  1.97085887e-02  2.35631447e-02
 -4.00005467e-02 -9.83109791e-03 -2.44628917e-02 -4.32143100e-02
 -1.41252205e-02 -6.06699623e-02  4.88227010e-02  2.77525783e-02
 -4.62420955e-02 -1.26434788e-01 -7.20059052e-02 -5.49023002e-02
  1.83642991e-02  2.98524667e-02  6.76547438e-02  3.59501317e-02
  1.01279542e-01 -1.85784195e-02  4.92005311e-02 -1.27567640e-02
  3.94810690e-03 -5.49674965e-02  1.18655413e-02  7.87420385e-03
 -6.45615831e-02  6.07205816e-02  5.90942353e-02 -1.13091692e-02
  9.60687269e-03  4.16881926e-02  3.48488353e-02 -7.02481940e-02
 -9.33651328e-02  8.35531205e-02 -1.81625485e-02 -3.57865356e-02
  1.40384110e-02  4.25264016e-02  7.68618751e-03 -5.05440310e-02
  1.28156260e-01 -1.49184942e-01 -2.11612117e-02  3.46141495e-02
 -1.18369676e-01  5.06299622e-02 -3.30906995e-02 -2.24120896e-02
 -8.09526071e-02 -5.67709990e-02 -3.48889753e-02  1.23220002e-02
 -1.70991719e-02  7.97706321e-02  2.66658813e-02  3.42196152e-02
  1.04593055e-03 -1.11794144e-01 -9.34535190e-02  6.06145337e-02
 -2.14830972e-02  5.72142825e-02  1.29593670e-01  1.80721954e-02
  4.52304408e-02 -7.30039030e-02 -9.42475069e-03  1.17383348e-02
 -4.31827493e-02 -4.26672660e-02 -3.03195883e-02  3.19088697e-02
  5.41583356e-03 -5.57010360e-02 -3.02847754e-02 -4.06747349e-02
  5.89008965e-02 -1.14965104e-01  2.17210129e-02  5.31120412e-02
 -1.07600428e-02  9.03851837e-02 -4.21175696e-02 -1.12738483e-01
 -5.96258603e-02  4.23738137e-02 -1.21559039e-01  7.18278158e-03
  2.84795333e-02 -1.19558088e-01 -8.81021842e-03 -3.85841578e-02
  6.78620562e-02  5.62622249e-02  8.17992985e-02  3.13963369e-02
  4.18823957e-03 -3.16808075e-02 -9.93327820e-04  4.95831948e-04
 -2.33198777e-02 -1.86092965e-02  2.39684880e-02 -4.97940481e-02
  2.97631789e-02  7.01219216e-02  7.92373642e-02  7.32813627e-02
  2.26705652e-02  4.40047763e-04 -7.44655356e-03  1.64320413e-02
 -1.82185099e-02  1.75698171e-03  3.82099487e-02 -1.84413511e-02
  7.89785944e-03 -1.17796836e-02 -9.84183028e-02  3.29549494e-03
  1.00054257e-02 -5.32535687e-02  5.97790175e-04  8.02240744e-02
 -3.75614502e-02 -9.69583392e-02  1.28823938e-02 -4.66886237e-02
 -8.11931118e-02 -1.67465284e-01 -1.47619769e-02 -1.41351417e-01
 -4.50348929e-02 -8.93081073e-04  1.32740149e-03 -1.13862408e-02
  1.43881524e-02 -1.22834016e-02  1.88564770e-02  1.13460412e-02
 -7.47823576e-03 -4.74842191e-02  5.55746667e-02 -1.37291867e-02
 -7.76489228e-02 -2.69855149e-02 -3.88643518e-02 -3.57326819e-03
 -5.96705526e-02 -8.26626047e-02 -3.00400350e-02 -8.48322883e-02
 -5.08152321e-02 -1.04060620e-02  4.61045802e-02 -4.84403223e-02
  4.63791862e-02  7.93329328e-02  7.55628422e-02  7.49058798e-02
  5.70022278e-02  4.63865325e-02]
[ 7.36191822e-03 -1.08678034e-02  2.10757758e-02 -5.79335308e-03
  1.46114978e-03  3.79364891e-03 -1.72609687e-02  3.15161012e-02
 -1.91619098e-02  2.54626939e-04  1.33290254e-02 -8.78031924e-03
 -2.40168981e-02 -2.58921143e-02  1.40306298e-02 -1.02285026e-02
  8.18692800e-03  4.06105444e-02  7.06401840e-03 -6.92814635e-03
  8.34887440e-04 -2.45220754e-02 -4.82814983e-02  2.99296230e-02
 -1.54708028e-02  1.66445784e-02 -2.03784034e-02  1.32079767e-02
  4.39757307e-04  1.26620932e-02  2.79036220e-02  6.20562071e-03
 -7.18842307e-03 -2.37457659e-02  2.51389183e-02 -7.38944812e-03
 -1.51544744e-02 -2.73286980e-02  2.00399738e-02 -1.86141916e-02
 -6.48215367e-03 -1.63359884e-02 -9.83751565e-03  3.20795849e-02
 -6.34928374e-03  1.68903135e-02 -2.84071155e-02 -2.49289274e-02
 -1.53080123e-02  3.15561481e-02 -3.18589434e-02  1.19751347e-02
 -1.72569007e-02  1.64471772e-02  1.65825579e-02 -2.61464901e-02
  4.02156310e-03 -3.31721157e-02 -1.21181980e-02  2.03303974e-02
 -3.15626189e-02 -7.07962178e-03 -4.08305675e-02 -3.19946446e-02
  7.71071017e-03  2.69711409e-02 -4.49721925e-02  1.29558016e-02
  7.83140864e-03  4.42413380e-03  3.38171311e-02 -2.27625929e-02
 -8.36922880e-03  2.47738659e-02  7.98828900e-03 -2.81219240e-02
  1.19828591e-02 -2.23294720e-02  2.18765344e-02 -2.85885278e-02
  2.40349453e-02  2.79278401e-02 -1.04195187e-02 -8.57997313e-03
  7.19498901e-04 -2.10396443e-02 -1.92644109e-03  3.32398452e-02
 -2.36943811e-02  3.46893407e-02  3.48524824e-02 -3.11867036e-02
 -1.32713662e-02  5.36237378e-04  2.50603016e-02 -2.50966605e-02
 -1.39547605e-02 -9.39388946e-03 -1.35709606e-02 -2.07416788e-02
  1.31075596e-02 -6.39209850e-03 -2.88323630e-02 -6.63542096e-03
  9.26289428e-03  1.02317659e-02  9.79980687e-04  2.08917749e-03
  6.47637295e-03 -3.14252153e-02  2.49802042e-02  1.05208335e-02
 -1.40310759e-02 -2.98379129e-03 -3.22574861e-02 -2.27089617e-02
 -2.07171356e-03 -2.04946920e-02 -3.15314122e-02  7.90715124e-03
  7.86960591e-03  2.93861087e-02 -2.45809052e-02 -2.67130416e-02
 -2.83770803e-02  4.60878393e-04  1.24996658e-02  2.24154834e-02
  1.23637347e-02  2.00956799e-02  3.42311487e-02  2.76916754e-02
  1.57751590e-02  4.84539475e-03 -2.41908059e-02  4.71133552e-03
  7.51569169e-03  2.77081355e-02  3.76204066e-02 -1.03506334e-02
 -2.45987754e-02  1.08959610e-02 -3.18577178e-02 -1.49640134e-02
  7.05864280e-03 -2.19992585e-02 -3.36384848e-02 -1.39515297e-02
 -8.70683137e-03 -3.75293940e-02 -2.28641722e-02 -1.97816081e-02
  9.23314225e-03 -3.95730743e-03 -4.70085721e-03  2.69992668e-02
 -1.67368278e-02  1.48445554e-02 -2.44202893e-02  2.08668318e-02
  1.00339372e-02 -1.92743156e-03 -9.97707539e-05  3.61783965e-03
  2.23643519e-03  3.48512717e-02 -1.30710583e-02  6.33067358e-03
 -3.42886709e-02 -2.14976519e-02  9.06675309e-03  1.69788674e-02
 -1.25101116e-02 -3.75998318e-02  6.92786602e-03  3.56640890e-02
  2.76374072e-02  3.15014906e-02  1.70757938e-02  2.16253288e-02
 -3.09272539e-02  4.50759707e-03 -2.71318145e-02  2.71825027e-02
 -2.98664905e-02 -2.02600062e-02  9.96041857e-03 -1.96399372e-02
  8.12854711e-03 -3.18777971e-02 -2.90108789e-02 -4.97506419e-03
  2.07605623e-02 -2.53308136e-02 -9.11711133e-04 -5.19979792e-03
 -8.75190645e-03 -1.16210543e-02 -1.60384122e-02 -9.45027452e-03
  1.70550849e-02  2.57960968e-02 -9.75172687e-03 -1.26475450e-02
 -3.35064740e-03 -3.11257355e-02 -3.39064524e-02  1.29674068e-02
 -3.35243009e-02  4.52518351e-02 -2.21827216e-02  3.50176245e-02
 -2.44163275e-02  3.36270854e-02 -6.91786117e-04 -2.04869341e-02
  2.54471954e-02  2.62990296e-02 -1.39469337e-02 -1.71068171e-03
  3.47877853e-03  3.13500166e-02  1.33131687e-02  1.58919170e-02
  1.05351843e-02 -2.06243843e-02  2.43755504e-02 -5.71266282e-04
 -3.18475962e-02  2.20217630e-02  3.13157961e-02 -2.97594321e-04
  3.44542563e-02  2.57226229e-02  9.69134271e-04 -1.57079787e-03
 -1.70827229e-02 -5.68813318e-03 -2.78736912e-02 -2.58911643e-02
 -2.89965998e-02  5.20096533e-03  4.81853075e-02  9.41627100e-03
 -4.35829498e-02 -5.51579287e-03 -7.36176153e-04  2.17488203e-02
 -3.03463060e-02  2.26686150e-03]
[ 6.75901817e-03  2.83990577e-02 -2.07564980e-02 -2.99774297e-02
 -7.18981866e-03 -1.63091086e-02 -3.06133125e-02 -1.42457252e-02
  2.60095801e-02 -2.06946712e-02  2.04128586e-02 -1.02578094e-02
 -3.60960700e-03 -8.26044753e-03  1.94309093e-02 -3.01813968e-02
  6.64106337e-03 -1.06107229e-02  9.57633927e-03  1.53495942e-03
  9.31742397e-05 -9.85948555e-03  1.51928244e-02 -1.24024833e-02
  1.82388967e-03 -1.69050449e-03  4.73438296e-03 -3.35194394e-02
 -2.95088422e-02 -1.32020926e-02  3.20695639e-02  2.51163002e-02
 -2.48707663e-02 -2.22186875e-02 -3.38748619e-02  1.29038403e-02
 -2.11730786e-02 -5.10165887e-03  1.87795926e-02 -4.41349717e-03
 -1.99852325e-03  1.76758189e-02 -2.86468733e-02 -2.31159609e-02
  6.24074368e-03  1.10466313e-03 -6.62807142e-04  2.27478705e-03
  3.08910608e-02  2.25865971e-02 -2.43712049e-02  2.38433741e-02
  2.84777358e-02  8.70131049e-03  2.38963366e-02 -1.82408150e-02
 -3.25304680e-02  1.62062030e-02  1.55885359e-02 -1.32365106e-02
  2.38152910e-02  8.19247961e-03 -8.38435162e-03  2.09229738e-02
  2.08263565e-02  9.25538968e-03 -2.09099110e-02  8.57711770e-03
 -2.06951033e-02 -2.03264002e-02  2.44493783e-03 -1.12475213e-02
 -1.31150661e-02  2.35053338e-02 -5.22917323e-03 -1.69970673e-02
  1.02158310e-03  3.41935121e-02  3.40498909e-02  2.26605460e-02
 -2.81108785e-02 -2.00593993e-02  4.34122141e-03 -2.54455432e-02
  1.30215036e-02 -1.26483981e-02 -2.08013915e-02 -2.65575014e-02
  1.80180576e-02  3.11443564e-02  9.39856865e-04  3.30087356e-02
 -8.66357516e-03 -2.18444802e-02 -1.26823457e-02 -1.22018522e-02
  9.76793561e-03 -2.40627341e-02 -8.35545082e-03 -3.14921848e-02
 -3.40272579e-03  2.31921505e-02  9.96545050e-03 -3.01780235e-02
 -2.85768788e-02  1.02704056e-02 -2.40415018e-02  8.85946769e-03
  2.11466253e-02 -1.66564658e-02 -1.08466325e-02 -1.48835508e-02
  3.29246148e-02  1.51819619e-03  1.42599978e-02 -3.20163220e-02
 -2.46419813e-02  1.64852683e-02  8.14329891e-04 -3.22942697e-02
 -1.43138226e-02  3.25128622e-02 -1.41311344e-02 -2.73607876e-02
  2.67855562e-02  2.23943368e-02  2.81872656e-02 -1.66347288e-02
  2.23681633e-03  8.97996535e-04 -2.23766547e-02  3.41594778e-02
 -1.69275366e-02  2.19546128e-02 -3.07733030e-03 -3.37684737e-03
 -3.26812156e-02  1.15043798e-03 -2.73913946e-02  1.73645727e-02
  1.48447591e-03 -2.12691277e-02 -3.86158144e-03 -3.85275739e-03
  9.03407764e-03  3.14688496e-02 -2.98661622e-03  1.02229621e-02
 -8.21062736e-03  2.85463245e-03 -1.41997244e-02 -1.37747498e-02
  2.81477794e-02  2.87287943e-02 -1.79605987e-02 -2.02365778e-02
 -3.77314608e-03  2.16262937e-02  4.74007614e-03 -1.61280409e-02
  6.34600036e-03 -2.18422525e-02 -6.69133430e-03  2.68724300e-02
  3.36658470e-02  1.35778002e-02  2.54556257e-02 -1.36246793e-02
 -2.56194938e-02  3.29901092e-02  2.42614243e-02 -1.34918401e-02
  1.65236925e-04  1.19469250e-02 -9.36744642e-03  1.74242668e-02
 -1.63268000e-02 -3.06881107e-02 -9.32519883e-03  3.26283798e-02
  1.35943145e-02  2.80881245e-02 -2.94867996e-02  2.04690043e-02
 -1.35400007e-02  6.78648055e-03 -1.25563461e-02 -1.59776732e-02
 -5.92411868e-03 -1.77003350e-02 -2.75307801e-02  1.04215471e-02
 -4.89474274e-03  9.80630051e-04  2.63242368e-02  5.59248729e-03
  1.34511115e-02 -2.02341806e-02  2.56879944e-02 -2.40127426e-02
 -3.44055742e-02  1.79343037e-02  1.51847107e-02  1.67456735e-02
  2.63331905e-02  2.87477598e-02  2.53074076e-02  2.52363458e-02
 -8.23985413e-03  2.29731034e-02  2.60520857e-02  1.27050113e-02
 -1.35720782e-02  2.67872140e-02 -2.22098287e-02  1.45211127e-02
  8.09796434e-03  3.30779366e-02  3.40723768e-02  3.03964224e-02
  3.31076533e-02 -2.40522958e-02 -5.33457892e-03 -1.08628720e-02
 -3.17257717e-02 -2.84161675e-03  1.04025062e-02 -1.58354547e-02
  7.60133751e-03  1.13220559e-03 -1.26089547e-02 -3.16912979e-02
 -1.55156562e-02  1.34825222e-02 -5.72546246e-03 -1.34028727e-02
  9.01944377e-03 -7.67749443e-04  5.06175309e-03 -2.94416323e-02
 -1.47865340e-02  2.08335463e-02  3.18574719e-02 -1.39194948e-03
 -1.30834645e-02 -4.71048476e-03  2.53351741e-02  1.12975603e-02
  6.93693897e-03 -2.48006601e-02]
[ 6.82488922e-03 -2.72462536e-02  3.62002812e-02 -5.44014387e-02
 -7.13934610e-03 -1.22896686e-01  8.70811054e-05  7.13401884e-02
 -9.15951654e-03  2.50309762e-02 -1.84274688e-02  3.59504856e-02
  5.23997704e-03  2.29201745e-02  3.58057804e-02  2.38051806e-02
  2.38936674e-02  7.75457621e-02 -7.81900510e-02  2.89862584e-02
  8.38719383e-02 -8.55012983e-03  1.73819363e-02 -1.14358760e-01
 -5.18096201e-02  4.96453121e-02  6.97725173e-03 -8.08986798e-02
 -7.43253976e-02  2.21417639e-02 -3.44526917e-02  4.94048558e-02
 -3.18246298e-02 -8.01528767e-02 -1.06692672e-01 -4.02981937e-02
 -3.43457647e-02  4.54461165e-02  8.03576633e-02 -3.51596586e-02
  4.76715639e-02 -6.35974258e-02  4.36607376e-02 -9.07748714e-02
 -7.80358328e-04 -5.03083086e-03 -6.81525841e-02 -4.49078046e-02
  3.58058065e-02  2.58790385e-02 -1.86509583e-02  1.17084216e-02
 -6.98612332e-02 -4.30467688e-02  4.88460883e-02 -8.43882114e-02
 -7.07786083e-02 -3.34273279e-02  4.12433036e-02  1.10309171e-02
  3.29150259e-02  1.77984014e-02 -4.78181383e-03 -5.82975661e-03
 -5.49829341e-02  1.52852293e-02 -4.28358167e-02 -8.21197629e-02
 -9.61709116e-03  3.92675586e-03 -5.85979829e-03 -2.23375279e-02
 -5.01139872e-02  8.29656124e-02 -7.56948767e-03 -1.88510455e-02
 -8.98076519e-02  2.35426929e-02  1.25062605e-02 -4.10268866e-02
  1.64079312e-02  2.34354455e-02 -4.33909707e-02 -9.26875696e-02
 -1.86446141e-02 -2.33201701e-02 -3.76024507e-02 -2.33938135e-02
  3.39222327e-02 -3.15076299e-02 -8.62832665e-02 -2.67731515e-03
  2.12773727e-03  1.73475239e-02 -8.39416385e-02 -4.51240167e-02
 -9.34822764e-03  5.91199398e-02 -4.27963138e-02 -4.14247327e-02
 -5.50063364e-02  2.31378358e-02 -7.98966922e-03  1.56771298e-02
 -1.06584905e-02 -3.86436656e-02  2.32353527e-02 -2.22328249e-02
  2.70495694e-02  1.45377014e-02 -8.11434016e-02 -4.37970785e-03
  1.62634272e-02 -5.98234124e-02  8.24258998e-02 -4.11650278e-02
  3.18176448e-02 -8.80744215e-03  1.30376853e-02 -3.70742641e-02
 -5.09981290e-02  8.65749363e-03  4.06373590e-02 -1.43798828e-01
  3.53648909e-03 -1.49161555e-02 -4.04934026e-02 -4.95595019e-03
  2.67459471e-02 -2.10248269e-02 -1.76400375e-02  2.82010883e-02
 -7.39136785e-02  5.53333871e-02 -1.97378192e-02 -3.06479502e-02
  7.63498247e-02  5.51165044e-02 -1.41214550e-01  1.69796757e-02
  1.71403661e-02  3.64451623e-03 -8.96171629e-02  4.78292704e-02
  7.40313828e-02  5.71387215e-03 -2.32889988e-02  3.53916958e-02
 -6.85540661e-02  5.42317964e-02 -3.44612189e-02 -1.73068848e-02
  6.76109940e-02  6.86052814e-02  2.50497628e-02 -1.02918364e-01
  5.77766672e-02  1.57902148e-02  5.11972755e-02  5.41158533e-03
 -4.35401127e-02 -6.19282462e-02  5.56072593e-03  2.20709331e-02
 -5.72422631e-02 -5.04430616e-03  6.79179803e-02  9.11465939e-03
  3.28284390e-02 -4.02451865e-02  1.02516942e-01 -1.23260483e-01
  2.26118807e-02 -4.98220064e-02 -7.30516342e-03 -1.37269367e-02
 -8.58957320e-02 -1.29208192e-01  5.84194101e-02  2.50413138e-02
 -5.77347651e-02  4.80341427e-02 -3.75229605e-02  1.10538147e-01
 -1.83436051e-02 -8.12821276e-03  1.36031723e-02  3.27528603e-02
 -5.00714630e-02 -5.39594851e-02 -5.73304519e-02 -1.21001201e-02
  1.49594070e-02  7.80674666e-02  9.92268324e-03 -1.64799802e-02
  7.64239803e-02 -1.52630201e-02 -7.80228823e-02  7.96025395e-02
  2.88929399e-02 -5.02579696e-02 -2.12771744e-02  1.76297780e-02
 -7.77264088e-02 -3.21185798e-03  2.73374189e-02  7.05664083e-02
 -5.40934177e-03 -1.05707750e-01 -3.85594890e-02 -2.84402762e-02
 -1.36603832e-01  2.94631696e-03 -1.03942424e-01  4.61514778e-02
 -8.89590606e-02 -4.02187221e-02  1.84621960e-02  2.14654618e-04
 -4.34971116e-02 -2.25116573e-02 -8.17830150e-04  5.32582402e-02
 -5.78082399e-04  7.07820132e-02  8.76358598e-02 -8.10587928e-02
 -8.74847639e-03 -9.09752697e-02  3.19039039e-02 -2.44226009e-02
 -8.49700421e-02 -3.08826379e-02  2.85673290e-02  8.40762910e-03
  1.18429046e-02 -1.11450039e-01 -1.67378858e-02 -3.94318253e-02
  1.08066961e-01 -4.00380418e-02  6.92889392e-02 -3.97833213e-02
  9.55494493e-03 -6.41455948e-02  6.53575510e-02 -1.41922282e-02
 -2.25525424e-02 -3.14785205e-02]
[-0.05690392 -0.1175854  -0.03004336  0.00948567  0.04630925  0.04116059
  0.02867498 -0.0342836  -0.04758696  0.01547099  0.04113224 -0.01059867
 -0.01955093 -0.01268007  0.07310803 -0.02800204 -0.01941054  0.01823411
  0.03608948  0.00401629 -0.04180805 -0.05456495  0.02171109  0.04861083
  0.0289597  -0.00365471 -0.04686851 -0.0238856   0.03030638  0.06305841
 -0.03638045  0.00540441  0.00236261 -0.07454468 -0.00915244 -0.0062802
 -0.07151601  0.07372839  0.01133639  0.01089896 -0.04785127 -0.0005014
  0.001845   -0.01509737  0.00768491 -0.07099392 -0.08590388  0.0260294
  0.01253803  0.02054681  0.04940275  0.02022157  0.00290647  0.03859099
 -0.08294278  0.02768358 -0.11405264 -0.01446364 -0.00264827 -0.0163348
 -0.01157119  0.09127688 -0.01037177 -0.02032063 -0.03432362 -0.09404077
 -0.09844725  0.01643237  0.05166179 -0.04817057 -0.03033603 -0.05905683
  0.0427065   0.04875899  0.02822236 -0.0031247   0.000851   -0.02221979
  0.0483801   0.05664401 -0.01503904 -0.03812053 -0.02966496 -0.02186147
 -0.04953002 -0.07007033 -0.08271061 -0.05488506 -0.04278558 -0.04821937
  0.01304768 -0.04175042 -0.00708779  0.01987156  0.11602417 -0.02046146
  0.03153361 -0.04051327  0.06181728  0.02709502  0.10606802  0.05701854
  0.0193783  -0.00436605 -0.04640507 -0.11318459 -0.10206233  0.04273555
 -0.00838573 -0.10294264  0.05084831 -0.00538338  0.07342156  0.02370876
 -0.01783127  0.01105556 -0.02214582  0.01949403  0.02976345 -0.0758365
 -0.02006245 -0.05240786  0.03688777 -0.00701399 -0.0047397  -0.03447146
 -0.01604551  0.07460717 -0.0383024   0.048368   -0.01598296  0.05160179
 -0.00653885  0.03651825  0.02381978 -0.02476029 -0.00987515  0.01550929
 -0.0484644  -0.04258255 -0.05559673 -0.01098067 -0.02288524  0.00291489
 -0.030702    0.01467519  0.06084208 -0.01804883 -0.07940697 -0.11040851
 -0.02716065 -0.00767113 -0.06703399 -0.06132103  0.02540894  0.00377749
 -0.1151117   0.01854448  0.04175007  0.07908174 -0.01718988 -0.03717683
 -0.01518202 -0.06532826  0.05396219  0.01370455 -0.02141933  0.02663639
  0.04117009 -0.01750044  0.00525263 -0.03889145 -0.13470271  0.04947278
  0.00795247 -0.07799523 -0.02846971  0.07382925 -0.08286327  0.01432853
  0.00363539 -0.06112739 -0.00313329 -0.01411799  0.07099378  0.0503462
 -0.01244328 -0.01339501 -0.04745759 -0.01215871 -0.0238191  -0.00336788
 -0.02476851  0.04189027 -0.00588331 -0.0063898  -0.04496923 -0.00361636
  0.06052071 -0.02272833 -0.01869107 -0.01139265 -0.08433492 -0.01541196
  0.07480464 -0.03223734  0.03492669  0.06150884 -0.12054652  0.06107272
 -0.0172704  -0.01333726 -0.03162391 -0.00801583  0.05217831 -0.04050806
  0.0006612  -0.02467692 -0.03727865  0.05479423  0.03536956 -0.01714976
  0.00564725 -0.04211703 -0.04785787 -0.13806412 -0.03486785 -0.01141454
 -0.04949883  0.05514217  0.00808166  0.01449011  0.02557217 -0.09680872
 -0.03354772 -0.09512236 -0.08017073 -0.05515917  0.03006939  0.03856218
  0.0537695  -0.05985869 -0.00927055 -0.05658906  0.02244938 -0.0079002
 -0.09682807 -0.06806442 -0.0016546  -0.02614215]
[ 3.34041305e-02  3.69704440e-02  8.38231947e-03 -4.23667245e-02
 -2.13313065e-02  4.79094014e-02 -1.65216550e-02  2.53453734e-03
 -1.65201016e-02 -7.95129091e-02  1.46871964e-02 -4.57361005e-02
  4.38684672e-02 -6.89013079e-02 -1.91208497e-02 -3.26123536e-02
  3.47459246e-03 -7.95150772e-02  1.59009974e-02  4.50624898e-02
  8.26438423e-03  2.51053646e-02  5.50415367e-03  3.84790190e-02
  2.54719779e-02 -2.05057692e-02 -7.43656829e-02  3.36357094e-02
  5.31025343e-02 -1.43315837e-01 -1.75469220e-02 -5.65295070e-02
 -3.09328437e-02  1.38227874e-02  2.79665068e-02 -5.80866784e-02
  4.62361462e-02 -3.96951661e-02 -1.51182609e-02  3.97860445e-02
 -3.99378240e-02  4.61605042e-02 -3.40706669e-02  6.98276162e-02
 -1.01550035e-01  3.63461510e-03  1.46576956e-01 -2.15951912e-02
  1.19066639e-02 -1.02954451e-02 -2.16398225e-03  2.77250521e-02
 -5.23579828e-02  2.31587570e-02 -1.36041846e-02  4.41775657e-02
 -6.19054399e-02 -1.03201486e-01 -9.33768004e-02  8.28098971e-03
 -1.19830091e-02 -1.14384480e-01 -8.83570090e-02 -3.16723576e-03
  9.60899368e-02 -1.15146795e-02  5.74421734e-02  1.71869062e-02
 -3.20409946e-02 -1.04692485e-02 -2.04156269e-03  5.96039668e-02
  6.14104420e-02 -6.99822931e-03 -6.71899468e-02 -5.01145385e-02
 -1.81399267e-02  6.73773214e-02 -3.58273238e-02  1.99297313e-02
 -1.14556402e-01 -4.30846727e-03 -1.16709038e-03  6.54647127e-03
  2.46699452e-02 -7.59306457e-03  6.21521920e-02  5.23522645e-02
  2.64715031e-02 -1.37397498e-02  5.27661964e-02  3.99338119e-02
 -3.64324227e-02  1.74707547e-02  9.16662998e-03 -2.38491744e-02
  8.03860743e-03 -9.51244682e-02 -4.09516543e-02  4.82263826e-02
  4.33825031e-02 -1.54707491e-01 -2.93727070e-02 -3.80192548e-02
  4.67762724e-02  2.63818465e-02  2.76509020e-02 -1.84993353e-02
 -1.67862175e-03  1.40929706e-02  7.50279874e-02 -2.54121404e-02
 -1.67073131e-01 -7.79062435e-02 -1.96096525e-02  1.03330940e-01
  5.83889568e-03 -3.35025862e-02 -1.23598091e-02  4.68187332e-02
  8.62451270e-03  6.89179525e-02 -3.88014084e-03  7.96783809e-03
 -3.46153416e-02 -9.08239856e-02 -3.16491686e-02 -6.83577806e-02
 -3.75875644e-02 -1.28501654e-01  1.60580594e-02  7.65699940e-03
 -6.18760707e-03  3.74949127e-02 -1.10432237e-01 -4.59487624e-02
 -1.67975575e-02 -7.31043890e-02  3.91472988e-02 -7.27433190e-02
  3.73233743e-02 -5.09243459e-02  6.80914298e-02 -1.89942330e-01
 -2.83827912e-02  3.69203202e-02 -3.69432606e-02  3.08770631e-02
 -2.50952621e-03 -4.66508195e-02 -5.11224754e-02 -3.55630852e-02
  3.56194377e-03 -1.58599690e-02 -1.51052102e-02  5.75360581e-02
  3.86939906e-02 -1.20481346e-02 -4.09821281e-03  6.21081404e-02
 -2.05786955e-02  1.94850683e-04 -9.95583758e-02  5.83527796e-02
 -2.19793487e-02 -7.04483688e-03 -1.01452721e-02 -1.46392196e-01
 -1.39047401e-02  2.16186251e-02 -4.15047556e-02  1.87109951e-02
  5.09212054e-02 -2.32138275e-03  4.93355980e-03  1.18887424e-02
 -8.99249762e-02  2.94997413e-02 -5.02304807e-02  3.00020874e-02
  5.24646752e-02 -1.10090777e-01  3.89073789e-02 -4.60876971e-02
 -4.35765795e-02  3.12723443e-02  1.38601672e-03 -7.32120201e-02
  2.31977496e-02 -4.11539860e-02  8.84007383e-03  8.36546198e-02
  4.90799733e-02 -1.97111934e-01 -5.05412146e-02 -6.77844211e-02
 -5.27707767e-03  4.92785983e-02 -4.98066731e-02 -4.95614894e-02
 -2.34310259e-03  3.67638506e-02  4.59370799e-02  6.94707930e-02
 -2.00365726e-02 -1.99589506e-02 -1.09456308e-01  2.60902382e-02
 -2.84521170e-02  3.17129912e-03  6.56340970e-03 -1.32803053e-01
  3.18381153e-02 -2.87358202e-02 -4.21732031e-02 -1.22786939e-01
 -2.90092286e-02 -4.24448922e-02  4.17349003e-02 -1.82501860e-02
  3.09703778e-03  9.83393192e-03  1.47593254e-02 -2.39878381e-03
  1.27485087e-02 -1.13126431e-02 -5.16073033e-02  5.94751313e-02
 -1.97297018e-02 -8.30813721e-02 -4.70244214e-02 -4.13574465e-02
  6.36095777e-02 -2.83937901e-02 -3.66040953e-02  2.14108336e-03
  5.70584424e-02  9.54398960e-02 -3.90891060e-02 -3.51210986e-03
 -1.17456041e-01  1.53699685e-02 -2.25448422e-02  5.03589772e-02
 -1.12443022e-01 -9.83227417e-03 -2.32362263e-02  7.96444435e-03
 -4.71533723e-02 -2.05827095e-02]
[-8.14431459e-02  1.00374948e-02  2.22427081e-02  9.84630734e-02
 -7.77972043e-02 -1.80909093e-02  1.38229895e-02 -1.58708811e-01
 -4.48815748e-02  8.65780574e-04 -1.40269056e-01 -2.44988147e-02
 -4.52102721e-02  9.34971683e-03 -6.56764656e-02  1.11551164e-03
 -5.68286404e-02 -3.84707823e-02  8.35171044e-02 -3.06210760e-02
 -5.70559613e-02 -9.98129882e-03 -4.28895727e-02  1.75880436e-02
 -5.22363298e-02 -1.11119650e-01  7.20429048e-02  4.53864709e-02
 -2.21201852e-02 -3.26560549e-02  4.58001188e-04 -6.69612288e-02
  3.79361510e-02  2.21580509e-02  2.25206446e-02 -1.95950307e-02
  7.77039975e-02 -1.79579780e-02 -1.17182113e-01  2.52008252e-02
 -3.75708379e-02 -4.29058932e-02 -3.91841196e-02 -5.10846935e-02
  2.36783978e-02  3.06007545e-02  6.63367137e-02  2.49380735e-03
  9.28212365e-04 -9.41194501e-03 -6.72601489e-03 -1.21589154e-01
  7.93058649e-02 -8.95517766e-02  3.41664217e-02  2.26467964e-03
  6.18180074e-02  9.31942910e-02 -9.22377780e-03 -4.40835059e-02
 -3.97699736e-02  1.02228858e-03 -4.37896652e-03  3.32187265e-02
 -4.14710715e-02  5.23634516e-02  4.05144691e-02 -5.28357327e-02
  9.68438573e-03 -6.66883588e-02 -5.00714481e-02 -5.03532216e-02
  2.04851311e-02 -4.25661616e-02  3.35628912e-02  5.06087318e-02
 -1.27250571e-02 -8.51365328e-02 -5.03966818e-03 -5.22428416e-02
  6.38301745e-02 -7.09252879e-02 -3.84060517e-02  1.84052698e-02
  2.04064939e-02 -9.85375792e-03 -5.47432825e-02 -2.52305414e-03
 -6.15836494e-02 -9.32737457e-05 -6.12282120e-02 -1.78952664e-02
 -3.35980859e-03  4.09143977e-03 -1.31470934e-01 -4.46927212e-02
 -1.59332436e-02  3.37747335e-02 -2.25061877e-03  2.90397909e-02
 -1.64375380e-02  6.81816712e-02 -1.66110769e-02 -2.30093375e-02
 -3.43256295e-02  3.43685830e-03 -2.34119873e-02  2.73054112e-02
 -1.45813450e-02 -3.68712172e-02 -7.56503642e-02  4.92564291e-02
  7.10213780e-02  8.32052752e-02  4.28010104e-03 -1.75586373e-01
 -1.57917533e-02  6.12215772e-02 -1.86280422e-02 -5.83614223e-02
 -3.04412190e-03 -1.00715399e-01 -1.25517443e-01  5.54786585e-02
 -2.44760215e-02  1.08765773e-02  3.93176824e-02  2.74563790e-04
 -2.64956504e-02  2.43207812e-02  3.05667520e-02 -9.42049026e-02
 -1.39409015e-02 -1.48358181e-01  1.07380360e-01  1.22379333e-01
 -4.41936702e-02 -4.95898910e-02  3.89223062e-02  7.72311687e-02
 -2.20464468e-02  6.16413169e-02  3.01524680e-02  8.38719010e-02
 -1.18129931e-01 -2.39977688e-02 -6.52775168e-02 -1.77214425e-02
  6.52987659e-02  2.42159814e-02  6.49301112e-02  3.74662131e-02
 -1.54814320e-02  5.48094213e-02 -1.18081924e-02 -3.84916812e-02
 -7.81099079e-03 -8.40912666e-03 -2.66395677e-02 -1.57779217e-01
  2.86201946e-02 -2.87660360e-02  9.01480690e-02 -5.90138026e-02
 -4.10709381e-02 -1.20239027e-01 -1.85514055e-02  4.31839451e-02
 -6.52528703e-02  4.70936224e-02 -2.57961061e-02  5.98500781e-02
 -3.41422334e-02 -3.63306748e-03 -1.22190276e-02  6.62326887e-02
 -2.50738878e-02  4.86385114e-02  5.46046719e-02 -1.04780063e-01
  1.37063516e-02  2.63605323e-02 -5.48588149e-02 -6.40301704e-02
 -5.45622455e-03 -5.24334796e-02  8.11909363e-02  2.05256194e-02
  1.77922007e-02 -1.98528990e-02  6.01170026e-02 -3.28379162e-02
 -3.28319035e-02  2.17994442e-03 -3.94830629e-02  8.17817152e-02
 -9.08108894e-03  4.11317497e-03 -6.19790554e-02 -2.03684270e-02
  6.20496599e-03 -2.00854931e-02  2.01989654e-02 -1.04768686e-01
 -1.46578168e-02  1.50529761e-02  3.16697434e-02 -1.47379413e-01
  2.84811463e-02 -5.60146058e-04  1.10732457e-02  1.55004784e-01
  4.32859957e-02 -4.74651679e-02  1.13947921e-01 -9.03925300e-03
  1.09900817e-01  1.25732273e-02 -8.71887878e-02 -6.34125322e-02
  1.80447511e-02  7.78970793e-02  1.01874890e-02  3.67430010e-04
  3.21942382e-02  7.86635056e-02 -1.35604832e-02 -5.09409197e-02
 -4.97759432e-02  6.22503273e-02 -5.15253320e-02 -1.24705601e-02
 -3.43670622e-02  6.08084761e-02 -4.87725884e-02  8.06092024e-02
 -9.05436743e-03 -7.35618500e-03 -8.73755142e-02 -1.05045540e-02
 -5.93290217e-02 -4.05430235e-02  1.19798295e-02  3.17442007e-02
 -4.96440157e-02  3.65528315e-02 -1.80744892e-03  8.52076057e-03
  9.99197178e-03 -1.01509225e-02]
[ 1.74253359e-02 -6.71214703e-03  2.77408585e-03 -2.93665770e-02
 -9.38677974e-03  4.39784862e-02  2.02381099e-03  5.05702980e-02
 -1.48459570e-02  1.22761624e-02 -1.15936166e-02  1.14442278e-02
 -3.14983241e-02 -1.40212988e-02 -2.21454650e-02  2.06597857e-02
  1.06519768e-02  3.15255076e-02  5.21340698e-04  2.11785510e-02
  1.61142722e-02  1.68200284e-02 -1.16307102e-02  3.98405902e-02
  8.83474760e-03  1.74688119e-02  2.29151342e-02  6.87296456e-03
  9.89718083e-03  1.74363572e-02  3.03716231e-02  4.24333364e-02
 -2.14160495e-02  4.22246605e-02 -2.44674357e-05 -1.16731962e-02
  2.24506948e-03  2.58671585e-03  5.54448459e-03 -1.97940390e-04
 -1.32199796e-02 -3.17625180e-02 -3.24394889e-02  3.46617885e-02
 -2.04948597e-02  1.61413997e-02 -1.12133734e-02  6.15641056e-03
  1.67495590e-02  2.10019778e-02  1.08918119e-02  1.85979176e-02
 -2.81312745e-02 -2.17896421e-03 -1.30189070e-03  3.19022387e-02
 -1.82357039e-02  1.38670085e-02 -5.03880670e-04 -3.93131524e-02
 -1.67792626e-02  1.52214253e-02 -9.74676851e-03  5.80127072e-03
 -1.16924644e-02  2.21862160e-02 -1.07311085e-02  2.11847238e-02
 -2.16082186e-02  2.04247143e-03 -1.46579817e-02  2.98091620e-02
 -3.35396975e-02  3.55170667e-03 -2.94106808e-02 -2.08217222e-02
 -9.78361256e-03  3.52421030e-02  8.62537790e-03  1.42196445e-02
  1.26234209e-02  2.91112275e-03  2.55067833e-03  7.21911527e-03
 -3.15469801e-02 -4.89769801e-02  3.74982506e-02  1.06505435e-02
 -1.55442790e-03 -2.37411894e-02 -2.14388482e-02 -2.19964944e-02
 -1.71137322e-02 -4.65471521e-02  6.27682451e-03  6.05415106e-02
 -3.71290091e-03  3.55387572e-03 -3.28211971e-02  1.54665848e-02
  2.49748249e-02 -1.56560112e-02  2.38449965e-03  1.22855967e-02
  5.48966266e-02  3.44877131e-02  1.46881919e-02 -1.81575809e-02
 -2.74345968e-02 -1.00210635e-02 -3.18949483e-02 -1.59015879e-02
 -1.96133461e-02 -4.70464816e-03 -2.74016429e-02 -1.37257352e-02
 -2.06300383e-03 -3.92294154e-02  2.56259460e-02  2.55365837e-02
  2.16121338e-02  6.54864451e-03 -2.50323564e-02 -3.11557222e-02
 -1.66345900e-03 -1.24928681e-02 -4.86552808e-03  2.54079560e-03
  6.23030635e-03  2.68968418e-02  3.50331515e-02  1.48262577e-02
  2.25812066e-02 -3.10305525e-02 -2.41280645e-02  2.54897010e-02
  5.51276281e-03 -3.11481487e-02  5.75211830e-02  3.33546614e-03
  2.93707773e-02 -2.90349461e-02  2.06043664e-02 -2.04299483e-02
 -2.23775804e-02  3.72980833e-02  9.48896538e-03 -1.10809412e-03
  5.48984967e-02  4.65684421e-02  1.94931459e-02 -3.38562205e-02
  2.62424108e-02 -4.57548983e-02 -3.27678286e-02 -2.37275232e-02
  2.27412814e-03  6.24142168e-03  2.00588796e-02  2.42372453e-02
  4.67110239e-03 -3.03423777e-03  1.13620171e-02 -1.52714038e-02
  4.00527604e-02  4.86668795e-02  6.35991339e-04  3.92811894e-02
 -6.85533211e-02  8.51473771e-03  1.54295983e-02  1.83194187e-02
 -3.09023913e-02  2.49515511e-02 -2.17339024e-02  3.40362303e-02
 -1.46268436e-03  3.56104784e-02  1.80671476e-02 -2.79126968e-02
 -3.44588943e-02  3.15985712e-03 -8.34113639e-03 -1.49042979e-02
 -2.87457071e-02  1.33273005e-02  2.10725609e-02 -1.90474850e-03
 -1.66560560e-02 -3.17855589e-02 -1.81670412e-02  2.42848881e-02
 -3.34520489e-02 -6.46368507e-03 -1.93418842e-02 -2.32542329e-03
  1.97181627e-02  3.46855894e-02  4.75973561e-02 -3.10362391e-02
  2.94765290e-02  3.80717851e-02 -1.53471110e-03  2.75230408e-03
 -2.82269996e-02  2.42833663e-02 -1.00042922e-02  7.80209061e-03
 -1.45731503e-02  2.33534668e-02  3.28743793e-02  2.71595985e-04
  1.80659238e-02  1.38138877e-02 -8.85439571e-03 -1.33519670e-05
  3.10257799e-03  3.02438512e-02 -2.73937266e-02  1.44206686e-02
 -3.73650454e-02 -8.94111115e-03 -3.20025161e-02  1.78138074e-02
 -4.26048413e-02  3.07259895e-02 -1.73893347e-02  3.14120762e-03
 -1.08825881e-03 -2.14323662e-02 -3.01197916e-02 -2.60438733e-02
  5.35310023e-02 -2.74047125e-02  3.49790342e-02  1.00446679e-02
  3.44723873e-02  3.27630267e-02 -1.99746061e-03 -1.39223989e-02
  1.61441881e-02  2.49879379e-02  7.01103359e-03  7.72488210e-03
 -2.23300848e-02  3.30723748e-02 -6.04713336e-03  1.97017528e-02
 -1.98166184e-02  3.37806046e-02]
[ 9.96045303e-04  3.20629142e-02 -2.54963152e-02  1.93266477e-02
  6.68665767e-03  1.37452735e-02  8.07784405e-03 -9.55206342e-03
  1.39808550e-03  3.42855006e-02 -2.94724945e-02 -9.95724741e-03
 -1.77512113e-02 -3.23436335e-02  9.27011017e-03  1.79951545e-02
  3.27070877e-02 -9.27603059e-03  2.74222083e-02 -1.59164276e-02
  1.96863487e-02  1.99435335e-02 -1.17879584e-02 -1.16840350e-02
 -2.68460587e-02  3.36503536e-02  2.78246291e-02 -3.18675744e-03
 -3.19080502e-02 -1.90450344e-02  1.31651824e-02  2.28897538e-02
  2.15560552e-02 -1.47592826e-02  4.48215613e-03 -2.46376675e-02
  5.59515785e-04  3.23119736e-03 -3.25634815e-02 -1.16550345e-02
  4.89711715e-03 -6.93498785e-03 -1.67244319e-02  1.50018139e-02
  2.75682230e-02  3.11141293e-02 -3.04513928e-02 -1.46356607e-02
  8.55636597e-03  2.99164429e-02 -8.59409571e-03 -2.07790881e-02
 -7.75713474e-03 -4.16635675e-03  4.40792833e-03  3.03264763e-02
 -1.54821388e-03 -1.40223447e-02 -3.15918140e-02 -7.85698369e-03
 -1.26137189e-03  2.65729371e-02  1.61641706e-02  7.43256125e-04
  2.38047820e-02  3.57693667e-03  5.90611063e-03  1.57487504e-02
 -1.84665117e-02 -2.81733200e-02 -2.93502267e-02  1.43368868e-02
 -3.27593051e-02 -4.93719708e-03 -7.22859334e-03 -4.61826846e-03
 -7.14381272e-03  1.85645651e-03 -2.37472933e-02  2.57417765e-02
  2.21090838e-02  1.09675741e-02 -2.79034749e-02  2.29095016e-02
  2.46750023e-02 -3.30017395e-02 -1.03064403e-02 -2.71598138e-02
  2.90236989e-04  2.67158318e-02 -2.05027703e-02  1.25094783e-02
  1.77682247e-02 -1.81819033e-02  5.55710867e-03  1.11574167e-02
 -2.83773988e-02  1.36997895e-02  5.83586656e-03 -2.41359696e-02
  1.66575946e-02 -1.33624626e-02  5.57513628e-03  1.52145587e-02
 -9.49385483e-03 -3.43507752e-02 -1.44731579e-02  2.78664511e-02
 -1.22243818e-02  2.35590450e-02  3.39269228e-02  6.40756031e-03
 -2.02090666e-02 -3.22297006e-03  2.28871759e-02  1.00685414e-02
  1.35735713e-03 -1.98932923e-03 -1.74163040e-02  1.34289898e-02
  2.49331016e-02  9.93193872e-03  2.78261062e-02  1.81018934e-02
  5.96459210e-03 -2.85328683e-02  1.36712380e-02 -3.22998315e-02
  1.43769793e-02  2.14322675e-02 -2.54812352e-02 -1.79585229e-04
 -1.71651673e-02  3.36651467e-02 -1.85717922e-02  8.97416472e-03
  2.91076284e-02  1.77909192e-02 -1.91105483e-03  1.99384931e-02
 -2.22127959e-02 -1.46421781e-02  3.37234847e-02 -2.96000261e-02
 -4.23701899e-03 -2.73682643e-02  1.82330739e-02 -2.15227455e-02
  1.42857982e-02 -3.27094644e-02 -2.68950481e-02 -2.74172109e-02
 -6.75987080e-03  1.07612498e-02  1.87656041e-02  2.37554889e-02
 -8.30206927e-03 -3.97504168e-03  1.15354229e-02 -1.10795569e-04
  2.17000172e-02  2.43094526e-02 -6.58226898e-03  5.18519757e-03
 -3.79753718e-03  5.20361029e-03  2.64030937e-02  4.34067892e-03
 -5.14484290e-03 -1.38689103e-02 -5.66205103e-03  1.30201979e-02
 -3.39138880e-02  3.05439010e-02  2.97764130e-03  2.53226459e-02
 -1.03096971e-02 -2.37152129e-02 -8.98847822e-03  1.95374880e-02
  1.42519362e-02 -2.46690009e-02 -5.02389576e-03  2.02503987e-02
 -3.07614803e-02 -2.51397565e-02 -1.95670072e-02  2.09505530e-03
  1.91899855e-02  2.27952208e-02  1.89594850e-02 -2.06081122e-02
  2.64478046e-02  1.96341407e-02 -2.45863609e-02 -1.93626508e-02
 -7.43616911e-05 -2.91284304e-02 -2.16696747e-02 -1.19563024e-02
 -9.51994676e-03  1.32339755e-02 -1.05717443e-02  7.09945196e-03
  1.35115292e-02  1.15321344e-02 -1.45888207e-02  1.30241299e-02
  7.40433577e-03  1.95144266e-02 -1.07416371e-02  2.52885371e-02
  2.22621690e-02  2.15542149e-02  3.18168476e-02 -5.15045691e-03
 -1.35135942e-03  2.08883341e-02  2.42735445e-02 -1.24423299e-02
 -9.13401693e-03  8.30722135e-03 -1.32652866e-02  4.93453443e-03
 -4.50996123e-03 -2.51285210e-02 -1.21113332e-02  2.64638681e-02
 -3.14392745e-02 -1.40238674e-02  1.26085924e-02 -2.03085845e-04
