layers 8
layer 0 Dense
124 256
[ -7.98797328e-03  1.72442559e-03  1.64631158e-02 -1.34145860e-02
  1.83850899e-02 -3.01421825e-02  1.77316717e-03 -4.67820242e-02
 -2.56894603e-02 -5.92983980e-03  1.29147813e-01 -8.28752993e-04
  1.52987707e-02 -1.50916371e-02 -3.35539766e-02  2.40479130e-02
  2.33017169e-02 -4.84123155e-02 -8.24124366e-03 -5.35627566e-02
  8.62320438e-02 -7.08868578e-02 -2.13788431e-02 -4.85866191e-03
 -1.17425825e-02 -4.73261923e-02  5.62417768e-02 -6.53442321e-03
 -1.61399972e-02  1.51661923e-02 -3.13764289e-02 -3.00953146e-02
 -9.61423293e-02 -2.31461208e-02 -4.37975712e-02 -3.65603343e-02
 -2.52524838e-02 -3.59717533e-02 -1.37025677e-02 -5.14321662e-02
 -5.28778397e-02 -5.09886928e-02 -5.90900034e-02 -1.03311604e-02
 -3.61913890e-02 -4.71939892e-02 -1.64826177e-02 -4.87272628e-03
  6.29753852e-03 -3.73593792e-02  3.81949882e-04 -2.57150568e-02
 -1.39107807e-02  2.33896985e-03  2.32792430e-04 -1.60021037e-02
 -3.02583482e-02  4.32255492e-02 -3.85343060e-02 -1.26710506e-02
 -2.38234419e-02 -1.01660294e-02 -9.20921657e-03  1.66283399e-02
  1.95438415e-01  4.91612144e-02 -2.19745077e-02 -6.65661022e-02
 -5.47738001e-03 -2.60821148e-03 -4.88227084e-02 -8.27420875e-03
 -5.80577254e-02 -4.66230884e-02 -3.57311964e-02 -1.36150979e-02
  3.04289092e-03 -4.82191704e-03 -1.67292636e-02 -2.04772409e-02
 -1.32338190e-02 -1.25175957e-02 -3.16400491e-02 -3.78138311e-02
 -1.99830290e-02 -3.22562992e-03 -2.44808663e-02 -1.60569884e-02
 -5.55556230e-02 -3.83110493e-02 -4.08286117e-02 -3.01246569e-02
 -2.26879138e-02  9.00112391e-02 -4.12913039e-02 -6.82758167e-02
 -3.75841409e-02 -3.08186766e-02 -4.98040207e-02 -7.52581423e-03
 -4.44423221e-02  1.06189013e-01 -2.76575033e-02 -5.59428893e-02
 -6.86577195e-03 -4.99653369e-02  2.61348560e-02  1.62297338e-01
 -5.11994660e-02 -1.00676706e-02 -1.15341479e-02 -3.13228406e-02
 -1.29328342e-02 -5.43904752e-02 -1.16970660e-02 -3.14174443e-02
  1.77088961e-01 -3.89258303e-02 -3.36231776e-02 -2.98747551e-02
 -6.92070350e-02 -3.81776802e-02 -3.53948064e-02 -1.23935817e-02
  6.81540510e-03 -5.54126017e-02  2.51278907e-01 -1.12741087e-02
 -6.00688253e-03  2.55386144e-01 -2.58619990e-03  8.72192718e-03
 -1.31527940e-02 -6.98357122e-03  3.34010273e-02 -2.17631254e-02
 -3.33182476e-02  8.02694932e-02 -3.51857394e-03 -1.53065873e-02
 -1.96837690e-02 -4.94194515e-02 -3.69075574e-02  6.51261210e-03
 -1.57144610e-02  2.67632399e-02 -4.72763032e-02 -4.39221039e-02
 -1.07756071e-03 -3.93183082e-02 -5.04144207e-02  1.16497576e-02
 -5.78398928e-02 -4.81623970e-02 -4.80141304e-02 -4.22445647e-02
  5.70019446e-02 -9.34301130e-03 -1.41970078e-02 -2.65826527e-02
 -5.71420342e-02 -5.89932427e-02 -1.12406500e-02 -4.51272726e-02
 -1.82409305e-02 -8.87724534e-02 -1.93918794e-02 -4.48907688e-02
  5.50677776e-02 -2.18372345e-02 -3.46592441e-02  6.76494045e-03
 -2.30196901e-02  1.47475284e-02 -2.68323123e-02 -1.76545046e-02
 -4.33380641e-02 -8.84604827e-03 -5.25964648e-02 -1.81441810e-02
 -5.23684435e-02  2.99636889e-02  4.77311574e-02 -3.81584093e-02
 -3.24007496e-02  3.70702962e-03  8.00485164e-03 -3.77066433e-02
  5.90182899e-04 -7.99136702e-03 -1.81503464e-02  8.26063287e-03
 -3.00283320e-02  1.38557367e-02 -3.46678756e-02 -1.25104515e-02
 -1.19373864e-02 -8.14225245e-03 -2.21450496e-02  2.42171809e-01
 -2.67750248e-02  2.66999914e-03 -3.66766378e-02 -2.07106862e-02
 -4.45917584e-02 -3.73412073e-02 -3.56756970e-02 -3.13046128e-02
 -1.60555858e-02 -1.83879603e-02 -3.64543051e-02 -2.73379758e-02
  7.89122097e-03 -9.72307287e-03 -3.99967730e-02 -3.38230655e-02
 -3.89299095e-02 -3.88973132e-02 -4.55145575e-02 -1.59639213e-02
 -3.31306010e-02  1.44174555e-02  1.94668137e-02  1.19333357e-01
 -7.40176439e-02 -5.67763224e-02 -3.15261744e-02  2.82745231e-02
 -2.89891884e-02 -3.41144316e-02 -3.63903493e-02  6.78155869e-02
 -3.11422218e-02 -1.89520803e-03 -3.22660431e-02 -5.08840336e-03
 -1.94500834e-02  1.50224315e-02 -2.66029201e-02 -5.90310916e-02
 -4.22027558e-02 -3.98261063e-02 -2.13507358e-02 -2.97425780e-02
 -3.88156399e-02 -1.02143949e-02 -5.25404364e-02 -2.99082249e-02
 -4.61493134e-02 -2.44389828e-02 -3.13346684e-02 -3.59922796e-02
  2.93815620e-02 -2.35535074e-02 -6.52708933e-02 -5.73792644e-02 ]
[ -0.00561106 -0.06373439 -0.02120044 -0.00735828  0.03767608 -0.10958444
 -0.14542265  0.05563059  0.00146277 -0.05686258  0.05814375 -0.00127801
 -0.02726494  0.07372263 -0.00467873 -0.02272083 -0.03931113 -0.00740988
  0.01101827  0.03014289 -0.02941358 -0.08022972 -0.10169253  0.03346009
 -0.06607026 -0.01741316  0.0876959  -0.10111437  0.09470547  0.04953435
 -0.02989957 -0.08976765 -0.12373487 -0.12098929 -0.01717331 -0.09479422
 -0.06286582 -0.16087152 -0.05650266 -0.04752851  0.00180976  0.00462499
 -0.13386351 -0.03603015 -0.00887931  0.01384492 -0.03781016 -0.01737631
  0.0013785   0.04251286 -0.05986448  0.0109915   0.04420884  0.12022654
  0.06952193 -0.00200785  0.09072561  0.05862282 -0.01411222  0.00432168
  0.01275365  0.01881221 -0.05533874  0.11423099  0.02767932  0.10439927
 -0.02776014 -0.06100387 -0.0609296   0.00070923 -0.08032205  0.05734001
  0.02155496 -0.08252595  0.01788333 -0.15356927  0.00613098 -0.09440088
 -0.07649388 -0.04693481 -0.01208563  0.02810729  0.01140147 -0.00164699
  0.03774783 -0.06047309  0.05534013 -0.14174332  0.07246836  0.04462906
 -0.03229222 -0.08612525  0.0118147  -0.05167556 -0.09981339 -0.06454515
 -0.08742744  0.00616927  0.0106082  -0.0241985  -0.02554272  0.0787568
 -0.06071484 -0.01208945  0.0261986   0.06932233  0.04799831 -0.0202868
 -0.11924498 -0.05794255  0.00941176  0.04839163 -0.01338413  0.01779468
  0.02286458 -0.03685714 -0.07351799  0.02567282  0.01495881 -0.12657133
  0.00290249 -0.03752236 -0.05805917 -0.04236002 -0.04966414 -0.00074684
 -0.01856181 -0.01653139 -0.06593617 -0.02828796 -0.02978889 -0.07226164
 -0.04997067 -0.03298187  0.01118664  0.0696433  -0.074699    0.08693309
 -0.02496049 -0.05980469  0.08360118 -0.04366521 -0.09512779 -0.04379987
 -0.01534637 -0.06540139 -0.06972331 -0.01119626  0.02951414 -0.08627751
 -0.07197999 -0.0358872   0.01869342 -0.12843624  0.11301298 -0.12730327
  0.12420433 -0.00734909 -0.01476816  0.0002953  -0.00793163  0.00032788
  0.08925314 -0.1478695   0.04293916 -0.15118247  0.04800912 -0.0593474
  0.0861678  -0.02345036  0.10448766  0.08196018 -0.09154411 -0.05730743
 -0.06338752 -0.00483503 -0.06636529  0.11015249 -0.0637098  -0.10923756
 -0.09999483  0.05771137  0.02539881 -0.16909446 -0.02815737 -0.00497648
 -0.00025929 -0.02322014  0.00893547  0.01232895 -0.02244828  0.0461291
 -0.01850113  0.08088064 -0.07243714  0.03038116 -0.01368251  0.03611914
 -0.0016153   0.12788996  0.03689116 -0.02083267 -0.01923092 -0.04320657
  0.04363449 -0.03201966  0.06565186 -0.0303424  -0.0172434   0.01240874
  0.03026611  0.08249377 -0.03273742 -0.05157379 -0.04565585 -0.03548728
 -0.02430729 -0.01748705 -0.06432201  0.03205573 -0.01274571 -0.02417272
  0.09562378  0.05842432 -0.06483442  0.037086   -0.0005988   0.0216977
  0.07648123 -0.072066   -0.04398954  0.13005036  0.03299925 -0.03491046
 -0.0148499  -0.05085002  0.06963138 -0.01537605 -0.07728305 -0.00968376
  0.00030989 -0.04352061 -0.00598849  0.04099335 -0.03017617  0.03959405
  0.06280264 -0.00474043 -0.05357242  0.06574022 -0.09189232 -0.02348164
 -0.05827169 -0.06255454  0.0144745  -0.01231969 ]
[ -4.91154157e-02 -8.79117101e-02  8.76382217e-02 -3.24474461e-02
  5.89854009e-02  8.97563435e-03  2.42437255e-02 -9.76867005e-02
  1.09110527e-01  2.07359288e-02  1.10177375e-01  9.12790373e-03
  2.38861470e-03 -6.79334402e-02 -9.64485928e-02 -3.02290358e-02
 -3.04856841e-02 -7.28395432e-02  4.16703848e-03 -7.39477053e-02
  1.43381491e-01 -7.31712431e-02  1.32314516e-02 -3.88002321e-02
 -1.81689076e-02 -2.20233589e-01  1.40278950e-01 -3.39567079e-03
 -5.38462959e-02 -7.46771097e-02 -5.45451753e-02  8.63130465e-02
 -3.11550628e-02 -3.12414579e-02 -7.34351203e-02 -1.67459603e-02
 -5.31416610e-02 -4.48218221e-03 -4.59397249e-02  2.25192867e-02
 -3.72896306e-02 -4.91649993e-02 -6.84848726e-02 -3.07541657e-02
 -1.05561130e-02  2.61619333e-02  1.03591584e-01 -5.02235889e-02
 -6.86460510e-02 -1.71156704e-01  4.50861342e-02 -7.58761242e-02
 -2.13695504e-02  8.98143277e-02  2.84170751e-02 -4.56449129e-02
  1.06445663e-01 -5.20724431e-03 -4.82783886e-03 -9.17766336e-03
 -5.38189448e-02 -1.39096966e-02 -2.34673340e-02  1.50794387e-01
  2.99142957e-01  2.82835085e-02 -1.00777358e-01 -1.45261928e-01
  1.73275009e-01  6.01652153e-02 -8.31344649e-02 -1.04192290e-02
 -1.74466431e-01 -2.13769265e-02 -2.47891783e-03 -4.28652540e-02
 -1.73524618e-02 -2.99341381e-02  3.30242142e-02  5.95192388e-02
 -4.31193523e-02 -5.91307878e-02 -8.87465253e-02 -1.85116532e-03
  6.27461588e-03  6.36688573e-03 -5.89651242e-02  1.13934122e-01
 -1.01041142e-02 -6.55712485e-02 -8.83369446e-02 -5.10336757e-02
 -3.64841595e-02  3.10067087e-01 -2.19633967e-01 -7.17143267e-02
 -2.17837021e-02 -1.11715265e-01  2.62229759e-02  2.82933321e-02
 -8.70292261e-02  2.93768913e-01  3.77473701e-03 -1.41716287e-01
  9.42438245e-02  1.67012159e-02  1.22844800e-01  4.04301375e-01
 -8.42151418e-02 -6.71264306e-02  1.17346652e-01  3.27990651e-02
 -8.41659158e-02  6.95930095e-03 -4.70619351e-02 -1.38999457e-02
  3.75004739e-01 -1.84050962e-01  1.94019265e-02 -2.81736907e-02
 -4.21199715e-03 -9.78603065e-02 -1.66334547e-02 -6.18447699e-02
  7.11608380e-02  1.09541491e-02 -7.26801828e-02  1.81412902e-02
  1.36501759e-01  1.13596387e-01 -1.06711768e-01  1.02352705e-02
 -1.07304662e-01  6.78977668e-02  9.65829864e-02 -1.12398066e-01
 -7.27086738e-02 -2.38105543e-02 -3.61173525e-02 -2.58174054e-02
 -2.74156071e-02 -3.63910086e-02 -2.84026656e-03 -2.52899202e-03
 -1.06431553e-02 -1.64240487e-02 -7.23076239e-02 -6.08896874e-02
 -6.48778602e-02  4.10771854e-02 -7.16453344e-02 -2.10299939e-02
  6.55913204e-02 -9.47297290e-02 -3.89584526e-02 -1.22430518e-01
  1.10722058e-01 -2.51176264e-02  3.26758511e-02 -1.60608366e-02
 -1.64370626e-01 -1.45861924e-01 -7.07110241e-02 -8.16149544e-03
  4.14581224e-02  2.14604996e-02 -5.88492379e-02 -1.00324675e-01
  6.09463640e-02  3.85393552e-03  2.05902625e-02  7.74820298e-02
  8.91174823e-02 -2.14410033e-02 -4.77487743e-02 -2.00579595e-02
 -6.94756284e-02  4.49676998e-02 -5.76994978e-02 -5.11005148e-02
 -1.25302419e-01  6.06445223e-02  7.68726766e-02 -1.00195380e-02
  2.57426389e-02 -4.13400270e-02  2.38246299e-04 -1.13263160e-01
  1.19687859e-02 -3.30916345e-02  2.40099840e-02 -9.08669550e-03
 -3.10075260e-03  8.05781409e-02 -9.86240730e-02 -5.80503866e-02
  2.02898736e-04  5.13315126e-02 -1.07858293e-01  5.88947758e-02
 -1.25133041e-02  1.51017783e-02 -8.03896114e-02 -1.26811922e-01
 -7.71630928e-02  3.01385242e-02 -3.62815782e-02 -3.71209010e-02
  1.01296091e-03 -3.29420553e-03  5.69808763e-03  3.96531895e-02
 -4.63657789e-02 -4.53554243e-02 -8.47407207e-02 -1.00231268e-01
  4.65525165e-02 -4.64359075e-02 -1.17296726e-02 -1.06755033e-01
  5.57294004e-02  3.40459757e-02  2.65996270e-02  4.35651019e-02
  2.51063891e-02 -3.03556360e-02 -6.50865724e-03  5.55891171e-02
  1.43036827e-01 -4.92650494e-02 -7.82418251e-02  2.65152603e-01
 -3.15970071e-02 -4.19231243e-02 -8.51799175e-02 -7.25033060e-02
 -2.87807509e-02  8.73456225e-02 -3.15024815e-02 -8.54625553e-02
  5.85638545e-02 -7.26555139e-02 -4.82816063e-02  1.59965809e-02
 -2.66138166e-02  5.22005782e-02 -8.48520845e-02  7.11643472e-02
  5.03201783e-02 -8.36697146e-02 -3.70659754e-02 -5.10194972e-02
  7.73375109e-02  6.43517748e-02 -1.04966583e-02 -2.74520256e-02 ]
[ -0.01483665  0.03872214 -0.04907031  0.04403594 -0.00394214 -0.0051988
  0.01845022  0.0021074  -0.01946422 -0.00905977  0.02124864  0.05634424
  0.00139428 -0.00365679  0.04326273 -0.0275875  -0.0009729   0.04709709
  0.009964   -0.01138018  0.05630321 -0.04212266  0.04269845  0.01263744
 -0.0620428   0.05797639 -0.03143412 -0.02150955 -0.03979762  0.02947698
 -0.01912605  0.00240429  0.0747458   0.0235659   0.01770124  0.02573059
  0.07540148  0.05567288 -0.00273707 -0.02303891  0.03335023 -0.05821715
  0.05085621 -0.07911905  0.02954809  0.07882339 -0.0509807  -0.0059445
 -0.06796905 -0.02247385  0.0309165   0.06321786  0.0773399  -0.08837317
 -0.04740179 -0.00483848 -0.00704449 -0.03180181 -0.03628459  0.00195692
 -0.01852047  0.01766507 -0.04627676 -0.00914983 -0.10158502  0.01555651
 -0.01913274  0.03688689 -0.00808991 -0.06429303  0.02306538 -0.02740836
 -0.03466064 -0.03997482 -0.03823058 -0.0279067  -0.01555685 -0.01924654
 -0.01973823  0.05183189 -0.04222577  0.03371286  0.04500603  0.01408856
  0.01903158  0.01330963  0.0241998   0.01204808 -0.00918958 -0.02980163
  0.05945623 -0.0403413  -0.05339774 -0.14722557  0.04590056 -0.00630466
 -0.00850674  0.0341174  -0.02980712  0.01917524  0.02594372 -0.15049754
 -0.01223339  0.02400006 -0.02266725  0.01868859  0.02450966 -0.06212724
 -0.00719271 -0.02307698  0.0389948  -0.0304183  -0.01706978 -0.01088332
  0.06159152 -0.01837981 -0.0317727   0.00295921  0.03217929  0.01460319
  0.0672989   0.00429321 -0.02907171  0.05452293  0.01191565 -0.00999528
 -0.04184822  0.02110422 -0.02014752 -0.12305109  0.06389809 -0.00985229
  0.04064321  0.01927423 -0.02145842  0.04114059  0.00550994  0.01325703
 -0.00414253 -0.03770398  0.03233095  0.07511157  0.01749757  0.01788402
  0.03004457 -0.02919226 -0.00622489 -0.00128955 -0.0416944  -0.02125667
  0.0471271  -0.00374006 -0.07224362 -0.02006767  0.03983632  0.0251395
 -0.08521362  0.02876356 -0.02350931  0.01999427 -0.00768602  0.04236573
 -0.0637914   0.07527739 -0.03854344 -0.00106562  0.00668689 -0.03528254
 -0.0457446  -0.02404429 -0.00178502 -0.04640674 -0.04302758 -0.03685347
 -0.00713505 -0.00185725 -0.07634258  0.05460571  0.00221956  0.01755676
  0.03543298 -0.04634263 -0.05516716  0.02428876  0.04331182 -0.01777069
 -0.00834913 -0.02561837  0.02606015 -0.01840919  0.07827947  0.02561809
 -0.06085747 -0.00354658  0.0597847  -0.02605633 -0.01685699 -0.07883854
  0.03956701 -0.10074848 -0.00591618  0.02956011  0.03945107 -0.01458764
  0.06762786 -0.02963814 -0.02809497  0.02960181 -0.00052994  0.00550611
 -0.01635298 -0.00380849 -0.04316096  0.01554312 -0.00895426  0.00515269
  0.01232797  0.04726699 -0.01026971 -0.01035988 -0.05728883  0.00937424
  0.02316983  0.05644911  0.01104139 -0.02858724 -0.04742109 -0.02561729
 -0.03574176  0.01437615  0.0181188  -0.02325441 -0.02808604 -0.04516175
 -0.00314577  0.03037039 -0.0092877  -0.05953801  0.00968281  0.0651326
  0.02723897  0.03556522  0.06187072  0.00307552  0.0274038   0.01353884
  0.01678261  0.01656974  0.02987322 -0.00613123 -0.03361233 -0.00543322
  0.03573092  0.07671678  0.01050301  0.0042296  ]
[ -0.14863108  0.01656781 -0.04484034 -0.07593531  0.03473826  0.02084534
  0.00296903  0.01277168 -0.17823243  0.00187886 -0.08639169 -0.02624095
 -0.0022371   0.06808871  0.08145946  0.12632446  0.01257776 -0.05269836
  0.00304335 -0.04888564 -0.02163596 -0.05097586  0.03093507 -0.03638397
  0.1203775  -0.00710038  0.02555339  0.04685397 -0.145479    0.01800306
  0.00637467 -0.135586    0.03575821  0.03955702  0.07384368 -0.12162356
 -0.04472829  0.02338487 -0.00180432  0.00575267  0.07134814 -0.05167288
  0.04920186 -0.0727089  -0.13327643 -0.07909304  0.04143356 -0.02165887
  0.01579994  0.08751478 -0.03715499 -0.07230427 -0.01292303 -0.00726481
  0.07322785  0.02455954 -0.06411076  0.0123658  -0.08212228 -0.00076225
  0.09821195 -0.00553065 -0.05176003 -0.04809267 -0.01611368 -0.05294678
  0.11033199 -0.16086158  0.04441172  0.10715496 -0.07715236  0.12544292
 -0.01981495 -0.01816719  0.0254867  -0.12445605 -0.0133257  -0.0199095
 -0.05415284 -0.05005961  0.06683937 -0.03444773  0.03106394 -0.05052216
 -0.0075961   0.0615354  -0.01289339 -0.12249412  0.0277465  -0.00476813
 -0.00912353 -0.0997823   0.10727587 -0.02665572 -0.05276421 -0.11592863
  0.13588956 -0.05261181 -0.04308435 -0.03739053 -0.02937495 -0.0447377
 -0.01543894 -0.07237845  0.04190373 -0.02756006 -0.04041464 -0.075653
  0.0477102  -0.08089404  0.03231869  0.05140236  0.01134194  0.01306195
 -0.12722638  0.04440065 -0.02649956 -0.02621949 -0.05959365  0.0320519
 -0.12857346  0.06191599  0.05855795  0.007517    0.04341733 -0.03909611
 -0.00900891 -0.02892994 -0.08632272 -0.00943857  0.08772059  0.01310517
  0.0063855   0.01482339 -0.10935037 -0.00280398  0.01130457  0.04425288
 -0.04101547  0.12131114  0.13186324  0.06515969  0.08742341  0.01681135
 -0.01107409 -0.14388898  0.03367522 -0.03784711  0.04648398 -0.04722087
 -0.03357026  0.07735217  0.0589895   0.00252966 -0.0791598   0.01336144
 -0.0434543  -0.01739122 -0.0378846  -0.03041933  0.01107942  0.03213302
  0.06257332 -0.00258865 -0.03264964 -0.07299276  0.01678286 -0.01002465
 -0.05018263 -0.04904066 -0.09998975 -0.09805458 -0.0720733   0.05017903
  0.0072994  -0.03965991  0.09762517 -0.03862778 -0.09781554 -0.1617996
  0.01258642  0.05574081  0.09339356 -0.04547895  0.00353971  0.02421728
 -0.00952378 -0.04868964 -0.0225263   0.06368609 -0.07274541 -0.09182414
 -0.00512354 -0.11057226  0.04805008 -0.10656274 -0.09302807  0.07576318
  0.07220777  0.00496708 -0.08360086 -0.20900184 -0.02301785  0.0068887
 -0.07896879  0.02018611 -0.00445316  0.06843127 -0.01963631 -0.01720444
  0.01499617 -0.05566998 -0.06006273 -0.15512805 -0.02116868  0.01546823
 -0.01324324 -0.00837158  0.02151487 -0.01289998  0.10229654 -0.02134659
  0.00060017 -0.03252541 -0.14062357 -0.03230896  0.00399661  0.00687845
 -0.0306541  -0.04832878 -0.00200408 -0.0329654  -0.04355448 -0.00620421
  0.01631743  0.03831778 -0.02483488  0.06693275  0.00675742 -0.0313479
 -0.02943408  0.00764631 -0.005923   -0.12163137  0.03024636  0.02469554
 -0.0732877  -0.0449342   0.06728739  0.06484524 -0.02504213  0.08550945
 -0.00900387  0.0214008   0.01885604  0.02565152 ]
[  5.91032654e-02  3.70446853e-02  9.19559225e-02  9.59222317e-02
 -4.60479297e-02 -1.17556043e-01  1.42142251e-02 -3.82026695e-02
  8.99067521e-02  4.52225357e-02 -7.05402251e-03  6.78065838e-03
 -1.01880603e-01  8.08906332e-02 -1.20272106e-02 -8.54894370e-02
 -1.00460157e-01  5.94623722e-02 -7.14672506e-02 -6.88968301e-02
 -4.94193137e-02  1.79954059e-02 -1.14260733e-01 -1.11377083e-01
  8.60382318e-02 -3.91021818e-02  1.95689145e-02  3.97980325e-02
  5.99584393e-02 -1.07937749e-03  1.17361009e-01  1.08805776e-01
 -2.57921163e-02  7.54972408e-03 -9.56324711e-02 -1.02506038e-02
  1.34146333e-01  1.76324435e-02 -1.87092703e-02  4.03185561e-03
  3.89780588e-02 -4.28368002e-02 -2.11858377e-02  4.82886471e-02
  8.23801309e-02  8.60094428e-02 -9.37990961e-04  7.93567821e-02
 -1.50981927e-02 -4.56277803e-02 -1.06766168e-02 -4.12857793e-02
 -4.64070067e-02  6.09104522e-02 -9.20572132e-03 -9.42132473e-02
  2.78335810e-02  2.46209372e-03 -3.76794785e-02 -4.74867877e-03
 -1.12292923e-01  1.14492336e-02  3.08818389e-02 -1.24102822e-02
 -1.17815705e-02  3.75877284e-02 -6.00881651e-02  1.12829164e-01
  4.75559384e-03 -6.29556030e-02 -1.07794004e-02 -8.87539759e-02
  9.07641742e-03 -6.71527684e-02 -1.33057088e-02  8.46867934e-02
  6.26916019e-03 -7.79355094e-02 -2.66462900e-02  1.37629928e-02
 -5.22147380e-02 -1.07419281e-03 -6.11947738e-02  6.83155432e-02
 -4.73422967e-02 -1.35426372e-01 -1.48899863e-02 -2.15838905e-02
 -4.23699990e-02  3.10915001e-02  7.60534918e-03  5.28724678e-03
 -2.68684290e-02 -6.05872646e-02  2.70571411e-02  4.77052741e-02
 -1.17934272e-01  6.22107200e-02 -2.07371693e-02 -2.36734618e-02
  1.20663475e-02  1.75047498e-02  4.12216969e-03  1.74913853e-02
 -9.64238681e-03 -3.41412425e-02  3.98769882e-03 -2.01123096e-02
 -1.92143414e-02 -3.99643071e-02 -9.39354002e-02 -1.02466658e-01
  1.15606859e-02 -2.51398999e-02  9.38398670e-03 -2.77317911e-02
 -3.69495377e-02  4.63040881e-02  1.61267095e-03 -1.20374098e-01
  1.32333547e-01 -6.71225935e-02  9.98280104e-03  8.97651389e-02
 -1.29230037e-01 -5.99676035e-02 -9.73248947e-03  2.76754290e-04
  1.82500817e-02 -3.98826003e-02 -5.50378896e-02  4.87021022e-02
 -2.85370518e-02  4.40287516e-02 -4.30433489e-02  4.36267303e-03
 -5.49966209e-02  2.27060039e-02 -1.04636922e-01 -5.26208547e-04
 -8.34476575e-02 -2.22434420e-02  1.01105580e-02 -2.48380452e-02
 -5.10449298e-02  4.62088324e-02  6.34843437e-03  1.23324734e-03
 -8.83845687e-02 -8.33980888e-02 -1.17789889e-02  6.69645965e-02
  2.94491202e-02 -3.43437791e-02 -4.29078331e-03 -5.83735369e-02
  4.18295972e-02  3.93471457e-02  1.33931294e-01  6.48109913e-02
 -1.07393144e-02 -6.68639466e-02 -9.58761573e-02  4.41054814e-02
  1.63339719e-03 -3.05871498e-02 -1.19513515e-02  2.38990057e-02
  2.36487333e-02  2.30304860e-02 -4.75022793e-02 -1.01858228e-02
 -3.83723155e-02  5.04630469e-02 -5.79738840e-02  1.70575629e-03
 -6.89433739e-02  3.34661244e-03  7.68028200e-02  5.61433807e-02
 -6.33660629e-02  3.19338515e-02 -2.14170422e-02 -1.77616831e-02
 -1.89447455e-04  1.51307080e-02 -7.65276095e-03  2.96866912e-02
 -9.85361338e-02 -4.72488590e-02  5.05286679e-02 -9.62113366e-02
  1.05372081e-02  9.29993466e-02 -1.94614977e-01  2.22934820e-02
  7.35490024e-03  1.59071237e-02  1.92792378e-02 -8.30956548e-03
 -1.81187894e-02  1.63540170e-01 -4.35550362e-02 -3.18131335e-02
 -3.11526824e-02 -2.00634878e-02 -8.87902975e-02 -8.58005881e-02
 -7.55112320e-02  4.54529710e-02 -3.32293138e-02  3.23232375e-02
  4.45850641e-02  1.19265407e-01 -1.45024480e-02 -3.38762812e-02
  3.26755308e-02 -4.15659212e-02 -1.27902031e-01  1.34115200e-02
 -1.37964502e-01  1.71578214e-01  2.20395681e-02 -4.88379821e-02
  8.58232826e-02  8.24765023e-03  1.21329799e-01  4.76039723e-02
  6.56351373e-02 -2.97311340e-02  9.96006653e-03 -2.88275070e-02
 -4.73159738e-03 -7.28699565e-02 -4.05981541e-02 -6.72415918e-05
 -7.11548887e-03 -1.27523150e-02 -4.13638465e-02 -2.97614699e-03
 -5.33838086e-02  1.31925512e-02  8.36339314e-03  9.58785936e-02
 -4.69090566e-02 -3.10179952e-04 -2.01760326e-02 -4.13960181e-02
  2.80906297e-02 -4.21024561e-02 -5.19752167e-02 -7.61015043e-02
 -1.86343435e-02 -4.77549024e-02 -7.32528642e-02  3.22127789e-02 ]
[  0.18083832 -0.03645671  0.00043709 -0.03463744 -0.02098345  0.05343325
  0.01729429 -0.02580921  0.07755163 -0.07724262  0.00745942  0.02649352
  0.03478568 -0.01506633  0.00516432 -0.00466534  0.02792878  0.06032829
 -0.04216737  0.03468585  0.05354773 -0.1257815  -0.02552475 -0.04309943
 -0.04267003 -0.06296872 -0.02089971 -0.01188199  0.03943109 -0.01412774
 -0.026509    0.05311704 -0.18346865 -0.10319335 -0.02060311  0.06151768
 -0.0202287  -0.00479001  0.01279    -0.02627513  0.01315612  0.01767411
 -0.08170025  0.09092135  0.04779268 -0.11497878 -0.00330329 -0.06495734
  0.04912135 -0.0405905  -0.05079985  0.02068042  0.00724835 -0.05546834
 -0.12518725  0.00609707 -0.04694884 -0.14649867  0.11120681  0.00617523
  0.08054364 -0.04009117  0.01886543  0.00424066 -0.01660665 -0.07920898
 -0.02706831 -0.02320292  0.0035361  -0.00924298  0.03944128  0.01958628
 -0.0341538   0.03962548 -0.00706119  0.03525569  0.01596489 -0.00322197
  0.05680897 -0.05698976  0.0587437   0.03561801 -0.10084844 -0.0508632
 -0.00401753  0.0578125   0.00334363 -0.02653077  0.00127359 -0.07161885
 -0.02648413  0.0833531  -0.09567473  0.05914424  0.05247616  0.05944589
 -0.00403457 -0.05819706 -0.00963985 -0.06490316  0.00208267 -0.0453139
 -0.05105701 -0.01677823 -0.07241178  0.02373608 -0.01516315 -0.03089992
 -0.03313296 -0.03344562 -0.01152363  0.04575184 -0.04430006  0.02829709
  0.05900677 -0.1410362  -0.02314748 -0.00264901 -0.03923776  0.04186583
 -0.10986715 -0.05945143 -0.08785126 -0.09627644 -0.0043876  -0.03795014
 -0.01872933  0.09877371 -0.01689042  0.02273071  0.00657175 -0.03759918
 -0.11328226 -0.05639313  0.07806008  0.03308894  0.08671783 -0.08023194
  0.03193732 -0.04540366 -0.06402335 -0.11154761 -0.061707   -0.13894941
  0.01500042  0.04356419 -0.07964307 -0.04948845 -0.05829898  0.00337783
  0.01567481 -0.10201158  0.01305665 -0.10880984 -0.00742377 -0.01765091
  0.02658016 -0.08650603 -0.0168416  -0.05826108 -0.04021871 -0.03013967
  0.07428925 -0.06925157 -0.11452243 -0.0024521   0.02640173  0.07096587
  0.0646653  -0.04764134  0.14847876  0.0755194   0.06898942 -0.077566
  0.03353042 -0.06090761 -0.11865521 -0.03721013  0.04997549  0.0268568
  0.04265822 -0.03317194 -0.03244078 -0.06049538 -0.06934501 -0.07999702
 -0.00143286  0.03690267  0.04668528  0.03975957 -0.00123346  0.09041087
 -0.09908441 -0.00156042 -0.02043819  0.12458249  0.1389022  -0.06798692
 -0.05494834 -0.01441251  0.01453385  0.0375257  -0.05810588  0.04298205
  0.0592224  -0.06883936 -0.00257899 -0.05486595  0.06607107 -0.08954073
 -0.06713585 -0.05968251  0.02527694 -0.01048448  0.01182879 -0.02923376
  0.03670777  0.01328422  0.05436996  0.03164639  0.01057467 -0.0779786
  0.06807922  0.0025358   0.01628555 -0.02681729  0.02298065 -0.11505199
 -0.06620944  0.05652893  0.02690253 -0.03993048  0.00203958 -0.04053451
 -0.00553142 -0.06939773  0.0517162  -0.02808093 -0.06208848  0.05722459
  0.02775269  0.03363056 -0.04779594  0.06013311  0.03110524  0.02002577
  0.00160478 -0.01050533  0.07595102 -0.02938409 -0.00526503 -0.05053611
  0.01441827 -0.14819455 -0.16106269  0.01353196 ]
[ -9.62027684e-02 -4.80053462e-02 -6.82370663e-02 -3.11484393e-02
  1.62287354e-02 -7.82860368e-02 -2.34303530e-02  3.73844965e-03
 -2.70506479e-02 -3.86074558e-02  8.91945884e-03 -3.81453261e-02
 -6.22047344e-04 -1.08158737e-01 -9.27663147e-02 -6.22064061e-02
 -3.17355655e-02 -6.54567927e-02  3.22569795e-02  2.50872057e-02
 -6.64233267e-02  1.60935074e-01  9.13850293e-02  1.11187972e-01
 -1.77833319e-01  1.87291242e-02  8.72944668e-03 -7.88386390e-02
  3.56967188e-02 -2.38884278e-02 -1.00314029e-01 -4.43039201e-02
  1.11404352e-01  1.31474519e-02 -6.01379143e-04  4.29199710e-02
 -1.70369327e-01 -1.12703413e-01 -6.71816431e-03 -1.78949274e-02
 -1.81339204e-01  7.88146928e-02 -5.03583159e-03 -9.82371643e-02
 -1.58580784e-02  3.54313999e-02 -8.03661644e-02 -6.56053424e-02
 -5.56815304e-02 -2.76264064e-02  4.39224876e-02  7.51790330e-02
  6.15463182e-02 -6.48740828e-02  3.17113735e-02  1.14366813e-02
  1.73004437e-02  9.66299325e-02 -3.14867385e-02  4.51485766e-03
 -7.30303153e-02  1.36816828e-02  6.90723304e-03  5.52151818e-03
  3.44299409e-03  7.94199482e-02 -4.78823222e-02  2.83262488e-02
 -1.00852199e-01 -6.43912256e-02 -7.39097642e-03 -5.57355136e-02
 -1.40825007e-02 -1.04055498e-02 -3.17232795e-02 -3.57359909e-02
 -6.55619940e-03  7.04278797e-02 -3.51921506e-02 -1.39189819e-02
 -6.51768222e-02 -3.47942971e-02  8.93142521e-02 -4.60471250e-02
  4.85965200e-02  1.64717007e-02  6.66204374e-03  7.28811771e-02
 -1.55973090e-02  1.96642312e-03 -3.60979065e-02  3.08307931e-02
 -9.84384306e-03  9.42808203e-03 -4.04415168e-02 -7.10995421e-02
 -6.32690489e-02  2.19505816e-03  8.55158642e-02  6.03094772e-02
 -4.72512431e-02  8.95136222e-03  5.31743802e-02  8.41850266e-02
 -2.15809084e-02 -6.45024851e-02  5.48164770e-02 -1.73624195e-02
  3.12513486e-02  6.02232404e-02  2.69557699e-03  2.61624176e-02
 -7.83250034e-02 -9.09077600e-02  7.59971235e-03  5.66184670e-02
 -1.78220887e-02 -6.74069300e-02  5.93978651e-02 -6.24664128e-02
  9.68879163e-02  7.88435191e-02  1.90937594e-02 -1.09203108e-01
  5.68078384e-02  6.79055154e-02 -1.21833403e-02 -9.55562964e-02
  4.88501340e-02 -3.76473553e-03 -1.59103960e-01 -5.70299849e-02
  1.10832624e-01 -6.54248744e-02  5.76723367e-02 -9.65404809e-02
 -5.31839281e-02 -2.63272747e-02  5.71634285e-02 -9.91886556e-02
 -1.17690852e-02  1.47833759e-02 -8.53764862e-02  1.22468375e-01
 -8.28485563e-02 -2.02251808e-03 -2.49673463e-02  9.80895385e-02
  8.77788365e-02  7.53960162e-02  2.62101158e-03 -9.96478498e-02
 -1.70290187e-01  1.14896789e-01  4.31338176e-02  6.23341128e-02
 -1.64542571e-02  3.30541693e-02 -1.02210149e-01 -4.48922589e-02
 -8.18997435e-03 -4.72579151e-02 -6.70295805e-02 -5.68445921e-02
  1.34795725e-01  1.68734752e-02 -3.89872156e-02 -7.20139369e-02
 -8.10857043e-02  2.95493715e-02 -9.82014909e-02  5.64719029e-02
  4.67515774e-02 -8.43960643e-02 -1.09842615e-02  5.82822338e-02
  9.37710777e-02  3.55541334e-02 -7.80414045e-02  1.49489148e-02
 -2.95402277e-02 -3.12396307e-02 -2.23548375e-02  1.15964167e-01
 -2.98898164e-02 -2.61026546e-02 -1.20509481e-02 -2.61876490e-02
  5.75010329e-02 -6.02725670e-02 -4.21322994e-02  6.34923279e-02
  5.97604588e-02 -3.42549235e-02  1.32435381e-01 -8.10088664e-02
 -9.50298011e-02  4.19496419e-03 -3.02337185e-02 -1.03943832e-02
  1.14317867e-04 -3.24299112e-02  1.23540752e-01 -2.40436923e-02
 -6.83010090e-03 -1.29265934e-02  7.63350055e-02 -4.71776910e-03
 -4.67571840e-02  4.15869318e-02  4.24742922e-02  4.79966588e-02
 -4.35818732e-02 -5.40540926e-02 -4.13292423e-02  3.00328527e-02
 -9.50246379e-02 -8.10092911e-02  1.33098783e-02 -3.28441150e-02
  2.88225859e-02 -1.12292685e-01 -9.67897475e-02  2.09860578e-02
 -5.75291459e-04  4.83185146e-03 -1.83300763e-01 -1.14197861e-02
 -1.59143638e-02 -1.58461202e-02 -9.54588503e-02 -1.17792122e-04
  9.69182421e-03  5.22537418e-02 -1.24046588e-02 -7.22690998e-03
 -7.98383579e-02  2.25227815e-03  6.77398816e-02 -6.47212639e-02
  5.44584263e-03 -4.28200923e-02 -9.40012783e-02 -5.44444136e-02
 -5.15175983e-02 -8.12695026e-02  4.52907346e-02  3.97554934e-02
 -1.24441445e-01 -3.44284587e-02  5.53564839e-02  4.42974195e-02
  8.16492829e-04  1.23916030e-01  1.63072363e-01 -1.52029589e-01 ]
[ -1.20070186e-02 -1.20894182e-02  1.85369700e-02 -9.90177970e-03
 -2.11484078e-03  1.27785522e-02 -3.58643854e-04 -1.78050064e-02
  7.00153457e-03 -4.90472279e-03  1.14513729e-02  1.56364422e-02
 -7.53883738e-03 -5.54667227e-03 -1.33157363e-02 -8.43998417e-03
 -9.24490485e-03 -1.05810873e-02 -3.33537435e-04 -2.48477329e-03
 -4.86119138e-03 -1.09169222e-02  6.55528484e-03  8.75669904e-03
 -7.13131530e-03 -7.28858169e-03  6.86746091e-03  6.43455470e-03
  2.46124342e-03  1.23812128e-02 -9.55021288e-03 -2.80567445e-03
 -5.34535805e-03  3.46767274e-03 -2.65646372e-02 -6.90660253e-03
  3.00533907e-03  4.43851203e-03 -4.27253917e-03  5.46816038e-04
  1.37956999e-02  1.03394091e-02  1.06436741e-02 -8.18549655e-03
 -9.86093841e-03 -3.98181006e-03 -8.73460621e-03 -6.22194726e-03
  7.16032367e-03 -1.92352966e-03 -8.55622813e-03 -1.22461393e-02
  1.18548488e-02  1.42589770e-02  1.40029639e-02 -1.18450718e-02
 -9.13709495e-03 -3.75946402e-04 -1.30067868e-02 -4.70132520e-03
 -1.06916437e-02 -4.96205175e-04 -5.29406825e-03  8.48711282e-03
  2.99604004e-03 -1.13554923e-02  1.38610154e-02 -2.43648118e-03
  1.05763096e-02  2.37733126e-04 -6.66434271e-03 -8.59829970e-03
  4.56243288e-03 -3.09110107e-03  1.29867382e-02  4.55160218e-04
 -4.63299034e-03  6.69216691e-03  1.82908718e-02 -1.10128894e-02
 -1.48029160e-02 -9.12629068e-03  2.45195208e-03 -6.63005281e-03
  6.36753859e-04 -9.42257140e-03 -5.34543581e-03 -5.57916192e-03
  1.34383293e-03 -6.84575923e-03  9.72007960e-03  6.90235407e-04
 -6.84107561e-03  1.81022566e-02 -1.30038513e-02  1.16479099e-02
 -2.92435894e-03 -5.13575273e-04  2.86651542e-03 -1.18707903e-02
  4.60807048e-03  6.97740912e-03 -8.57791025e-03  3.14812781e-03
  7.97622092e-03 -7.99431559e-03  1.51286926e-02 -4.39100619e-03
 -4.07709181e-03  5.49675256e-04 -9.34688747e-03 -3.98725271e-03
  6.16044179e-03 -9.02626105e-03  1.30237674e-03 -4.31859028e-03
 -7.55708199e-03  3.56438640e-03 -1.06473090e-02 -1.13772489e-02
  4.09545974e-05  3.68583103e-04 -1.06081441e-02  1.52679917e-03
  1.02196587e-02 -3.65978619e-03  5.84815349e-03 -1.12400008e-02
 -6.44199131e-03  4.96760868e-02  2.96271429e-03 -1.11097507e-02
 -1.17758047e-02  9.46645346e-03 -1.00680767e-02 -2.73485156e-03
 -8.31168890e-03  1.42944474e-02 -1.87514501e-03  2.64389464e-03
 -4.49176040e-03 -3.56272398e-03  2.99549499e-03 -8.35034531e-03
 -1.62483833e-03  4.80212690e-03  1.10362815e-02 -6.29015174e-03
  4.83927596e-03 -1.14241745e-02  8.06538388e-03  8.03006534e-03
 -6.44893665e-03 -2.54504126e-03  5.10869722e-04  4.34230641e-03
  1.59302223e-02  7.32157845e-03  9.93860327e-03  3.37573700e-03
 -8.19608476e-03  3.24074674e-04  2.40563811e-03 -7.62782712e-03
 -9.27071925e-03 -1.25064002e-02  5.56441024e-03 -1.28580211e-02
  9.71432775e-03  2.19457713e-03 -4.83978214e-03 -7.58264167e-03
  3.60336388e-03 -1.53464894e-03  1.36007054e-03  6.78971875e-03
  1.65570667e-03  7.51881511e-04  1.82323519e-03 -8.00562277e-03
 -6.20042160e-03 -1.92569511e-03  1.85853280e-02 -7.99187366e-03
  6.96518272e-03 -3.17395478e-03 -5.09963371e-03  1.36067625e-02
 -8.99350923e-03 -1.92312000e-04 -7.54681835e-03 -3.74721800e-04
  3.54293105e-03  8.77812214e-04  4.80204215e-03  1.65654032e-03
  9.73525364e-03  6.05850155e-03  4.24086582e-03  2.81350291e-03
 -4.89275577e-03  4.51561017e-03 -3.65507347e-03  6.77984953e-03
  3.45272850e-03  1.28297170e-03 -9.30939894e-03 -1.12205707e-02
  9.37387813e-03  8.18946864e-03 -6.82946574e-03  3.11981584e-03
  7.75660574e-03 -9.75278951e-03 -4.14252793e-03  4.70899232e-03
 -8.11825227e-03  5.04747406e-03 -2.36622803e-03 -6.75196899e-03
 -9.17104818e-03 -1.26434993e-02 -6.72021706e-04  1.51865405e-03
 -7.74761802e-03 -3.77344736e-03 -8.20781197e-03 -6.07169420e-03
  1.00969812e-02 -5.73664485e-03 -7.57653359e-03 -5.88854868e-03
  1.04288096e-02  1.13800762e-03 -4.83731180e-03 -1.23565644e-02
 -3.03434674e-03  1.57953458e-04 -9.54652764e-03  5.80454897e-03
 -1.53926993e-02 -4.98888083e-03  8.06106254e-05 -7.95883406e-03
 -1.49242571e-02  1.41730811e-02 -1.64794619e-03  1.22821925e-03
  1.51368964e-03 -8.10125470e-03  1.35631543e-02  7.03436788e-04
  5.77374361e-03 -8.05244315e-03 -1.35417993e-03 -2.02310519e-04 ]
[ -0.00339099 -0.01111882 -0.01269078 -0.00522926 -0.00073484 -0.00513488
  0.01162045 -0.00053408 -0.00610565 -0.00609263  0.00918783 -0.00162502
 -0.00158234  0.0084514   0.00353474 -0.00569496  0.00481528 -0.00397118
  0.00499176  0.00988584 -0.01250285  0.00432464 -0.00592188 -0.00779049
 -0.00345913  0.01247736  0.01230434 -0.00105085  0.01189471 -0.00692301
 -0.00963014  0.00885583 -0.0046114   0.00510531  0.00959452  0.00679544
 -0.01291827 -0.01194852 -0.00015596  0.0023773   0.00801939  0.00694191
  0.00779488 -0.0113629   0.00600902  0.0029046  -0.00100804 -0.01236254
  0.00169131  0.00764686  0.01163097  0.00743843 -0.00800965 -0.00157889
 -0.01235708  0.00592548  0.00841333  0.01132809 -0.00599552  0.00711118
 -0.00885984 -0.00909897  0.00520941  0.00928988 -0.00310873  0.00022039
  0.00050158  0.00047052 -0.0035596  -0.00907696  0.00223738  0.00412998
  0.00426063  0.00136971  0.0040915   0.00983812 -0.0038775   0.00559614
  0.00946652 -0.00463206 -0.0129375  -0.00095353  0.00188972  0.01080476
 -0.00600094  0.00965138  0.00738081  0.00963825 -0.00696534  0.00101329
  0.00363582  0.00033224  0.00652375 -0.01062876 -0.00220807  0.00776526
  0.00906816 -0.00306913  0.01096717 -0.00329466 -0.00454199  0.0051194
 -0.00643048 -0.00845876  0.01248301  0.01271793 -0.01197845  0.00184365
 -0.00147049  0.00145995  0.00311818 -0.00878887 -0.00337914 -0.01244228
  0.01237389  0.00232681 -0.0120307  -0.00687723 -0.00054139 -0.01269952
 -0.01238113 -0.00071605 -0.00040334 -0.00091579 -0.00198172  0.00023575
  0.00033117  0.0046404  -0.0125039  -0.00891353 -0.00160055  0.0058233
 -0.00660799 -0.00243156  0.01054641 -0.00509912  0.0016774   0.00028632
  0.00796052 -0.00250358  0.00266528  0.01172171  0.00979927 -0.0055272
  0.00596405 -0.00844063  0.00618942 -0.00292798 -0.00196652  0.01007409
 -0.01293774 -0.00863125 -0.00270214 -0.01249215 -0.00504508  0.00491899
 -0.00121688 -0.01105645  0.0033611  -0.00575457  0.00495211  0.01076561
  0.00520637  0.00187722 -0.01290515  0.00609864 -0.010005   -0.00901981
 -0.00817736 -0.0120246   0.00456307  0.00898015  0.00406882  0.0019212
 -0.0093125  -0.00928553 -0.00350681 -0.00399079  0.00637968 -0.00076433
  0.01186779  0.00397898  0.00660536  0.0123154  -0.01279445  0.00019931
 -0.0059186   0.00213045 -0.007052    0.00313099  0.00670139  0.00219089
 -0.00889645 -0.00910083  0.00311278 -0.00897592  0.00951705  0.00725461
  0.01203276  0.01221075 -0.00884137  0.01006703 -0.00570296 -0.01209611
  0.00111028  0.00525903  0.00228475  0.00894613  0.00887031 -0.00566961
 -0.00268739  0.00809495  0.00380333  0.00427418 -0.00643234 -0.01213655
 -0.00096594 -0.00636595 -0.00360126  0.01266224 -0.00020307  0.00781775
  0.00199583 -0.00998306  0.00624844 -0.00234326  0.00149573 -0.00951213
  0.00632467 -0.00171138  0.00700355  0.00304584  0.01090565 -0.01288154
  0.01203577  0.01280859 -0.01083113 -0.00654449 -0.01205394  0.00039744
 -0.01279432  0.00060171  0.00164193 -0.01019822 -0.0061089  -0.00362802
  0.01208927  0.00774228 -0.00299457  0.00036421  0.00733202  0.00641223
 -0.00985557  0.01188956  0.00275307  0.0084745  ]
[ -0.09397732 -0.0782458  -0.07879624 -0.08482526 -0.00584703 -0.07932619
 -0.05193005 -0.06673831 -0.07512069  0.01547858 -0.02343646 -0.00020418
 -0.03223968 -0.00708049  0.08653265  0.03192645 -0.1622823   0.0062303
 -0.04541473  0.01786625 -0.06957106 -0.03957787 -0.04282892 -0.16800892
 -0.08127028 -0.03491655 -0.04052185  0.02405635  0.01901036  0.02557327
  0.01239246  0.11787623 -0.05648229 -0.00538892  0.06954761 -0.17111123
  0.01231913 -0.05398281  0.00788062 -0.07651624  0.11875877  0.06677524
  0.0349771  -0.05052971 -0.10710669 -0.0870773   0.07116768 -0.03194712
 -0.06367917 -0.01641369  0.0566202  -0.01157462 -0.17179072  0.03237163
 -0.07768686 -0.00975607 -0.04131113  0.03018315  0.0114475   0.00261497
  0.08124152  0.07882525  0.01540889 -0.03862055 -0.0188642  -0.07291833
 -0.02836823  0.11338834  0.05730331  0.06142683 -0.05767657  0.02013278
  0.01441308 -0.1065435   0.01030884 -0.13182022 -0.00738388  0.17548719
  0.04828987  0.03184374 -0.01244606 -0.00949262 -0.047248   -0.02848461
 -0.01777997 -0.01432797  0.05642559 -0.10767364  0.00739211 -0.06036238
  0.1533398  -0.0228829   0.00740016 -0.04536419  0.04311208  0.04524524
  0.10747597  0.06196745 -0.03642691 -0.00536994 -0.12220497 -0.03777663
  0.03748833  0.02802987  0.02700229 -0.06997079 -0.10554843 -0.03856143
 -0.01623883  0.01527266 -0.05665147 -0.02713025  0.0229696  -0.07456821
  0.03430893  0.08485062 -0.01724663 -0.04757666 -0.08027389 -0.04597478
 -0.05804028 -0.03357469  0.0844349   0.01186819 -0.09642866 -0.05897595
  0.02010467 -0.03049556 -0.10200803 -0.01850549 -0.02985988 -0.00646926
 -0.09096135 -0.11421743 -0.01348046  0.01053315 -0.12390396  0.03913803
 -0.10612993  0.10425215  0.03613593 -0.09183408 -0.03738878  0.09318068
 -0.10383232 -0.02500435 -0.08404664 -0.0090902  -0.03256793  0.10787693
 -0.06078015  0.00473546 -0.04627207  0.00327259 -0.02128685 -0.07663448
 -0.05175514 -0.03596003  0.06386902 -0.08265864  0.0256978  -0.08979517
  0.07053565 -0.01440921 -0.02016821 -0.04699542  0.08749701 -0.01172954
 -0.0646992   0.00617303 -0.00770644 -0.00363146 -0.04423387 -0.07159665
 -0.0016199  -0.02687869 -0.02848046 -0.05303379  0.08367002  0.07967594
 -0.1338719  -0.03378033  0.00272804 -0.00664626 -0.08167426 -0.01039639
  0.01113769  0.0844192  -0.05600475  0.02050207 -0.11954234 -0.1852445
 -0.02905131 -0.12003879  0.06905687 -0.15223016  0.00089687 -0.03440647
  0.04394602  0.02401575  0.12461525 -0.1606061   0.03637565  0.00550189
 -0.03833092 -0.01819348 -0.04028424 -0.0243171   0.02771013 -0.02620653
  0.07705634  0.03817196 -0.00389208  0.01515161  0.0269737  -0.08515778
  0.03570147 -0.03413512  0.05161472 -0.07721891 -0.08499466 -0.18495141
  0.0162976  -0.01577524  0.06077095  0.05948735 -0.00815539 -0.04651345
  0.02759471 -0.05598364  0.02921699 -0.01055757 -0.05366011 -0.10775048
 -0.04075143  0.14332293 -0.09686401 -0.02313562 -0.15107644 -0.06130482
  0.05023246 -0.01508719  0.10357346 -0.0622659   0.10735015  0.00668989
 -0.03929837 -0.01884618 -0.02819245 -0.02930648  0.07873373  0.02286147
  0.10049004  0.08016557 -0.01257127 -0.03050096 ]
[ -6.53873235e-02  1.51689891e-02  1.43004999e-01  1.27916234e-02
  7.47664319e-03 -2.37683970e-02  6.67461157e-02  9.38404426e-02
 -1.35774193e-02  2.56983619e-02  1.49147995e-02 -1.85883731e-01
 -1.10166259e-01 -1.19060680e-01 -6.42540380e-02 -7.26736486e-02
 -8.94912258e-02  6.63770065e-02 -3.72710899e-02 -1.86132997e-01
  1.31126484e-02 -3.17440368e-02  5.33181503e-02  4.89609390e-02
  6.40663430e-02  1.06746763e-01 -1.72704402e-02 -2.24449057e-02
  7.35173794e-03 -5.77635365e-03  4.81427871e-02  2.42750961e-02
 -7.24639446e-02  6.65344745e-02 -3.06100696e-02  7.66533017e-02
  7.16137215e-02  3.68635766e-02  9.60803330e-02 -2.70106755e-02
  3.13650933e-03  5.46941981e-02 -8.75174906e-03  6.80087879e-02
  5.16956523e-02 -1.37051381e-03  6.70944527e-02 -4.89257462e-03
  1.41707256e-01 -3.46294045e-02 -1.82812549e-02 -2.64816936e-02
  1.62256099e-02 -2.07871490e-05  3.37997079e-02 -1.87452555e-01
 -1.06556766e-01  1.55738625e-03 -1.22149900e-01 -8.78352299e-03
 -1.52769297e-01 -5.52021042e-02 -4.72299941e-02  1.20624816e-02
 -6.06679590e-03  3.88495885e-02 -8.89629722e-02 -6.50132820e-02
  1.38805667e-02 -7.50843585e-02 -9.01088342e-02  2.16422647e-01
  3.42542306e-02 -7.38200825e-03  4.79524471e-02  6.11247644e-02
  1.92190837e-02 -5.23020551e-02  1.93143897e-02  2.96692662e-02
 -7.66380578e-02  8.12094733e-02  4.24246490e-02 -1.25586614e-02
 -6.32819310e-02  3.68341878e-02  2.35185679e-02  4.18652855e-02
  4.67390642e-02 -2.87572611e-02 -1.06996097e-01 -5.75230233e-02
 -4.34991159e-02 -4.97810654e-02 -8.38160142e-03  1.52190536e-01
 -6.46138638e-02 -3.20650041e-02  8.53970274e-02 -7.49805123e-02
 -4.12943540e-03  1.06070843e-03 -9.72223654e-02 -1.10671958e-02
 -1.95517540e-02 -3.09473965e-02  1.71391275e-02 -3.40197757e-02
  3.59120704e-02 -2.77237184e-02 -9.63964872e-03  6.18576705e-02
 -4.35668863e-02 -4.75439467e-02 -2.12979048e-01 -1.26175433e-01
 -3.70711051e-02 -7.37198768e-03  6.13054708e-02  6.28601462e-02
 -1.28144799e-02  2.11019516e-02 -1.23835132e-01 -9.23101082e-02
 -1.02181686e-02  1.56602859e-02 -2.08772998e-02  2.58862004e-02
 -3.16146575e-02 -7.57992174e-03  6.42833710e-02 -9.32143852e-02
  8.64157975e-02  3.71300280e-02 -1.11185282e-01  9.51691046e-02
  2.88414527e-02 -1.60196982e-02  7.95848668e-02 -1.42088616e-02
  2.67409943e-02  5.12016052e-03  1.58218890e-01 -4.14151419e-03
  1.11042283e-01 -1.09761707e-01 -4.64839162e-03  2.14196101e-01
  1.06350541e-01 -6.15331084e-02 -2.79310942e-02 -8.38750377e-02
  1.63456276e-02 -6.32590950e-02 -4.71451543e-02  5.18976757e-03
  1.36621548e-02  3.64811160e-02  8.29264335e-03  5.73087409e-02
 -8.25969651e-02  2.99283694e-02 -4.48894501e-02  7.69279758e-03
 -2.82403436e-02 -4.03182395e-02  4.99217324e-02 -1.53111974e-02
  1.62382778e-02 -4.93168421e-02 -4.19244319e-02  2.59583574e-02
 -7.36254230e-02  3.98786180e-02 -1.23533659e-01  8.72573350e-03
  1.00418307e-01 -9.17854719e-03 -1.47306463e-02 -1.22503690e-01
  4.88114618e-02  3.45721804e-02 -5.45595586e-02 -4.46573505e-03
 -2.04893053e-02  2.65798327e-02 -1.28294770e-02 -5.94121926e-02
 -1.23371355e-01 -7.70619214e-02 -6.55661821e-02  6.38328940e-02
  1.37274908e-02  2.57924851e-03 -3.80545333e-02  6.03199415e-02
  2.96123978e-02 -1.52749373e-02 -9.48286280e-02 -1.79663133e-02
 -6.70497417e-02  1.94920450e-02  6.97407573e-02  1.89755876e-02
  5.92914820e-02 -1.05884321e-01 -2.88509876e-02  9.78189870e-04
 -2.22123880e-02  5.39672449e-02 -2.32553408e-02 -1.04241604e-02
  4.98590805e-03  9.39693823e-02 -2.87061520e-02  3.98470201e-02
 -8.33065957e-02  4.21901159e-02 -1.29609972e-01  2.79673152e-02
  7.25993738e-02  1.03250794e-01 -1.83050688e-02 -9.31953359e-03
 -1.05499048e-02  4.45057899e-02 -1.28563389e-01 -1.69040896e-02
 -1.16878495e-01  3.90937403e-02 -4.26955037e-02 -2.96291281e-02
  7.40028098e-02 -1.35903973e-02 -4.53019515e-02 -9.93672386e-02
  5.95115200e-02  7.14450255e-02  6.41342551e-02  1.15404896e-01
 -6.39985278e-02 -6.34393543e-02 -1.20801985e-01 -2.15079612e-03
 -2.44542360e-01  4.42562290e-02  7.29163066e-02  2.40152366e-02
  8.10832232e-02 -4.36098129e-02 -1.19322523e-01 -1.25433907e-01
  3.59715516e-04  3.46783213e-02  1.35859698e-02  4.74378699e-03 ]
[  7.58380219e-02  4.45491150e-02 -5.02785407e-02  8.09852183e-02
 -5.64119667e-02 -6.07298687e-03 -6.08561747e-03  6.46681339e-02
 -6.15977608e-02  2.76003908e-02 -3.88528854e-02  5.39480336e-02
  7.38183931e-02  9.32758525e-02  5.36345094e-02 -6.16320185e-02
  7.55357444e-02 -5.96543364e-02  5.97085841e-02  1.35400817e-01
  2.28600968e-02  1.72683466e-02 -4.30422164e-02 -2.98546571e-02
  1.26370331e-02 -1.19192012e-01  4.82484372e-03 -1.33469868e-02
 -2.36073118e-02  6.31624311e-02 -8.66067335e-02 -7.90715069e-02
  1.73714086e-01 -2.18523182e-02 -5.00225611e-02  3.12271584e-02
 -1.45935461e-01  1.98137295e-02 -6.82579949e-02  1.72405578e-02
 -1.64038479e-01  1.45335505e-02 -5.74776791e-02  2.10063420e-02
 -9.63575765e-03 -1.42921228e-02 -7.66473860e-02  5.78131042e-02
 -5.57487383e-02  3.44636701e-02 -7.61434510e-02 -4.06010151e-02
  5.80503158e-02 -1.12605236e-01 -1.46915972e-01  5.94745278e-02
  1.65920593e-02  2.28813216e-02  9.55131128e-02 -2.76512071e-03
  2.13906597e-02 -8.73775631e-02 -4.35671583e-02  8.75754878e-02
 -2.21530497e-02  5.71905077e-02  1.10869259e-02 -1.01492316e-01
 -1.02394104e-01  2.62469072e-02  7.25450516e-02 -1.28230631e-01
 -2.04729721e-01  4.82511632e-02 -5.65652400e-02  3.07325050e-02
  7.16606155e-03 -1.08381473e-01  1.81775354e-02 -8.87214467e-02
 -1.18370488e-01  4.13573124e-02 -3.32790576e-02 -5.43327245e-04
  6.47868514e-02 -1.22952826e-01 -3.27070877e-02 -4.95922752e-02
 -4.95422482e-02  1.17360070e-01 -5.76408952e-02 -3.59001793e-02
 -3.92509550e-02  2.74426378e-02  4.53010201e-03 -9.95927602e-02
  5.99853769e-02 -5.44626731e-04  2.32591853e-03 -3.68020162e-02
  4.54793647e-02 -3.06730103e-02  2.98980111e-03  6.44740015e-02
 -1.37171391e-02 -3.05741876e-02  3.24421041e-02 -7.38177309e-03
  3.12404661e-03 -7.79366270e-02  2.40389127e-02  2.70118774e-03
 -4.70298417e-02  6.81882054e-02  7.67546445e-02  8.18766803e-02
 -4.77209361e-03 -5.02655916e-02  3.75764742e-02 -6.02148063e-02
 -8.38065594e-02  1.14419088e-01 -1.23392940e-02  1.59970317e-02
 -1.22795179e-02  4.81728688e-02 -6.67968113e-03  2.64870725e-03
  3.29190791e-02  7.24000856e-03 -8.16484988e-02 -2.32405756e-02
  4.59264629e-02  6.17439859e-03  1.04796261e-01 -5.60420007e-03
  7.74433464e-03 -5.52173033e-02 -1.48460898e-03 -6.83040693e-02
 -7.15649426e-02 -4.28887717e-02 -6.87028021e-02 -5.43568097e-02
 -9.67319012e-02  1.18067995e-01  6.00634180e-02 -5.17119505e-02
 -1.41117528e-01 -1.56621356e-02  3.33705656e-02  5.77427633e-02
  1.01058089e-04  9.47407335e-02 -1.36483703e-02  3.44010293e-02
 -2.63204183e-02 -9.99951586e-02  2.33678038e-05  8.14439878e-02
 -5.55299260e-02 -1.22123756e-01 -2.90296320e-03 -1.15719453e-01
 -8.59645233e-02  3.63688357e-02 -1.06458947e-01  2.93377880e-03
  1.36933718e-02  1.62884046e-03 -3.24255228e-02  7.90554564e-03
  1.44203544e-01  3.71224061e-02 -3.58210802e-02 -2.89542563e-02
 -2.78485548e-02 -4.54197712e-02 -1.29280752e-02 -4.88696806e-02
  7.94413015e-02  5.53253293e-03 -1.98453236e-02 -5.03312536e-02
  6.35433272e-02 -4.27725278e-02  5.01825800e-03 -2.94498652e-02
  1.21482156e-01 -1.14676403e-03  8.21434781e-02  3.52562033e-02
  1.76128242e-02  9.85547677e-02 -6.35264441e-02  6.28669634e-02
 -4.37921770e-02 -4.23844904e-02 -3.61127518e-02 -8.79748724e-03
 -3.45348716e-02  6.20324835e-02 -5.98665979e-03 -1.40113831e-02
 -1.76681168e-02  9.26389396e-02  4.84899729e-02  3.55847403e-02
 -3.71041335e-02 -8.83349404e-02  6.24411181e-02 -7.52049387e-02
 -8.06717575e-02 -9.09038782e-02 -8.41473341e-02 -5.60845109e-03
  1.50219603e-02 -2.11230852e-02  3.11395526e-02  9.69544277e-02
  3.04176565e-02  4.64464203e-02 -6.94224015e-02 -8.03004205e-03
  1.39950598e-02 -8.95863622e-02  9.39523354e-02  8.13672785e-03
  3.98135372e-03  2.05327384e-02  4.07353304e-02  8.26094125e-04
 -1.38508990e-01 -6.66313320e-02 -5.03146276e-02 -9.87767726e-02
  4.50827368e-02  1.19053945e-02 -5.08133210e-02  3.72131243e-02
  3.57134677e-02 -1.16587821e-02  3.69561575e-02 -2.35786624e-02
  9.10528824e-02 -6.81778267e-02 -6.74048066e-02  5.76020963e-02
 -1.05452910e-01 -1.93617232e-02  4.25065169e-03  2.30040066e-02
 -1.60525233e-01 -2.07710445e-01  2.72236746e-02  6.36614561e-02 ]
[  7.37961307e-02 -4.04638276e-02 -6.37196898e-02 -4.17864174e-02
  4.68285456e-02  4.52810489e-02 -5.00355884e-02 -9.95085239e-02
  1.13490634e-01 -7.91397095e-02 -3.83855850e-02  1.11061476e-01
  3.89227457e-03 -6.74262689e-03 -8.42670724e-02  5.97382598e-02
  1.38598755e-01 -1.34698739e-02 -5.84385097e-02 -1.65275093e-02
 -1.78277884e-02  1.11642843e-02 -8.23001005e-03  6.26864433e-02
 -1.85591690e-02  2.90639345e-02  4.11634631e-02  7.35068228e-03
  1.12015242e-02 -1.04242712e-01  4.33727615e-02 -1.06309116e-01
 -1.46197706e-01 -6.13247491e-02 -3.87143008e-02  4.40021344e-02
  2.48437617e-02 -8.45117867e-02 -4.81588580e-02  2.18691789e-02
 -2.42755581e-02 -1.36469573e-01 -4.79783043e-02 -7.17880055e-02
  1.15685572e-03 -4.13182378e-03 -1.44426793e-01 -6.99094608e-02
 -2.13335045e-02  2.10933890e-02 -4.03137952e-02  7.26336688e-02
  4.11382839e-02  5.13683166e-03  1.29931197e-01  8.38546306e-02
  5.86858578e-02 -1.17978774e-01 -2.83322297e-02  4.37686546e-03
 -3.42976418e-03  3.62423994e-02  3.16772684e-02 -9.55671519e-02
 -1.31966686e-02 -5.53495027e-02  8.30522031e-02  3.49646658e-02
 -1.36561254e-02 -5.81604280e-02  4.80328202e-02 -1.67701989e-01
  7.95284435e-02 -8.43201671e-03 -4.30512652e-02  1.10637732e-02
  3.46572767e-03 -3.35682631e-02 -9.84794199e-02 -3.76868136e-02
  1.87857464e-01 -1.45783424e-01  4.86909971e-03 -5.08060418e-02
  7.31854059e-04  1.04203373e-01 -6.77554235e-02  2.88074743e-03
 -6.88461587e-02 -3.60281318e-02 -3.22583914e-02  1.12787224e-01
  5.43870702e-02  2.24680547e-03 -9.10910070e-02 -1.15702793e-01
 -1.64441049e-01 -1.28675587e-02 -5.78940362e-02  4.59583439e-02
  3.78047936e-02  2.83253510e-02  3.24757881e-02 -6.94543868e-02
 -5.78434914e-02  5.75700626e-02 -1.73866760e-03 -2.04839371e-02
  1.52556633e-03  3.94084752e-02 -1.40120266e-02 -8.26322734e-02
  5.20426966e-02  1.60998926e-02  2.35095900e-02 -9.95106176e-02
 -1.61111765e-02  9.63524729e-02 -5.17651662e-02 -2.18708906e-02
  8.67505372e-02 -9.61603299e-02  2.71569770e-02  4.39656675e-02
  9.49842706e-02 -4.21946421e-02  3.40459943e-02 -4.56781387e-02
  6.93698227e-02 -1.37413917e-02 -5.25832176e-04  3.06146387e-02
 -5.22070788e-02  2.23238282e-02 -4.32648920e-02 -1.18684709e-01
  6.43906444e-02  9.64161474e-03  8.62489268e-03 -7.01247901e-02
 -1.03915930e-01  6.36565238e-02 -8.83380547e-02 -4.01367918e-02
  1.22218430e-02 -1.29272975e-02 -1.82537753e-02 -1.52642712e-01
  7.43768737e-02 -1.10103205e-01  2.92013325e-02 -3.16125602e-02
 -1.82861078e-03 -8.13817903e-02  1.74463110e-03  1.20644849e-02
  3.63348871e-02  7.39094317e-02 -1.20968953e-01 -9.25096050e-02
  9.08314437e-02  1.16078749e-01 -3.29433121e-02  7.78935403e-02
  1.41298011e-01 -2.44871266e-02 -1.93766598e-02  3.79464999e-02
 -2.85551912e-04  3.53860147e-02 -7.38352537e-03 -8.11687112e-02
 -2.60807220e-02 -3.69834527e-02  9.01564509e-02  4.75717932e-02
 -5.70954308e-02  1.69249009e-02 -6.29759133e-02  1.60525050e-02
 -3.68226878e-02 -2.30612308e-02 -1.02114433e-03  1.55104911e-02
 -6.47727698e-02 -2.67945928e-03 -7.39553617e-03 -7.49422284e-03
  5.76340891e-02  6.64775399e-03  4.90553305e-02  1.49482051e-02
 -3.50439847e-02 -2.89575066e-02  8.12547188e-03 -1.16573991e-02
 -5.92421927e-03  1.07811861e-01  9.29778740e-02 -3.57186026e-03
 -8.53424743e-02  3.08303051e-02 -1.21600449e-01 -6.04762957e-02
 -3.26205306e-02  3.48830270e-03 -3.93370055e-02 -5.74685298e-02
 -4.65457104e-02  4.09069136e-02 -1.52805313e-01 -3.31861852e-03
  5.76986447e-02 -5.79910278e-02  6.32760823e-02  2.10005250e-02
  3.74906845e-02 -3.63093577e-02  5.79801155e-04 -5.02900034e-02
 -1.14152422e-02 -2.12292504e-02  4.07033600e-02 -2.76109669e-02
 -1.41889676e-01 -4.85468246e-02 -3.37938010e-03 -4.39625829e-02
  4.34642881e-02  8.27307068e-03 -4.25829887e-02 -2.71042380e-02
  8.27364102e-02  1.31368980e-01  8.64146873e-02  7.16490448e-02
 -5.80520928e-02 -5.25319949e-02  1.14083260e-01 -8.76842216e-02
 -1.00197919e-01  7.98683614e-02 -5.72170764e-02  5.17391227e-02
 -2.59116944e-02 -4.43452336e-02 -2.62910519e-02 -1.03478506e-01
 -1.47366052e-04  4.45796438e-02 -5.21344803e-02  2.64767259e-02
  2.07438786e-02  5.08768260e-02 -1.04834966e-01 -1.29013255e-01 ]
[ -0.01145698 -0.00553475  0.0175437  -0.0007352   0.00334985  0.01215201
 -0.00023776  0.00112985 -0.00474644 -0.00179544  0.0077156  -0.0024335
 -0.00527361  0.01167514 -0.00600436  0.00832043  0.0047284   0.00544083
  0.00082468 -0.01045982 -0.00959009 -0.0034255   0.00724117 -0.00853673
  0.01056267 -0.00862389 -0.00590559 -0.00081589 -0.01253436 -0.00064697
 -0.01107743 -0.00955878  0.00240539 -0.01530249 -0.01812756  0.00645587
 -0.00357778  0.01038667 -0.00417746 -0.00248312  0.01258507 -0.0050348
 -0.01315559  0.01841933 -0.008306    0.00251578  0.00167025  0.01256942
  0.00065661 -0.00096115 -0.01401782  0.00566648 -0.00049769  0.01522505
 -0.00423038  0.00219625  0.00554629 -0.00641895 -0.00010636  0.01112469
  0.01195924 -0.00145334 -0.00205867 -0.0099243   0.00096575  0.00730141
  0.00711232 -0.00921016 -0.01010041 -0.01067236 -0.00634124  0.00088748
  0.0111593  -0.00444494 -0.00279725  0.00396124 -0.00797602 -0.00425707
  0.01029131 -0.00919028  0.01033663 -0.0059944   0.00014064  0.00927307
 -0.00592406 -0.0005071   0.01100143  0.00288395 -0.00046695  0.00557398
 -0.00159905  0.00130505  0.00510745  0.04509522  0.01104418 -0.00772948
 -0.0047685  -0.00166088  0.00072298  0.00363192 -0.00381155  0.0085806
 -0.00893745 -0.01058251  0.01083932 -0.01053737  0.01985391 -0.01387332
 -0.00309906  0.00691808 -0.00472423  0.00180396 -0.00928329  0.00314294
 -0.0001392  -0.0089179  -0.00350573 -0.00691206 -0.00096601 -0.01077815
  0.00964375  0.00938069  0.0099267  -0.0033819  -0.01254089  0.00086502
  0.02702874 -0.00347656 -0.00600057  0.05981735 -0.00649334  0.01138882
  0.00989525  0.00863182  0.00312346 -0.00739809 -0.00067139  0.00337783
  0.00253963  0.00295609 -0.00947286 -0.0034011  -0.00905189 -0.0124994
 -0.00933259  0.00576729 -0.00582611 -0.00313179  0.00158001  0.00617226
 -0.01162328  0.01386864 -0.01021511  0.00879055 -0.01102277 -0.00397784
  0.01737821 -0.01142376  0.01059581  0.00288725  0.00018958 -0.00088472
 -0.00614064  0.00961042 -0.00899828 -0.00651215 -0.01001992 -0.0042874
 -0.0070552  -0.00240202 -0.01160864  0.00020697  0.0101865   0.0149668
 -0.0174611   0.00930282  0.00244341 -0.00696478 -0.00346539 -0.00081582
 -0.00437938 -0.00163746  0.01138956  0.00980225  0.00751521 -0.0084743
 -0.00280715  0.00369521 -0.00203783  0.00552253  0.01234573  0.00244971
 -0.01143607 -0.00778624 -0.0015069   0.01030269  0.00482496  0.01375652
 -0.0052096   0.01484168  0.00989966 -0.00638217 -0.01140823  0.00493678
  0.01113295 -0.00998096  0.00513416 -0.00448166 -0.00620602  0.00881957
  0.00811631  0.00990683 -0.00778393  0.01221528  0.00128262  0.00852169
 -0.00291636  0.00170183 -0.00134128 -0.00984692 -0.01337088 -0.01614249
  0.00119401  0.01458446  0.00191966 -0.00830486 -0.00903345  0.0014685
 -0.00104782  0.00306217 -0.01099955  0.00527912  0.00552535  0.01104524
 -0.01104086 -0.00036981 -0.00811807  0.01000979 -0.01288271  0.01072614
 -0.00150255 -0.00995299 -0.00547947  0.00605197 -0.00723834  0.01046197
  0.00363702  0.00782124 -0.01047163 -0.010035    0.01440948 -0.00327846
  0.00333266 -0.00096099  0.01080235 -0.00308253 ]
[  7.49865221e-03 -5.11836493e-03  1.01208286e-02  4.87046642e-03
 -1.27437105e-02 -7.83895608e-03  6.32101949e-03  5.07245911e-03
 -1.00674741e-02 -7.49416277e-03 -1.24816354e-02  4.54226183e-03
 -7.96738267e-03  4.62958543e-03  2.32256227e-03  1.19855814e-02
  1.00101642e-02  1.58974575e-03  5.51242428e-03 -9.09809768e-03
  3.66240926e-03 -1.93808868e-03 -7.29872007e-03 -8.07562284e-03
  1.07547138e-02 -1.26805212e-02  5.93819749e-03 -1.13985976e-02
  2.46113120e-03  5.48150064e-03 -6.71529770e-03  3.75436945e-03
 -1.20902322e-02 -7.68451020e-03 -1.11846998e-02 -1.12016127e-02
 -5.80730243e-03 -5.25630126e-03  6.48804056e-03  7.19904783e-04
 -9.50685423e-03  9.91354976e-03  1.23519416e-03  3.75264091e-03
 -8.81922618e-03 -5.78257395e-03  2.35574692e-03  8.54440220e-03
  1.22631732e-02  1.13079436e-02 -8.83063022e-03  5.90402400e-03
  5.73184853e-03 -2.35614087e-03 -7.56013300e-03 -4.16399213e-03
 -1.00124823e-02  9.03068669e-03  8.42385832e-03 -1.17725842e-02
  5.34370448e-03 -6.82584755e-03 -7.68470345e-03 -1.09550497e-02
 -8.26564152e-03  1.13623440e-02 -8.38119537e-03  5.54149179e-03
  1.07663106e-02 -6.98036421e-03 -1.00972867e-02 -2.93132802e-03
  1.14631122e-02 -6.06611883e-03 -1.11875795e-02 -5.85463503e-03
 -9.07950941e-03  2.83016614e-03  9.69605579e-04  7.98309222e-04
  4.59989673e-03  1.53250767e-05  9.53888800e-03  4.44754073e-03
 -1.23370430e-02 -6.36085868e-03  4.56765248e-03 -1.09719476e-02
 -6.08120859e-03 -8.96896794e-03  2.09942809e-03  8.95575248e-03
  1.20094549e-02  6.10371702e-04  1.12731755e-03  6.30169059e-04
 -1.26773221e-02  2.71081855e-03 -4.86804917e-03  1.25167705e-02
  7.47784600e-03 -9.97806340e-03  1.09978830e-02 -3.94204957e-03
 -4.05585114e-03  1.12330937e-03  2.37596268e-03 -4.72621573e-03
  7.27551989e-03  7.17393262e-03 -3.03124078e-03 -6.40628161e-03
  1.51437067e-03 -6.19534403e-03 -1.14344340e-02 -6.92467112e-03
  7.71594420e-03 -4.27894993e-03  6.02234434e-03 -3.91191756e-03
 -7.72446301e-03 -9.57466569e-03  9.21793189e-03 -7.31108524e-03
 -1.13330176e-02  1.18485969e-02 -1.80190196e-03  6.99312834e-04
 -1.07864030e-02  1.26312198e-02 -1.61364849e-03 -5.28476201e-03
 -9.52422526e-03  6.77543553e-03 -8.00692849e-03 -6.49111532e-03
 -7.21468870e-03 -4.57218336e-03 -1.14399567e-02  3.44662997e-03
 -9.76234861e-03  7.50750210e-03 -1.01542368e-03  4.87916404e-03
 -6.03521941e-03 -8.83080624e-03  1.21968081e-02  1.11887446e-02
 -1.28382156e-02 -5.11269085e-03  1.85856130e-03 -9.07567609e-03
  8.97217356e-03  6.92914147e-03  1.97374215e-03  4.47564013e-03
  9.96381417e-03 -4.02001292e-03 -2.19808239e-03 -7.71489041e-03
 -4.45523561e-04 -9.09981970e-03 -1.06447386e-02  8.57299846e-03
 -9.39725619e-03  9.82937310e-03  5.92325488e-03 -1.05940579e-02
 -8.69921222e-03 -1.18465116e-02  1.07034072e-02  4.49189916e-03
  1.23327656e-03  6.98424270e-03  7.25634454e-04  1.28565198e-02
  8.80252197e-03 -2.94302648e-04 -1.22546190e-02  8.12561810e-03
 -2.35972437e-03 -7.58377044e-03  1.25633245e-02 -1.14056310e-02
 -1.09718181e-02  1.20481029e-02  9.54229105e-03 -6.20009750e-03
 -9.89862811e-03  4.03189007e-03 -2.77408934e-03  3.84127884e-03
 -4.34212713e-03  6.01401133e-03  7.63392681e-03 -1.01109373e-03
  3.71102802e-03  1.11968657e-02 -1.79776503e-03  2.04974995e-03
  3.35800578e-03 -9.68931057e-03  7.61956035e-04 -6.63217157e-03
  1.71298612e-04  4.45503014e-04 -9.90251545e-03 -9.94596910e-03
  2.65580748e-04 -3.33718606e-03  6.79210946e-03 -1.18938796e-02
  3.19452025e-03 -2.01067701e-03  2.17591086e-03 -2.89594958e-04
  9.49904975e-03  9.45802871e-03 -5.68012334e-03 -8.87718517e-03
  2.54845945e-03  5.09512424e-03  1.03629958e-02 -9.60989669e-03
  3.59001849e-03  2.11691554e-03  5.41610131e-03  1.13210296e-02
  7.52844941e-03 -1.22511212e-03  7.79578416e-03  3.02860397e-03
 -1.17345704e-02  4.73561184e-03 -6.28228183e-04 -2.76619778e-03
 -5.44751808e-03  4.08352586e-03  7.27486378e-03  4.28721355e-03
 -4.32079937e-03  1.29459752e-03 -6.90534711e-03 -9.44623351e-03
  8.04445706e-03 -1.11310622e-02 -7.90029671e-03  7.29224412e-03
 -6.78480184e-03  6.87176036e-03 -9.50463023e-03  8.04609712e-03
 -2.85984506e-03  1.00953635e-02  6.11003581e-03  7.22969975e-03 ]
[ -1.45790443e-01  3.89294885e-02  9.62560549e-02 -7.28895888e-02
 -4.46573682e-02 -9.34866071e-02 -5.11657298e-02 -3.54663581e-02
  3.93933570e-03  2.32615396e-02 -5.94837815e-02 -1.57759249e-01
 -5.74355647e-02 -4.92554577e-03  1.09585596e-03 -1.13803327e-01
  9.92667079e-02  3.23786661e-02 -3.65874805e-02 -1.23235555e-02
 -1.56797096e-03  3.83752994e-02  1.13100730e-01 -4.76072803e-02
  2.89088134e-02 -4.46148850e-02 -3.16125453e-02 -1.32426292e-01
  9.34258383e-03  1.35151632e-02 -6.23312593e-02 -8.10986236e-02
  6.44676760e-02  6.52279258e-02  1.01387233e-01  6.35611489e-02
 -1.82116982e-02 -4.05945107e-02 -4.43001725e-02 -1.71947163e-02
  5.56988567e-02 -5.39898290e-04 -9.25083384e-02 -1.56364694e-01
  7.41367787e-02  8.65356997e-03 -1.04097113e-01  1.13693506e-01
  2.69860700e-02  9.50207338e-02  8.23234394e-02 -8.39835312e-03
 -6.59910366e-02 -3.36825699e-02 -9.30670723e-02 -1.90328415e-02
 -1.30812779e-01 -2.92322170e-02  1.70410164e-02 -7.94213611e-06
 -6.42921552e-02 -2.39118934e-03  3.15047316e-02  2.15195846e-02
  9.25276615e-03 -4.98699909e-03 -2.49069128e-02  7.18101710e-02
  3.25375684e-02  2.80803945e-02  4.97423075e-02 -1.33609176e-01
  3.83716784e-02 -1.87392551e-02  4.74369489e-02  3.18676829e-02
  8.69773328e-03  9.08968449e-02  1.82800852e-02 -7.63621032e-02
 -1.39169656e-02  1.65716946e-01 -1.04647540e-02 -5.84583059e-02
  4.32299525e-02 -3.78887206e-02  2.63435487e-02  1.83464214e-02
  5.76940319e-03 -9.76816118e-02  8.00780654e-02  1.08126618e-01
  3.32103483e-03  1.46488473e-02  4.87905331e-02 -1.82320978e-02
  8.18208456e-02  2.60061212e-02  1.22736342e-01 -1.65219292e-01
 -6.59314096e-02  8.93693324e-03 -1.22387543e-01 -2.84239799e-02
 -4.19858173e-02  1.36624873e-01 -1.98590890e-01 -1.76387243e-02
  4.27980199e-02 -2.26954166e-02  5.00415713e-02  2.83766780e-02
  6.19390905e-02  6.08153529e-02  3.15969810e-02 -2.12409627e-02
 -2.55028568e-02  7.15202466e-02  5.31311445e-02  6.11911900e-02
  2.59659104e-02 -2.16707960e-02  2.17298716e-02 -1.02900259e-01
 -1.27788365e-01 -3.71448360e-02  1.78991146e-02  9.50094312e-02
 -1.03554465e-01  2.60469457e-03  6.98846951e-02 -1.10926874e-01
 -4.66358550e-02  1.09428251e-02 -1.60575613e-01  1.32373422e-01
  3.83741893e-02  3.04718167e-02 -3.43212932e-02  7.79879838e-02
 -7.39264041e-02 -5.54853790e-02  3.26226540e-02 -4.92455484e-03
 -9.86613333e-02  1.16907373e-01 -1.96114089e-02  1.18743971e-01
  1.45463005e-01 -4.98725735e-02  1.70291145e-03 -5.59259877e-02
 -2.05439068e-02 -1.02042504e-01 -1.02071084e-01  2.80784965e-02
 -4.94459830e-02  8.15763548e-02 -1.41850598e-02 -6.38967752e-02
 -1.84077784e-01 -5.61746545e-02 -5.19182198e-02  2.19082050e-02
  7.84666836e-02 -1.27310395e-01 -3.74391451e-02  1.37778148e-01
 -1.19958371e-01 -1.04815081e-01  1.48756340e-01  3.08614857e-02
  3.64517272e-02 -9.60815176e-02 -9.21908543e-02  3.22047086e-03
  2.01706495e-02 -8.59682113e-02 -1.11512691e-01 -3.64552848e-02
  2.30402276e-02 -1.43898740e-01  1.89148486e-01 -6.54988214e-02
 -1.73235849e-01 -1.37083814e-01  6.10363623e-03 -2.69211531e-02
 -1.60179198e-01 -2.26279199e-02 -1.43255591e-01 -5.05354069e-02
 -2.37552840e-02 -4.05890122e-02  8.89554173e-02  3.60061564e-02
 -6.86703026e-02 -1.04100116e-01  4.95848842e-02  2.16643475e-02
  8.72243370e-04  8.68652761e-03  1.65581152e-01 -4.87372093e-02
  1.45146444e-01  2.00558305e-02  4.93864194e-02 -3.58305797e-02
 -1.52869478e-01  4.45386730e-02 -1.90211087e-02 -1.77650079e-01
 -9.60699469e-02 -5.89106753e-02 -6.27775341e-02 -4.68989350e-02
  5.73275425e-02 -1.08861685e-01  5.03582731e-02  6.52844459e-02
  2.69870013e-02  7.28306919e-02  7.22145885e-02  5.78223169e-02
  4.47480846e-03 -8.33296105e-02 -8.14974681e-02  2.79315431e-02
  6.35521859e-02 -3.78927067e-02 -3.51149663e-02  5.67336902e-02
 -1.00296875e-03 -8.12027082e-02 -4.96040285e-02 -1.52997300e-01
 -2.04562113e-01  2.69771013e-02  3.17954533e-02  7.22942827e-03
  3.72873135e-02  2.36842316e-02 -1.30969346e-01 -8.62985477e-02
  7.73891527e-03 -7.36879127e-04  1.97310485e-02 -2.05640525e-01
 -8.07284117e-02 -2.10048873e-02 -1.82891004e-02 -4.46985289e-02
 -3.33770216e-02 -1.15980819e-01  1.07208472e-02 -1.02049589e-01 ]
[ -1.87757164e-02  1.11253686e-01  2.14040820e-02 -2.93502361e-02
 -2.47062258e-02  7.40316138e-03  6.57713413e-02 -2.47003008e-02
 -2.98191234e-02  3.82323074e-03  2.43163272e-03  8.41154829e-02
  1.09574787e-01  3.17798145e-02 -2.50921641e-02  8.26208964e-02
 -4.90446649e-02  4.05588821e-02 -1.11127451e-01  1.77965593e-02
  4.30981964e-02  4.94590029e-04  4.91171889e-02 -8.33954066e-02
  4.10305783e-02  2.77695223e-03  2.69098580e-02 -3.68392169e-02
 -6.33164719e-02  7.95011297e-02  2.73802765e-02  2.30337679e-02
  2.01166272e-02 -9.87343937e-02 -1.41783237e-01 -1.06634889e-02
  2.09502410e-02 -2.32085283e-03  3.40364240e-02 -9.15232822e-02
 -5.92117012e-02 -4.65589799e-02  8.75279382e-02  6.79248720e-02
 -3.49119343e-02 -1.08386219e-01 -5.50713651e-02 -3.13306204e-03
 -8.23254734e-02 -1.00578047e-01 -1.57902449e-01 -1.79448121e-04
  2.86853649e-02  8.37309808e-02  1.80971064e-02  1.40857659e-02
 -2.98686549e-02  1.75838023e-02 -3.47302444e-02 -8.05656519e-03
  1.44329329e-03  7.10738525e-02 -5.03152572e-02 -5.58258109e-02
 -8.06886237e-03  2.88458131e-02  1.05184294e-01 -1.40733048e-01
 -1.34579670e-02 -4.35437672e-02  3.46023999e-02  2.83455979e-02
 -6.10519573e-02 -6.62957057e-02 -9.51031372e-02 -5.88057376e-02
 -2.36500218e-03  4.73215766e-02 -4.49916460e-02  1.39363063e-02
 -1.35771362e-02 -8.92062411e-02  8.85810480e-02 -3.19048017e-02
 -7.80222416e-02 -5.97064532e-02 -9.99447331e-02 -9.58569720e-02
  5.05378246e-02 -2.51213536e-02 -1.06007144e-01 -1.58675611e-01
 -3.11523007e-04 -9.15729031e-02 -7.74203427e-03 -4.65593748e-02
 -2.73297839e-02  3.22542563e-02  6.91021979e-02  2.64917631e-02
  4.63228673e-02 -7.01463129e-03  2.23555699e-01  7.03071989e-03
  2.90522892e-02 -1.22922435e-02  3.70869786e-02 -5.14160395e-02
 -8.78630579e-03  1.28094004e-02 -1.17801219e-01 -5.36605576e-03
  1.39899515e-02 -2.14148551e-01 -1.02887809e-01  2.74933353e-02
 -1.21456804e-02  4.08245344e-03 -1.30870938e-01 -1.49076134e-01
 -2.48673018e-02  2.25553103e-02 -7.20955282e-02  8.43089074e-02
  7.37700332e-03 -8.85231867e-02 -2.15146057e-02  7.05401367e-03
 -5.67830317e-02 -2.27258075e-02 -5.02691306e-02  2.43841391e-02
  1.52767047e-01 -5.21902405e-02  4.61673550e-03 -1.34600595e-01
 -4.72790897e-02  1.40411323e-02 -4.66574728e-02 -1.12020291e-01
  8.19737017e-02 -3.07575706e-02 -5.37216961e-02 -4.78023328e-02
  5.22365421e-02 -4.80535328e-02  6.67974874e-02 -6.35726005e-02
 -1.13066636e-01 -1.11584008e-01 -5.42750321e-02 -9.27196816e-03
  9.89769772e-02  9.09554288e-02  5.39196990e-02  2.14900345e-01
  6.84396103e-02 -1.03512719e-01  6.48839921e-02 -9.53328907e-02
  1.02783941e-01 -2.86276210e-02 -1.28141999e-01 -1.83781743e-01
 -2.54862178e-02 -9.15053673e-03 -1.23447292e-02 -4.96745249e-03
  3.10698878e-02  1.37793180e-02 -1.44592866e-01  1.86726898e-02
  2.20931191e-02  4.63206209e-02  3.54184373e-03 -1.09487459e-01
 -1.45541374e-02 -2.07546242e-02  8.54970887e-02 -1.39311329e-01
  7.59850293e-02  3.10753495e-01 -7.02416226e-02 -4.37402213e-03
  1.65460244e-01  6.86988309e-02 -1.65748764e-02  2.47928929e-02
  1.16770320e-01  5.55162244e-02  5.14425002e-02 -2.87523074e-03
  1.90667342e-02  6.58920035e-02 -1.52849639e-02 -8.72961804e-02
 -2.83674560e-02 -9.88621414e-02 -5.63379601e-02  7.25224195e-03
 -5.53673767e-02  1.52061759e-02 -2.11546440e-02 -6.57453835e-02
 -6.61121979e-02  2.71955281e-02 -1.34774074e-01  1.14468865e-01
  1.31425243e-02 -1.51679829e-01  4.93868813e-02  7.99400434e-02
  4.27416041e-02 -1.38195530e-01 -1.56134572e-02 -1.09855033e-01
 -2.37549120e-03  6.72408100e-03 -1.14802802e-02 -5.18064685e-02
  7.59525076e-02  4.95733842e-02 -1.36013865e-01  1.56114465e-02
 -8.36343691e-02  4.68695201e-02  1.35972440e-01 -2.21723150e-02
 -6.74715862e-02  5.56029119e-02 -5.46757225e-03 -3.64701338e-02
  1.92657113e-01 -2.89360378e-02  4.38894629e-02  1.39788136e-01
  9.91135240e-02 -9.79388412e-03 -2.79654283e-02  1.23732863e-02
 -4.76772487e-02 -3.15751322e-02  2.02038750e-01  5.24004549e-02
  4.49500009e-02  1.07842214e-01 -9.45803896e-02  1.15920722e-01
 -1.73579308e-03 -7.81738609e-02  2.95855571e-02 -2.45820899e-02
 -9.64665692e-03  9.95994285e-02 -8.05759504e-02 -2.69239526e-02 ]
[  2.29956463e-01 -1.24568723e-01 -1.03962615e-01  5.54111525e-02
 -1.16274832e-02 -3.21527049e-02 -3.25453654e-02 -1.04231779e-02
 -3.06529328e-02 -2.77985241e-02 -1.56408809e-02 -3.57742570e-02
 -1.38915554e-01 -6.16755220e-04  6.60393089e-02  2.55845673e-02
  4.29210514e-02 -4.97140400e-02  1.28896669e-01 -2.79177874e-02
 -1.34137459e-02 -5.06576933e-02 -1.35891035e-01 -4.64321254e-03
 -4.54821177e-02  9.33892559e-03 -1.27694651e-01  2.97405832e-02
 -9.08475835e-03 -1.45002574e-01 -7.86765739e-02 -1.45307109e-02
 -1.12141639e-01  7.66243115e-02 -1.72063652e-02  2.63210777e-02
 -1.03324234e-01 -1.02306306e-01 -9.63302180e-02  5.11012040e-02
 -8.94063413e-02 -6.44904673e-02 -1.26569584e-01  4.46337126e-02
 -9.11178887e-02 -4.56474945e-02 -9.13315192e-02 -9.54495966e-02
  7.76505619e-02 -6.19021803e-02  9.79508311e-02  6.36343881e-02
 -3.76505852e-02 -4.59149890e-02 -2.01193243e-03 -2.65698396e-02
  2.50833686e-02 -3.94591801e-02  1.22549813e-04 -7.93166365e-03
  1.63082182e-02 -2.55797561e-02  1.81157663e-02 -5.88065647e-02
 -2.22446211e-02  3.03010717e-02 -9.15919021e-02 -6.32438064e-02
 -2.03728359e-02 -6.04979210e-02  4.05395404e-02  3.59357037e-02
  5.28081059e-02  3.43389548e-02  1.89573783e-02  4.85839099e-02
 -2.21138052e-03 -2.89582293e-02  1.77448280e-02 -4.86555435e-02
  3.14240064e-03 -1.20288640e-01 -8.24495256e-02  7.12437257e-02
  6.14783214e-03  1.15403540e-01  7.48678371e-02 -1.31586120e-02
 -1.58888385e-01  1.33056426e-02  2.94461213e-02 -1.48049574e-02
 -2.46296842e-02 -3.21457833e-02  3.04957647e-02  6.85132369e-02
 -8.71494189e-02 -5.45041263e-02 -1.71718493e-01  4.71288785e-02
 -8.91387016e-02 -3.09986025e-02 -4.37505580e-02 -7.26406425e-02
  2.73114722e-02 -8.13713148e-02  4.90202531e-02 -3.23190242e-02
 -7.98882470e-02 -5.84167689e-02  8.10147449e-02  3.90127040e-02
 -4.10250500e-02  1.16781339e-01  1.11548297e-01 -6.36578575e-02
  7.47122476e-03 -1.10061072e-01  6.50619045e-02 -5.02387099e-02
 -5.09530194e-02 -4.52855427e-04 -1.72669217e-02 -1.04766367e-02
 -5.29373996e-02  4.80614454e-02  2.54225414e-02 -1.89111546e-01
  9.15330872e-02 -1.65545009e-02  5.41205592e-02 -6.22204393e-02
 -3.82899754e-02 -7.35760927e-02 -3.86334099e-02  1.22331781e-02
 -3.67189199e-02 -4.06192690e-02  1.49011657e-01 -1.29179403e-01
 -8.75908509e-02 -7.72139058e-02 -2.31492706e-02 -1.93531737e-02
  1.00396506e-01  4.19665836e-02 -1.44676968e-01 -8.71160347e-03
  1.12071037e-01  1.03824595e-02 -3.46983783e-02  4.45377780e-03
 -4.95291315e-02 -5.72801493e-02 -6.40913770e-02 -1.31471872e-01
 -4.22699340e-02 -5.04274406e-02  2.91472580e-02  5.99805228e-02
  7.72976577e-02  4.12289537e-02  1.14509203e-01  5.11232503e-02
 -1.06049754e-01 -7.84281194e-02  2.52290200e-02 -1.49478748e-01
  8.16889629e-02  1.28911346e-01 -1.17111113e-02  1.12308757e-02
 -8.48899968e-03  8.04476067e-02 -3.22748981e-02  1.37197524e-01
  2.93482468e-02  3.36526744e-02  3.14202346e-02  8.83356705e-02
 -1.34138584e-01 -9.16277841e-02 -1.56346276e-01  1.53559027e-02
 -6.59995675e-02  5.16923591e-02 -7.41268089e-03 -4.93103825e-02
 -4.27614078e-02 -1.39674172e-01 -2.76538208e-02 -1.10070415e-01
  1.94325950e-02 -4.85373996e-02 -5.85776046e-02 -1.50581617e-02
  9.04152021e-02 -4.10426728e-04 -1.14843762e-02 -2.12120712e-02
  1.14437342e-02  7.26646110e-02 -9.69970897e-02  4.01676334e-02
 -4.43019159e-02 -2.59825662e-02 -7.05756098e-02 -1.30243421e-01
  3.85014787e-02  3.87181416e-02 -1.54638395e-01 -3.86191010e-02
  2.95444112e-03  3.87036838e-02  1.57272711e-01 -1.24539202e-02
 -1.09859966e-01 -3.10650729e-02 -3.97520736e-02  1.02092167e-02
 -4.95545939e-02  6.13628188e-03 -3.91895212e-02 -2.55552884e-02
  5.45194931e-02 -9.62539762e-02 -1.63398236e-02  1.13574509e-02
  7.45885132e-04 -7.70083209e-03 -5.20379059e-02 -1.90700404e-02
 -1.15293801e-01 -1.80189554e-02  3.14450935e-02  3.13194515e-03
 -8.99245311e-03 -4.24129795e-03 -1.56965647e-02 -7.70412683e-02
 -2.37970129e-02 -7.64683560e-02 -1.30299300e-01 -4.43843640e-02
  3.40506695e-02  2.92475545e-03  1.85340270e-02  4.12099361e-02
  2.02244874e-02  3.15665416e-02  2.08717585e-02  5.44051081e-02
 -9.17113945e-03  3.11733764e-02 -7.11371154e-02  7.01217428e-02 ]
[ -0.10515495 -0.08070937 -0.03735255  0.02588279  0.07714826  0.01505664
 -0.01978337  0.06104703  0.06665082 -0.05145431  0.0236137   0.08539914
  0.01821977 -0.04264862 -0.08291416 -0.01108867 -0.12262206 -0.02287317
 -0.07488455 -0.04700759 -0.05918615 -0.03676444 -0.07023964  0.08343429
 -0.06905894 -0.01616125  0.0729524   0.12500446  0.05357703  0.03175293
  0.05922759  0.01979878 -0.08405756 -0.04194013  0.01915943 -0.10484672
  0.06448541  0.08852416  0.08984861 -0.00258812  0.04283309  0.09470148
  0.09762026  0.03533051  0.00226206  0.06559722  0.18658099 -0.00863169
 -0.02458362  0.05915682 -0.05143227 -0.10150528  0.04257048 -0.04964233
  0.01840391  0.0135097   0.08826686 -0.01286288 -0.04845396 -0.01335568
  0.03464413 -0.08352374 -0.03899005  0.0266249   0.01680243 -0.09071358
 -0.01746796  0.1141902  -0.05722983  0.02414375 -0.15824696  0.00855374
 -0.0951426  -0.01087937 -0.01784494 -0.03315282  0.00344521 -0.13889323
 -0.03276299  0.06764825 -0.00253692  0.03406105 -0.00684118 -0.06695834
  0.02622814 -0.04126509 -0.04289103 -0.02492423  0.08479328  0.07477701
 -0.04073667  0.03658267 -0.01560519  0.06869297 -0.1057681  -0.04036396
 -0.03818728  0.01689811 -0.00525509 -0.00288554  0.05380731 -0.03619268
 -0.08293866  0.10119234 -0.01909682 -0.09212052  0.08091949  0.00995519
  0.02479127  0.05472978 -0.07033541 -0.07164203 -0.04121399 -0.02437577
 -0.09544139  0.03657997 -0.02115997  0.02762691 -0.05116567  0.07279138
 -0.00169329 -0.00669739  0.03413698 -0.03231959  0.13052694  0.03490775
  0.04463425  0.04438576  0.02705719 -0.02585107 -0.09460767  0.08572452
 -0.0972176   0.09176224  0.16116028 -0.03684808  0.02848696 -0.00946434
 -0.08895862  0.11082915  0.00939059  0.07577018  0.02983899  0.02735434
 -0.12498304 -0.14094348  0.06056954 -0.05518119 -0.14724681  0.11402305
  0.08641784  0.00934305 -0.05976255  0.03383443  0.04831311 -0.1208552
 -0.01852692  0.02684171 -0.11265459  0.06423037 -0.05601856  0.01473186
  0.02734533  0.08351784  0.0428133   0.12916324  0.02487007  0.01609564
  0.010129   -0.04349905 -0.05461587 -0.09602628 -0.07621864 -0.06598824
  0.0484393  -0.02705446 -0.06662279  0.03349977 -0.03051825  0.05325855
 -0.01076123 -0.09351037 -0.03801154  0.00179658 -0.0064775  -0.022193
 -0.01184633  0.03116407  0.06561287  0.09070572  0.06414384  0.11760404
 -0.02597766 -0.04505193 -0.06593324  0.02028045 -0.02177482  0.14147167
 -0.01371892 -0.00469043 -0.01856605 -0.11468272 -0.09333689  0.03079415
 -0.07287221 -0.01472272  0.11500218 -0.04489948  0.01384407  0.07233043
  0.04918844  0.05434413  0.04276209  0.09862514 -0.08329322  0.09202582
  0.02278397  0.12335659 -0.04837281 -0.01732451 -0.06968449 -0.19055964
  0.05459145 -0.07327139 -0.04660811  0.05767648 -0.08778261 -0.07269883
 -0.05251459 -0.0173241   0.05396391 -0.0401203  -0.1278395   0.09748965
 -0.03407329  0.007295    0.08168342  0.02317995 -0.05350248  0.00564834
 -0.05434329  0.08078588  0.0228514   0.05336042 -0.11822556 -0.1695666
  0.01122241 -0.00228524 -0.00079007  0.01109815 -0.11999245 -0.04731971
  0.0191757  -0.07623088  0.05323727 -0.03616392 ]
[  3.24030314e-03  1.38688339e-02 -2.36474816e-03 -9.95611027e-03
 -8.46063346e-03  5.46415336e-03  5.34532452e-03 -4.30889195e-03
  9.23640281e-03 -8.49927962e-03  1.99925508e-02  1.46401832e-02
  6.81745354e-03  3.10812541e-03 -1.47719244e-02  1.05644017e-03
  3.11638997e-03  1.04866112e-02  1.09102372e-02 -3.32078105e-03
 -9.20960307e-03  4.26766463e-03 -1.49028031e-02 -4.10493370e-03
  2.66965269e-03 -9.42080002e-03 -5.57342265e-03 -3.50304809e-03
 -7.59024546e-03 -1.05107473e-02 -1.06889615e-02 -7.68839382e-03
  6.88288314e-03 -3.87188955e-03 -2.49346197e-02  1.45829758e-02
 -4.96098399e-03  3.48886149e-03 -1.08876815e-02  1.30769005e-02
  7.28018582e-03 -1.40349951e-03  8.98318132e-04  1.06718419e-02
 -1.67818926e-03  8.63575842e-03 -4.84929187e-03 -3.31266434e-03
 -1.29257524e-02 -1.23000043e-02 -7.48155219e-03  8.75670090e-03
 -3.12637305e-03 -1.00622382e-02  1.91333378e-03  1.21159740e-02
  1.35926967e-02  1.29677346e-02  3.28946928e-03  7.56695075e-03
 -1.02817221e-02 -4.83537465e-03 -1.18264826e-02 -1.58174359e-03
 -1.11417361e-02 -6.71898341e-03  9.56271589e-03 -1.02098770e-02
  1.32575701e-03 -1.08970720e-02 -2.05497630e-02 -6.29810337e-03
  7.88250286e-03 -9.67340637e-03 -7.74517888e-04 -2.18981481e-03
  9.86027648e-04 -4.34051082e-03  3.68468813e-04 -5.30908816e-03
  4.95585892e-03  7.95943663e-03 -4.17846581e-03  3.25249066e-03
 -1.69301720e-03 -1.16753187e-02 -9.74036660e-03  1.16108479e-02
 -6.44807471e-03  8.03478807e-03 -8.88467114e-03  1.17425611e-02
 -9.50630940e-03  5.81238940e-02 -8.34883831e-04 -7.46357720e-03
  7.20517803e-03  8.16428941e-03 -5.79336612e-03 -8.24798644e-03
  1.11683046e-04  4.72187139e-02  4.21390077e-03  9.05646011e-03
  2.68521346e-03 -3.49471928e-03  1.52831543e-02 -1.33712059e-02
 -1.45650515e-02  7.65412289e-04  1.30421938e-02 -4.49350057e-03
  7.57866073e-03  9.56446957e-03  7.47017795e-04 -2.81019509e-03
 -1.47658642e-02 -1.17857791e-02 -1.09260613e-02 -2.41746809e-02
 -8.52657109e-03  3.12016439e-03  1.50082251e-02  8.69975053e-03
 -7.66018964e-03 -1.99773349e-03  2.16967892e-02  1.18906777e-02
 -9.05606430e-03  9.04091448e-02  2.44490453e-03  1.07306922e-02
 -6.92565693e-03 -1.13823013e-02 -1.69969234e-03 -1.14039509e-02
 -1.22611094e-02 -3.57441744e-03  9.75330640e-03 -7.77683221e-03
  8.90169013e-03 -6.97832508e-03 -1.87800801e-03 -3.04861786e-03
  7.43097020e-03 -1.12626832e-02  2.11968343e-03 -7.25339446e-03
 -3.64179118e-03 -6.80724988e-05 -8.60671662e-07  1.84982945e-03
  5.85098099e-03 -6.47466769e-03 -7.35521025e-04 -2.49965372e-03
  1.26740197e-02 -1.29845869e-02 -1.07969176e-02 -7.05008337e-04
  1.22150509e-02  9.35432129e-03 -8.08199681e-03 -1.07280603e-02
 -1.21089350e-02 -7.62387877e-03 -8.35624617e-03 -2.15697801e-03
  4.96384734e-03 -1.93331228e-03  9.15043172e-04  8.66757147e-03
 -1.02434587e-02  4.69859829e-03  5.99129405e-03  9.22599342e-04
  1.85581762e-03  3.54330312e-03 -9.45060980e-03  2.51128408e-03
 -6.81605516e-03  8.21114238e-03  1.36767197e-02  1.03391586e-02
 -4.69799945e-03 -1.14074501e-03  5.68798371e-03 -1.20688826e-02
 -1.34498510e-03 -1.03689590e-02 -6.71920483e-04  6.18211832e-03
 -2.32386007e-03 -1.55702163e-03 -3.75872967e-03  1.01672104e-02
 -5.07450523e-03  6.10425277e-03 -1.14705060e-02  6.94570225e-03
  1.82317887e-02  2.57227896e-03  9.18350182e-03  1.76728833e-02
  3.74273024e-03 -9.87670268e-04  8.70063319e-04  4.48893616e-03
  1.46111315e-02 -1.04045765e-02  1.18798716e-03  6.35872222e-03
  1.00427233e-02  8.73321295e-03  1.96951907e-04  9.04620718e-03
 -2.79340544e-03 -5.67365997e-03 -4.99176094e-03 -7.87234027e-03
 -5.96968038e-03 -1.23790922e-02  1.16455685e-02  1.20304069e-02
  1.49080623e-02 -7.32964138e-03  3.05292825e-03 -4.86102980e-03
 -7.74005661e-03  1.09995226e-03 -9.55597591e-03 -1.06423199e-02
 -1.31080365e-02 -1.13485232e-02  1.25447419e-02 -1.06075490e-02
 -2.41739731e-02  9.44538973e-03 -5.26185753e-03  1.16297242e-03
 -1.46404952e-02 -1.19139021e-02  8.68722796e-03 -8.08222312e-03
  1.89597812e-03 -5.88775519e-03 -4.28951439e-03  4.72184038e-03
 -9.96271987e-03 -6.10285718e-03  4.56041517e-03  3.00173392e-03
  6.19958434e-03 -1.89958385e-03 -6.53369958e-03  1.51526602e-03 ]
[ -0.00067189  0.0043137   0.00830945 -0.00868056 -0.00357254 -0.00695826
  0.01158387 -0.0095561  -0.00208925  0.00383877 -0.00899943 -0.00715841
  0.00240114 -0.0128863  -0.00819037 -0.00131197  0.00455086  0.00262943
  0.00457843  0.01237847  0.00145587 -0.00059757  0.00215182 -0.00815405
 -0.00251518 -0.01101719  0.01065612 -0.00669018 -0.0117948   0.00593351
 -0.00176123  0.0118066  -0.00926172 -0.00724971  0.00813377 -0.00295222
 -0.00978275  0.00236544 -0.00025559 -0.01236684  0.00840442  0.00271451
 -0.00338788 -0.00929879  0.01028456 -0.00255446  0.00533211 -0.00648946
 -0.01278912  0.00758161  0.00018534  0.00210544 -0.00285876  0.00556032
  0.00253204  0.00554611  0.01178007 -0.00683774  0.00492924  0.00982501
 -0.00812459 -0.01209697 -0.00771407 -0.00415817  0.01126308  0.00236442
 -0.00687584  0.00500157  0.01047532 -0.00324758 -0.00750562 -0.00220929
  0.00204337  0.00456384 -0.00828116  0.01013112 -0.01031851 -0.00477005
  0.01217544  0.00053458 -0.00636017 -0.00183497 -0.00214011  0.01230492
 -0.00655557 -0.00225445 -0.01166981 -0.00928784 -0.00370845 -0.00331994
 -0.00054137  0.00461937 -0.01280456  0.00484816 -0.01104706  0.00138232
 -0.01044739  0.00474179  0.01251359  0.01205177  0.00437957  0.01016722
  0.00352526  0.0082905  -0.01052125 -0.00221413  0.00196042 -0.00903893
  0.00326288  0.01144823 -0.01157155 -0.01221005  0.00464898  0.01225853
  0.00854555  0.01066752 -0.00930566 -0.00807458  0.00575974  0.01136874
 -0.00926903 -0.01180334 -0.01243565 -0.00723642 -0.00733855 -0.00261549
  0.00217803 -0.00764783 -0.00113197 -0.01248236  0.00881383  0.00681229
  0.00902847  0.01196215  0.0078876   0.00490611  0.01231402 -0.01208472
 -0.0065458   0.01129051 -0.01250447  0.00458502  0.00215707  0.01204343
  0.00734841 -0.01017085 -0.01165728 -0.00372795 -0.00299154  0.00128864
 -0.00111372  0.0120919   0.00484254  0.00509195 -0.00153066  0.00166574
 -0.00255131  0.00816394 -0.01196567  0.00104126  0.009427    0.01007525
 -0.00766768  0.00396949 -0.01141699  0.00849907  0.00573958 -0.01241886
 -0.00291129 -0.00516162  0.01154247 -0.00184093 -0.00957592 -0.00481725
 -0.01220077 -0.00925637 -0.00093448  0.01042016 -0.00461525 -0.00420963
  0.01167157 -0.0024335   0.00299474  0.00669851 -0.00923286  0.0096064
  0.01219747  0.01081446 -0.00166323 -0.00323727  0.01275145 -0.00456319
 -0.00497707  0.01268771  0.0019807  -0.01036153  0.00415968  0.00994444
  0.00624058 -0.00016483 -0.00894893  0.00631231 -0.00889853  0.01028055
 -0.01111174  0.00178547  0.01056642  0.00289011  0.00933556 -0.00768529
  0.00102124 -0.01252979 -0.01154725  0.00737651 -0.004429   -0.01123206
 -0.01006502  0.01064355  0.00389311 -0.00257525 -0.01276342  0.00643232
  0.00293456  0.01137658 -0.00206366  0.00105774 -0.00925561 -0.00020263
  0.00762297  0.01144133 -0.00517629 -0.00553556 -0.00587497  0.00421581
 -0.00360068 -0.00333509  0.00847112  0.01147541  0.00239199  0.00661239
  0.00436317 -0.0020811  -0.00633469  0.01004238  0.0056207  -0.01149307
 -0.01139118 -0.01045176 -0.01225837  0.00390631  0.00719748  0.00959131
 -0.0077811   0.00651267 -0.00701935  0.00377585 ]
[  6.69335946e-02  1.58787176e-01 -4.84480783e-02 -2.58997027e-02
 -7.67256916e-02 -1.41035795e-01 -4.94420715e-02  4.19449061e-02
  2.23246310e-02  1.45459846e-01  2.33961660e-02  3.93684208e-02
  8.99363533e-02  2.52283402e-02  2.90807541e-02 -5.11638150e-02
 -1.50524331e-02 -2.92944862e-03  2.15830952e-02  9.18849036e-02
  4.29864079e-02  7.43601024e-02  1.31516159e-01 -1.01380631e-01
  4.80357930e-03  7.03477673e-03  2.35225260e-03  1.67355046e-01
 -1.00813862e-02 -4.42441627e-02 -1.70518085e-01  5.17953001e-02
 -1.83943976e-02  4.00988385e-03  4.88604978e-02  1.07759997e-01
 -3.67417261e-02  9.36262682e-02 -3.84059139e-02  1.54763997e-01
  6.34627119e-02  1.13743648e-01  9.01727155e-02  2.72104703e-02
  3.43391746e-02 -1.78234696e-01  2.30985768e-02  4.81045805e-02
  7.97930658e-02 -7.50941504e-03 -6.93262368e-02 -1.47661999e-01
 -3.39808036e-03  9.97142494e-02 -1.14555739e-01  7.15015084e-02
  1.06732935e-01 -1.19256809e-01  8.92236382e-02 -2.31505837e-03
 -4.62202281e-02  1.16123080e-01  4.85178344e-02 -4.33291681e-02
 -2.35276818e-02 -4.05095145e-02  1.30824726e-02 -1.77436918e-02
  4.25223038e-02 -5.99936843e-02 -2.92020105e-02 -5.01728132e-02
 -4.51759212e-02 -2.79557016e-02 -8.17462131e-02  1.12935649e-02
 -1.37626184e-02  3.96505930e-02  1.34324208e-02  6.48183078e-02
  9.40202400e-02  2.83700109e-01 -1.40024170e-01 -4.30647954e-02
 -4.94339578e-02 -6.44797385e-02 -5.85864820e-02  2.76125222e-02
  2.04347730e-01  6.98314607e-02 -7.15724379e-02 -9.22582373e-02
  2.06003636e-02 -3.66394930e-02  1.47429362e-01  3.57449800e-02
  2.05184356e-03  1.05404593e-02  9.31858718e-02 -1.03192367e-01
 -1.72949936e-02  5.09277266e-03 -2.99992822e-02 -8.08961876e-03
 -4.07628305e-02 -6.73621297e-02  7.81335458e-02 -4.42177430e-02
  8.19252506e-02  6.68880120e-02 -2.23335385e-01 -5.73728010e-02
  1.76815704e-01  6.82090223e-02 -1.19106052e-02  9.80906654e-03
  2.29600375e-03  1.10216990e-01  3.47643532e-02  6.86249975e-03
 -1.55846402e-01  2.71224640e-02 -6.45020828e-02  7.09240660e-02
 -1.44343115e-02  1.05060712e-01  1.90373436e-02 -1.32024303e-01
  1.17605040e-03 -1.73121560e-04 -1.17863826e-02 -1.31430700e-02
 -1.80430561e-01 -3.68579142e-02 -9.78062674e-02 -1.41901672e-01
 -6.55697950e-04 -2.03041937e-02  4.42667268e-02  1.13913856e-01
 -1.06641762e-01 -8.24558884e-02 -1.88823529e-02 -4.54825312e-02
 -6.99427947e-02 -2.38126963e-02 -7.93761015e-02 -2.40380596e-02
 -2.66998075e-02  6.59319013e-02 -1.92460828e-02  4.41635661e-02
  5.54582477e-02  2.21764222e-02  1.39936715e-01  3.45210321e-02
  7.44083226e-02 -7.38751236e-03 -4.69138101e-02 -1.52545795e-01
 -2.09940732e-01  5.21239452e-02 -3.85381915e-02  2.66239475e-02
  5.20092435e-02  2.37352829e-02 -7.82698691e-02 -1.59246683e-01
  1.89409163e-02 -7.28112385e-02  3.73475291e-02 -2.10041478e-01
 -1.22990273e-01 -2.44765636e-02 -3.51030342e-02 -7.24058449e-02
 -1.99963376e-02 -5.28660081e-02  5.21965139e-02 -1.02589525e-01
 -4.35873680e-02  1.01942658e-01 -6.24120273e-02 -2.23098770e-02
  6.75121993e-02 -1.30860820e-01 -9.52459872e-03  5.16735157e-03
  5.79927005e-02  1.05691841e-02  1.45963999e-02  5.39824851e-02
 -7.75564387e-02  1.87982358e-02  9.82483104e-02 -5.23631983e-02
 -5.08552752e-02  1.83283649e-02  1.63496695e-02 -2.32060719e-02
 -4.67771739e-02 -1.10434152e-01 -1.19431727e-01 -4.00190502e-02
 -9.15004835e-02 -5.38518988e-02 -1.12425409e-01 -7.51712546e-02
 -8.88181403e-02  4.17002887e-02 -1.45727813e-01 -8.28571804e-03
 -1.12758592e-01 -5.21555394e-02  1.70219429e-02 -9.62599814e-02
  7.84052312e-02 -5.42946979e-02  4.15574275e-02 -2.33826544e-02
 -4.18507420e-02 -1.03870973e-01 -2.36727912e-02 -1.98564623e-02
  9.18181464e-02 -1.58390418e-01  6.79074377e-02 -5.01942933e-02
 -3.44075374e-02 -1.42728269e-01 -1.33769885e-01 -9.68023390e-02
 -7.08041759e-03  2.76586823e-02  7.48534873e-02  1.46084756e-01
  1.22374646e-01  2.12317780e-02 -6.69477358e-02 -4.22809646e-02
  3.41696478e-02 -5.60531728e-02 -1.23698488e-01 -1.09477855e-01
 -5.43123856e-02 -2.87117064e-02 -2.49544196e-02 -3.63664851e-02
 -8.01106766e-02 -4.42150235e-02 -3.46241482e-02 -5.85240610e-02
  1.12904631e-01 -4.88205925e-02 -7.77800828e-02 -2.01767106e-02 ]
[  0.02979087  0.11804254 -0.20182951  0.05330659  0.04321438 -0.05119454
  0.08977357 -0.09037103  0.04747644 -0.09122726 -0.07256675  0.10913756
  0.08003965 -0.04086341  0.04403191  0.09662077 -0.00808756  0.08528406
  0.06650275 -0.06440538 -0.00963193 -0.07277701 -0.12434628  0.00825866
  0.05454068  0.00548762 -0.08386226 -0.02930726 -0.06117728 -0.04990103
  0.07591184 -0.04966437 -0.06674837 -0.03562696 -0.07546337  0.12226948
  0.0508071  -0.00285543  0.18768431 -0.13271953 -0.14974432 -0.0822627
 -0.03756895  0.01577664 -0.00876294  0.05622316  0.04561116 -0.09040622
 -0.01607497 -0.1161539  -0.1535605   0.06055839 -0.0785483   0.05400598
 -0.05856394  0.02493538 -0.12014717 -0.01330675 -0.07287299 -0.00089549
 -0.09747027 -0.10157465 -0.09356897 -0.02384788 -0.00791866  0.01617304
 -0.13765877  0.0410006  -0.05556934  0.03195995 -0.01443007  0.01943459
  0.02030127 -0.12175354  0.07080082 -0.05509422 -0.0032991   0.14028777
 -0.00740784 -0.0053861  -0.13297066 -0.06633244  0.08018561 -0.01018039
  0.07867498 -0.01524119 -0.01733618 -0.07638305 -0.10605031 -0.07357426
  0.06804981  0.06529177  0.01233415  0.06964307  0.07416853  0.02025015
  0.08852768 -0.10257567  0.02065023  0.20897283  0.02199923 -0.05152089
 -0.16686174  0.03163462 -0.01300238 -0.08597002 -0.14241949  0.01563565
 -0.15637968  0.1705376  -0.00302683 -0.05850095 -0.04946235 -0.06440534
  0.03778141 -0.00041004  0.00175504  0.13408814 -0.05716122 -0.1605474
 -0.0018375  -0.11151727 -0.02506082 -0.10698516 -0.09009842 -0.16283642
 -0.07083026  0.17007536  0.01764892 -0.0299331  -0.01679202  0.1151669
  0.0427743  -0.1572698  -0.0288646   0.15151921 -0.03701384 -0.10083456
  0.0155652  -0.04768984 -0.06941244  0.08892963  0.02642853  0.06352549
  0.01107153 -0.05265406 -0.01193549 -0.04711517 -0.03045565  0.0365604
 -0.03043163  0.02998322 -0.09963425 -0.16442078 -0.03995292  0.16939087
 -0.07590595 -0.05485279 -0.00541677  0.06127426  0.14716282 -0.22263797
 -0.03303225  0.02761359 -0.0942339  -0.0526542  -0.01307011 -0.016104
  0.0182707  -0.01141149 -0.11447607  0.05709216  0.1356424   0.12337564
 -0.08087867  0.0316219  -0.08701581  0.01265596 -0.16669284  0.11856909
 -0.02269312 -0.1327044  -0.02522011 -0.01344004 -0.05798062  0.00279685
 -0.00608299 -0.05258747 -0.01009423  0.01228115  0.08682882  0.00775995
  0.0558746   0.09984307 -0.0542322   0.08376096  0.02421972  0.07813253
  0.01546381  0.03484603  0.05124272  0.09626782  0.00224242  0.0466127
  0.19669446 -0.01958357  0.00292929  0.11462981 -0.14569184 -0.06083018
 -0.12250106 -0.14613326  0.17522645 -0.03211219  0.00206767  0.1607615
 -0.07706054  0.13045153 -0.15499274  0.02631261  0.13612525  0.09089617
  0.03434742 -0.02823444 -0.03293537  0.14348201 -0.05466397  0.0267489
 -0.10042177  0.02267715 -0.1138771   0.07077914 -0.08919626  0.01530047
  0.02494873 -0.12102261  0.03348105 -0.09174631  0.07510334  0.15589944
  0.04153675  0.04070688 -0.06399383 -0.06163082 -0.02207568 -0.05989711
 -0.03418981 -0.09020115 -0.07078519  0.15878212  0.15866673  0.0041841
  0.06561825 -0.11805394  0.01647561 -0.03915194 ]
[ -9.38087106e-02 -1.99907482e-01  7.08011538e-02 -4.25360836e-02
 -8.24706070e-03  7.14067882e-03 -7.09998608e-02  7.13464171e-02
 -2.59825699e-02 -2.70924959e-02 -4.29648906e-02 -6.18775152e-02
 -1.05720647e-01  5.95104098e-02 -1.33900523e-01 -6.57676952e-03
 -6.32762909e-02  1.24652898e-02  1.32634239e-02 -1.60869017e-01
 -7.16360286e-03  2.08837874e-02 -4.24294136e-02 -6.31774664e-02
  5.85758798e-02  8.06149654e-03 -6.80975569e-03 -1.27042741e-01
  1.57332569e-01 -5.47500141e-02  1.21168040e-01 -1.29386008e-01
 -1.28045708e-01 -2.83217616e-03 -4.44634892e-02 -1.31725654e-01
 -8.22616592e-02 -5.27855903e-02 -4.10423093e-02 -8.15592706e-03
 -5.84781617e-02  9.98848863e-03 -1.26905799e-01  2.53902879e-02
 -2.34847236e-02  7.45668337e-02  4.47492441e-03 -6.86399788e-02
 -3.84799764e-02  1.09082431e-01  5.93749844e-02  8.32385272e-02
  5.31405881e-02  2.53527462e-02  7.88585171e-02 -9.28627048e-03
 -6.53902441e-02  5.62742203e-02 -4.31664512e-02 -1.07979747e-02
 -7.69004598e-02  2.69884858e-02 -1.17399611e-01  1.26196325e-01
 -4.87803575e-03 -1.49281574e-02 -6.05231561e-02 -2.32496727e-02
 -9.55947787e-02 -3.03725600e-02 -4.69861813e-02 -3.02133393e-02
  2.29247864e-02  2.78129987e-02 -3.93407270e-02  7.73955733e-02
  2.49441080e-02 -1.77617192e-01 -3.95292789e-02 -4.27290834e-02
 -1.89898014e-02 -1.23091295e-01 -1.81088646e-04 -6.24153577e-02
 -1.08383121e-02 -5.02863266e-02 -6.41027987e-02 -8.15248415e-02
 -9.84183773e-02  2.85055190e-02 -9.09816027e-02 -7.06727616e-03
 -4.53961566e-02 -5.28708547e-02 -2.20287398e-01 -4.21494953e-02
 -1.06313005e-01 -3.60062858e-03 -1.53148979e-01 -9.87481475e-02
  4.45450563e-03 -1.55379483e-02  1.59959979e-02  3.15313637e-02
  8.88437182e-02  3.84590439e-02 -2.50184555e-02 -1.65886991e-02
  8.16007853e-02 -1.50409475e-01  9.18608382e-02  1.25648782e-01
 -1.72249660e-01 -4.54205088e-02  7.17472956e-02 -7.38773197e-02
 -3.64768803e-02 -5.92001677e-02 -9.00934860e-02 -3.91681446e-03
 -2.20922865e-02  7.92760253e-02  1.29668340e-01 -2.09148884e-01
  1.76156051e-02 -1.00515434e-03  2.61885263e-02 -1.07121721e-01
 -1.38360843e-01 -3.44981663e-02 -6.08307831e-02 -1.23706549e-01
  1.02771267e-01  6.34229705e-02  1.60587072e-01  2.87060570e-02
 -1.85594726e-02 -3.46999802e-03 -9.39129479e-03  5.61171435e-02
 -1.88862849e-02 -1.71122447e-01  7.48588666e-02  1.54507980e-01
 -9.57576325e-04  4.52391021e-02  9.60047022e-02 -6.16854280e-02
  5.32426462e-02 -4.68436517e-02 -1.31661305e-02 -4.98919711e-02
 -7.90725946e-02 -4.69604880e-02  1.21753827e-01 -9.05181766e-02
 -5.78021556e-02 -4.79213260e-02  2.68383697e-02 -3.10253687e-02
  1.04740731e-01  1.98550045e-01  1.52400583e-02 -1.73621342e-01
 -7.87531286e-02  3.25010307e-02  8.71004760e-02  1.43633068e-01
 -2.26839888e-03  1.00021519e-01  5.60390484e-03  4.18720096e-02
 -2.72247363e-02  7.63097182e-02 -6.16384484e-02  8.94572884e-02
  1.27677053e-01  2.42387690e-03 -4.95050550e-02 -9.32629500e-03
 -5.20053655e-02 -1.95211153e-02  5.14650643e-02  1.50637887e-02
 -9.60940868e-02 -8.95241052e-02 -7.11003551e-03  1.04195230e-01
 -5.18845767e-02 -3.83047089e-02  6.47857040e-02 -1.08344272e-01
 -5.28296530e-02  1.26538739e-01 -1.13288343e-01 -1.84210911e-01
  1.08100269e-02  2.09624991e-02  9.65189040e-02  4.91602644e-02
 -4.96198460e-02 -2.34828312e-02  1.38545826e-01 -8.82878304e-02
 -4.47384454e-02  6.38885540e-04 -9.91958827e-02 -1.34538710e-02
  1.18559767e-02 -1.70184337e-02  2.97315001e-01  1.18187098e-02
  8.03805888e-03  5.08733802e-02 -8.61320719e-02 -3.10793146e-02
 -6.68754503e-02 -9.77587849e-02  1.41571730e-01  6.77278340e-02
 -3.69203612e-02 -1.70476943e-01  9.08673704e-02 -1.71100907e-02
 -1.44141257e-01 -1.75156966e-01  7.44600594e-02 -4.61389357e-03
  1.71956662e-02 -3.72272991e-02  2.15773389e-01  7.06897229e-02
  1.83194637e-01  3.92084979e-02 -8.33607316e-02 -8.89001489e-02
 -4.33098013e-03  8.05169865e-02 -8.48160237e-02 -1.28134176e-01
  3.27161215e-02  1.37233600e-01  2.54021678e-02 -3.55264619e-02
  1.11243740e-01  1.11212267e-03  1.52901456e-01  1.66956022e-01
  9.82917547e-02 -1.94025546e-01 -1.89514995e-01  8.00415203e-02
 -6.12449907e-02  1.36407197e-01 -2.01841816e-02  2.56706383e-02 ]
[ -1.14366906e-02 -1.21490978e-01  1.32348835e-01 -4.98478971e-02
  4.55623530e-02  1.11619718e-01  9.14897711e-04 -3.60632129e-02
 -4.99316007e-02 -5.83614595e-02  1.35343364e-02 -1.15114555e-01
 -1.28755420e-01 -6.86129406e-02  3.81945446e-02 -5.34026138e-02
  5.72274067e-02 -1.02827638e-01 -1.71311051e-01  9.64053720e-02
 -7.68965259e-02 -4.11732420e-02  3.97933763e-05  1.09887905e-01
 -1.48431987e-01 -5.63425757e-02  6.35094941e-02 -5.18835932e-02
 -1.01302259e-01  1.21725075e-01 -8.63213018e-02  8.08452591e-02
  1.00277372e-01  2.06778869e-02  5.46017252e-02 -1.42610759e-01
  1.57894120e-02 -1.11052148e-01 -1.24998577e-01 -5.07357270e-02
  1.14853658e-01 -4.20190804e-02  5.10307439e-02 -1.31354317e-01
 -5.34981489e-02 -3.39731649e-02 -1.52833551e-01  7.20197633e-02
 -4.10156772e-02  1.13769260e-03  1.13159679e-01 -5.39925620e-02
 -2.21334491e-02 -2.33939141e-01  2.66782697e-02 -1.16878964e-01
  3.21086161e-02  4.53501306e-02 -1.64291151e-02 -1.62209384e-03
  1.97637841e-01 -9.97309461e-02  1.41744822e-01 -1.25885814e-01
 -5.37733920e-03  1.22396667e-02  1.74660251e-01 -6.12380058e-02
  9.53679681e-02  5.87876514e-03  7.04279169e-02  1.29695423e-02
 -7.24787414e-02  8.24886113e-02  1.23254033e-02 -7.15471581e-02
 -4.91857110e-03 -3.61468494e-02 -2.98964195e-02 -5.45243844e-02
  2.94684861e-02 -7.42933080e-02 -1.54244539e-03  5.47248311e-02
 -4.16950881e-02  1.33450717e-01  9.43302587e-02  2.30296794e-02
 -4.32015993e-02 -3.13078016e-02  5.30974977e-02  2.64557134e-02
 -1.34083154e-02 -6.83648884e-02 -3.18540148e-02 -5.83167970e-02
 -2.05165278e-02  6.80008531e-02  8.23712349e-03 -7.05662072e-02
 -3.82799767e-02 -1.35987857e-02  1.75615743e-01 -5.90165146e-02
 -4.82889079e-02  3.67981829e-02  4.98611219e-02 -3.40918861e-02
  3.56876035e-03 -1.27352327e-01  9.45277214e-02 -4.81613390e-02
  5.20018637e-02 -1.77869331e-02 -1.75352648e-01  3.34822498e-02
 -5.77059425e-02 -2.13579372e-01  7.42427409e-02  9.50816646e-02
  7.70638436e-02 -4.72379150e-03 -6.29963055e-02  1.81352466e-01
  4.71008420e-02  1.82148665e-02  4.64209169e-02  2.54352465e-02
  7.26150349e-02 -3.30954567e-02  2.58442853e-02 -3.05166263e-02
  1.09458491e-02  9.91579816e-02 -5.47007956e-02 -6.40237406e-02
  2.40362417e-02  1.09721757e-01 -7.25951418e-02 -1.43663675e-01
  1.30986899e-01  9.68585312e-02 -9.40742642e-02 -1.86934531e-01
  2.05568988e-02  1.03601702e-02 -6.72028363e-02  1.55218229e-01
  6.44495385e-03 -8.76104832e-02  3.91663276e-02 -7.09123462e-02
  6.58106282e-02  1.56502187e-01 -2.71966636e-01 -1.19977012e-01
  1.93519145e-02  8.21602866e-02  2.38817222e-02  6.67987391e-02
 -8.39872286e-02 -6.57158270e-02 -7.21404422e-03  1.07952893e-01
  1.03612177e-01 -3.55590805e-02 -1.16903139e-02  9.69666988e-03
 -6.60155788e-02 -7.58578442e-03  5.48921432e-03  7.36236945e-02
 -2.18176506e-02 -1.99330166e-01  1.15389004e-01 -2.67268233e-02
 -3.18586491e-02 -1.08487429e-02  1.35709867e-01 -1.83152203e-02
  6.32604361e-02 -6.43116597e-04 -3.94783467e-02 -3.22610103e-02
  1.79183707e-02  1.70303509e-01  5.04010823e-03 -8.70525390e-02
 -2.11300198e-02  1.55784916e-02 -2.23512426e-01  1.41218323e-02
  5.58343641e-02 -3.07499021e-01  4.15091850e-02  1.19660228e-01
  4.66264319e-03 -1.53917864e-01 -1.21944070e-01 -4.50404584e-02
 -1.06034866e-02 -9.66789946e-03 -3.64858024e-02  8.16191137e-02
 -8.30113813e-02  4.85024862e-02  1.39959738e-01 -9.34226513e-02
  1.49058953e-01  8.23422708e-03 -1.08102635e-01  7.46136755e-02
 -9.81285051e-02 -2.29755286e-02  4.11618948e-02 -9.37518477e-02
  2.65056510e-02  1.27418172e-02 -7.35676885e-02 -7.98663944e-02
 -8.06766450e-02  1.01603270e-01 -1.22000925e-01  5.28061111e-03
  4.18186300e-02  1.24578908e-01 -1.54286131e-01 -3.02228536e-02
  5.48494719e-02  1.17794491e-01 -1.64360553e-02 -1.00214735e-01
 -1.19399264e-01 -8.62926245e-02 -1.71785988e-02  1.05855785e-01
 -1.95532709e-01  6.09915005e-03  3.38261314e-02 -2.67836191e-02
 -1.72660470e-01 -1.60781100e-01  1.49984539e-01  1.71585932e-01
 -8.36230814e-02  1.54858865e-02 -1.27144307e-01 -8.18926916e-02
 -4.15746914e-03  5.38900718e-02  1.23460013e-02 -5.70708066e-02
 -1.44969404e-01 -5.44414259e-02  1.55937253e-02 -2.44122315e-02 ]
[ -3.10370792e-03  9.08864662e-03  7.10347667e-03  4.51188674e-03
  5.83449705e-03  4.14761901e-03 -9.56726074e-03 -1.25615634e-02
  4.28567315e-03 -1.74491610e-02  1.61273517e-02  8.71744752e-03
  5.69652859e-03  4.83868504e-03  1.49993040e-03 -8.89656774e-04
 -1.22869629e-02  4.03029704e-03 -6.09956542e-03 -7.80717842e-03
 -6.29208377e-03  9.64986254e-03  7.00044446e-03  1.49291558e-02
 -1.24072954e-02  8.12695455e-03 -3.66236479e-03 -8.16315506e-03
 -8.63432791e-03 -8.88109673e-03 -1.28264609e-03  1.49958709e-04
  1.32515654e-02 -7.74866762e-03 -2.71201897e-02 -3.68835521e-03
 -2.64784996e-03  7.91287981e-03 -6.93254080e-03 -6.93917461e-03
  7.85945170e-03 -8.93404800e-03 -6.65733963e-03  1.07851559e-02
  2.58850679e-03  4.38512675e-03 -1.11782597e-02  3.16900155e-03
  8.45909491e-03 -1.74715044e-03 -1.24961259e-02 -4.27563814e-03
  8.37023091e-03  1.12786982e-02  2.46629049e-03  6.51637791e-03
  1.02387890e-02  7.64356833e-03  4.64781048e-03  8.95064417e-03
  2.83537968e-03 -1.08055407e-02 -1.53039088e-02 -1.39235659e-02
 -8.06466211e-03  2.01809476e-03 -9.07779019e-03  3.64517188e-03
  1.16890073e-02 -1.04100201e-02 -2.53403261e-02 -1.31067447e-02
 -7.10731186e-03 -6.07838621e-03  4.19742009e-03 -1.02507593e-02
 -1.28181092e-03 -3.91493691e-03  2.23631337e-02 -1.32159237e-02
 -1.26361810e-02  6.56394754e-03  6.98390231e-03 -6.25617150e-03
 -1.12506161e-02  4.57108160e-03  7.28163868e-03  8.57054908e-03
 -1.04951346e-02 -1.75081426e-03 -8.70054960e-03 -4.52265231e-04
  9.22130514e-03  6.49502128e-02 -4.59587527e-03  8.27277603e-04
  9.54495650e-03  6.91256858e-03  2.77200271e-03 -5.47428790e-04
 -5.99400746e-03  4.68890630e-02 -4.04557539e-03  4.55552619e-03
  4.09398926e-03 -5.59523236e-04  2.59963535e-02 -2.47031879e-02
  3.74170509e-03 -1.78629323e-03 -1.06813582e-02 -1.98231488e-02
 -2.98307999e-03  1.52487429e-02  9.52973869e-03 -1.26478644e-02
 -1.87679543e-04 -2.62373239e-02  8.74110218e-03 -9.85282753e-03
  1.43161099e-02 -1.15836971e-04  1.19373454e-02  8.90144426e-03
  9.52913053e-03 -9.80606768e-03  6.01497516e-02  5.75569924e-03
  1.00412350e-02  1.39383391e-01 -1.07574528e-02 -3.66893271e-03
  4.19776421e-03 -5.28524537e-03  4.32895916e-03  4.54112096e-03
